svm_type c_svc
kernel_type rbf
gamma 0.0344828
nr_class 2
total_sv 2
rho 0
label 0 1
nr_sv 1 1
SV
1 0:0.75 1:4.2678571 2:1 6:1 7:1 8:0.71428571 9:0.5 10:1.000713 11:1 13:0.03 15:0.033333333 16:0.018867925 18:0.026 19:0.0418 22:0.0033333333 23:0.051 24:0.037735849 26:1 27:0.93 28:0.58490566 29:0.76712329 
-1 0:0.84482759 1:4.3793103 6:1 7:0.83333333 8:0.71428571 9:0.52631579 11:1 13:0.03 16:0.017241379 17:0.017241379 18:0.0285 19:0.0444 21:0.012987013 22:0.01 23:0.056 24:0.034482759 26:1 29:0.75324675 
