svm_type c_svc
kernel_type rbf
gamma 0.111111
nr_class 2
total_sv 1605
rho -0.122453
label 0 1
nr_sv 849 756
SV
0.8775971274757334 0:0.19230769 1:0.18518519 5:2749 6:37 7:44 8:1 9:249 
0.8775653403322116 0:0.47619048 1:0.14084507 5:2514 6:52 7:68 8:1 9:230 
0.8777077878747411 0:0.83333333 1:0.15873016 5:2800 6:42 7:54 8:1 9:249 
0.8780183063043783 0:0.22222222 1:0.22727273 5:2378 6:39 7:36 8:1 9:246 
0.8777206776261743 0:0.37037037 1:0.27027027 5:2819 6:35 7:28 8:1 9:248 
0.8779416770525234 0:0.34482759 1:0.20408163 5:2948 6:23 7:39 8:1 9:272 
0.8775450754337918 0:0.55555556 1:0.20833333 5:2659 6:38 7:38 8:1 9:225 
0.8778464873481773 0:0.38461538 1:0.25 5:2919 6:27 7:31 8:1 9:289 
0.8777483495976696 0:0.20833333 1:0.22222222 5:3056 6:37 7:35 8:1 9:309 
0.877584500355126 0:1 1:0.16666667 5:2869 6:44 7:50 8:1 9:245 
0.8776371681046314 0:0.3030303 1:0.2 5:2789 6:35 7:43 8:1 9:261 
0.8771636438671344 0:0.66666667 1:0.22222222 5:2467 6:30 7:35 8:1 9:211 
0.8776371644769563 0:0.4 1:0.38461538 5:2408 6:26 7:16 8:1 9:203 
0.8776596394781696 0:0.43478261 1:0.28571429 5:2789 6:29 7:28 8:1 9:234 
0.8775780332185603 0:0.35714286 1:0.27027027 5:2754 6:36 7:27 8:1 9:245 
0.8776815668478224 0:0.38461538 1:0.20833333 5:2877 6:25 7:42 8:1 9:265 
0.8774252304887317 0:0.45454545 1:0.16129032 5:2761 6:55 7:56 8:1 9:260 
0.8777331996533474 0:0.625 1:0.32258065 5:2643 6:32 7:24 8:1 9:241 
0.8774679322533475 0:0.25 1:0.28571429 5:2586 6:35 7:27 8:1 9:253 
0.877190198377917 0:0.5 1:0.23255814 5:2725 6:35 7:34 8:1 9:254 
0.8775477138075419 0:0.33333333 1:0.32258065 5:2648 6:46 7:23 8:1 9:233 
0.8780110551434648 0:0.25 1:0.18518519 5:2887 6:39 7:44 8:1 9:277 
0.8775805376560937 0:0.43478261 1:0.092592593 5:2599 6:32 7:119 8:1 9:226 
0.8987868044328545 0:0.55555556 1:0.23809524 5:2735 6:31 7:32 8:1 9:256 
0.8777331428310452 0:0.37037037 1:0.20833333 5:2826 6:36 7:38 8:1 9:279 
0.877707421463928 0:0.32258065 1:0.21276596 5:2662 6:47 7:43 8:1 9:229 
0.8771199394399906 0:0.5 1:0.17857143 5:2595 6:34 7:46 8:1 9:227 
0.8779949069165073 0:0.25 1:0.16949153 5:2654 6:41 7:51 8:1 9:258 
0.8778324751789325 0:0.25641026 1:0.22222222 5:2869 6:48 7:35 8:1 9:267 
0.8773925324166195 0:0.21276596 1:0.17241379 5:2721 6:49 7:51 8:1 9:220 
0.8775397729981594 0:0.45454545 1:0.34482759 5:2456 6:46 7:25 8:1 9:246 
0.8779260478864487 0:0.47619048 1:0.25 5:2669 6:38 7:33 8:1 9:257 
0.8771784806190444 0:0.66666667 1:0.2 5:2702 6:21 7:41 8:1 9:262 
0.8776920554151126 0:0.3125 1:0.18518519 5:2601 6:32 7:44 8:1 9:236 
0.8770950478283004 0:0.25641026 1:0.15151515 5:2600 6:48 7:56 8:1 9:239 
0.8776665849577529 0:0.25641026 1:0.17241379 5:2544 6:53 7:48 8:1 9:237 
0.8772137788325548 0:0.45454545 1:0.15151515 5:2614 6:65 7:59 8:1 9:230 
0.8774277909922686 0:0.47619048 1:0.23255814 5:2720 6:25 7:33 8:1 9:287 
0.8775811806708522 0:0.2173913 1:0.25 5:2776 6:34 7:30 8:1 9:274 
0.8775157655095563 0:0.19607843 1:0.2 5:2815 6:26 7:40 8:1 9:255 
0.8772694538802057 0:0.18518519 1:0.23255814 5:2528 6:46 7:36 8:1 9:250 
0.8772588496966532 0:0.27777778 1:0.17857143 5:2805 6:30 7:50 8:1 9:293 
0.8777006451917114 0:0.24390244 1:0.19607843 5:2512 6:42 7:42 8:1 9:237 
0.8775654722427529 0:0.55555556 1:0.13333333 5:2677 6:56 7:68 8:1 9:220 
0.8777132902706869 0:0.43478261 1:0.25 5:2652 6:18 7:31 8:1 9:269 
0.8775671203411316 0:0.38461538 1:0.26315789 5:2569 6:43 7:28 8:1 9:256 
0.8771267864256493 0:0.625 1:0.29411765 5:2457 6:53 7:25 8:1 9:235 
0.8777116983853204 0:0.23255814 1:0.23255814 5:2887 6:24 7:34 8:1 9:282 
0.8775803828178342 0:0.43478261 1:0.14285714 5:2680 6:38 7:64 8:1 9:236 
0.8779887336890774 0:0.3125 1:0.16666667 5:2749 6:42 7:54 8:1 9:269 
0.8780325115152327 0:0.34482759 1:0.25641026 5:2739 6:41 7:29 8:1 9:254 
0.8776491692129559 0:0.41666667 1:0.18181818 5:2867 6:17 7:50 8:1 9:281 
0.8779463398849208 0:0.34482759 1:0.21276596 5:2667 6:28 7:40 8:1 9:234 
0.8776484875155115 0:0.27777778 1:0.13333333 5:2953 6:31 7:67 8:1 9:287 
0.8772966488529235 0:0.22222222 1:0.17857143 5:2944 6:28 7:49 8:1 9:291 
0.8771887941901411 0:0.25 1:0.15151515 5:2817 6:59 7:60 8:1 9:273 
0.8776748069394588 0:0.22727273 1:0.20833333 5:2507 6:42 7:38 8:1 9:251 
0.8777026176888224 0:0.34482759 1:0.16393443 5:2834 6:38 7:55 8:1 9:281 
0.8777006421405047 0:0.17857143 1:0.19607843 5:2876 6:20 7:40 8:1 9:280 
0.8782777879114712 0:0.76923077 1:0.22222222 5:2686 6:25 7:35 8:1 9:249 
0.8776542898914745 0:0.16129032 1:0.20408163 5:2794 6:28 7:43 8:1 9:285 
5 0:0.90909091 1:0.76923077 5:52 7:1 8:1 9:10 
0.900555349215371 0:1 1:0.71428571 5:237 6:8 7:5 8:1 9:39 
5 0:0.90909091 1:0.76923077 5:222 6:5 7:4 8:1 9:33 
4.822785308747784 0:0.58823529 1:0.625 5:642 6:2 7:7 8:1 9:83 
0.9176226969586114 0:1 1:1 5:92 6:4 7:1 8:1 9:16 
0.4026580003723175 0:1 1:0.83333333 5:77 6:4 7:1 8:1 9:17 
3.720585057359543 0:1 1:1 5:95 6:3 7:2 8:1 9:20 
0.5084032854564069 0:0.83333333 1:0.90909091 5:85 7:2 8:1 9:15 
0.2747490791068288 0:0.76923077 1:0.90909091 5:183 6:3 7:3 8:1 9:34 
0.1727825594552871 0:0.71428571 1:0.83333333 5:366 6:4 7:4 8:1 9:50 
2.594113234601995 0:0.76923077 1:0.5 5:368 6:2 7:4 8:1 9:51 
5 0:1 1:0.83333333 5:145 6:2 7:4 8:1 9:26 
1.708643234983318 0:0.83333333 1:0.90909091 5:110 7:2 8:1 9:23 
1.575939508057044 0:1 1:0.90909091 5:99 6:3 7:1 8:1 9:20 
5 0:0.90909091 1:1 5:54 6:2 7:1 8:1 9:12 
2.91894990465189 0:1 1:0.90909091 5:145 6:2 7:2 8:1 9:19 
5 0:0.90909091 1:0.90909091 5:162 6:2 7:2 8:1 9:27 
5 0:1 1:0.90909091 5:43 6:2 7:1 8:1 9:9 
0.1792362880322223 0:1 1:1 5:40 6:2 7:1 8:1 9:9 
1.080044838139327 0:0.83333333 1:0.71428571 5:243 6:2 7:5 8:1 9:35 
3.932259447680892 0:1 1:0.83333333 5:71 7:2 8:1 9:15 
3.891379689131 0:1 1:0.83333333 5:75 6:1 7:2 8:1 9:15 
3.003963248327838 0:1 1:0.83333333 5:38 6:1 7:2 8:1 9:6 
2.501332876699043 0:1 1:1 5:36 6:3 7:1 8:1 9:8 
5 0:1 1:0.83333333 5:47 6:1 7:2 8:1 9:10 
4.769090887421492 0:1 1:0.76923077 5:58 6:2 7:1 8:1 9:13 
2.646201596009947 0:1 1:0.90909091 5:50 6:2 7:2 8:1 9:10 
5 0:0.90909091 1:0.90909091 5:54 7:3 8:1 9:9 
5 0:0.90909091 1:0.90909091 5:43 7:1 8:1 9:10 
3.793312423530071 0:0.90909091 1:0.76923077 5:191 6:3 7:3 8:1 9:31 
5 0:0.90909091 1:0.83333333 5:69 7:1 8:1 9:12 
3.594843703057738 0:1 1:1 5:39 6:2 7:1 8:1 9:8 
5 0:1 1:1 5:21 6:1 7:1 8:1 9:5 
3.178833104602808 0:1 1:0.76923077 5:153 6:3 7:3 8:1 9:25 
1.352911131634438 0:1 1:0.76923077 5:127 6:3 7:3 8:1 9:24 
2.318143367791377 0:1 1:0.83333333 5:107 6:2 7:2 8:1 9:18 
0.223435235250863 0:1 1:0.76923077 5:216 6:4 7:3 8:1 9:30 
0.8732017040189258 0:0.90909091 1:0.71428571 5:280 6:6 7:4 8:1 9:50 
0.4738741083853139 0:1 1:0.83333333 5:58 6:1 7:2 8:1 9:12 
2.011882725267672 0:1 1:1 5:39 6:1 7:1 8:1 9:7 
5 0:1 1:0.90909091 5:33 7:1 8:1 9:7 
0.01417345321763187 0:1 1:1 5:46 6:3 7:1 8:1 9:10 
5 0:1 1:0.76923077 5:158 6:2 7:3 8:1 9:29 
2.950977726608488 0:0.90909091 1:0.83333333 5:86 6:3 7:2 8:1 9:18 
5 0:1 1:0.90909091 5:69 7:1 8:1 9:13 
5 0:0.76923077 1:0.71428571 5:337 6:3 7:5 8:1 9:49 
5 0:1 1:0.71428571 5:274 6:8 7:5 8:1 9:39 
5 0:0.90909091 1:0.76923077 5:258 6:5 7:4 8:1 9:36 
3.297469745724329 0:1 1:0.90909091 5:54 6:3 7:1 8:1 9:12 
5 0:0.83333333 1:0.47619048 4:1 5:786 6:5 7:8 8:1 9:85 
1.614702664464103 0:0.58823529 1:0.625 5:678 6:2 7:7 8:1 9:86 
5 0:1 1:0.83333333 5:90 6:3 7:2 8:1 9:12 
1.381565297173997 0:0.83333333 1:0.90909091 5:97 7:2 8:1 9:11 
5 0:0.90909091 1:0.83333333 5:79 7:1 8:1 9:12 
0.2332248611049392 0:0.66666667 1:0.83333333 5:352 6:5 7:4 8:1 9:48 
5 0:0.76923077 1:0.5 5:414 6:2 7:5 8:1 9:53 
5 0:1 1:0.83333333 5:173 6:2 7:4 8:1 9:28 
5 0:0.83333333 1:0.71428571 5:458 6:4 7:5 8:1 9:57 
5 0:1 1:0.71428571 5:274 6:8 7:5 8:1 9:39 
5 0:0.90909091 1:0.76923077 5:258 6:5 7:4 8:1 9:36 
5 0:0.83333333 1:0.47619048 4:1 5:786 6:5 7:8 8:1 9:85 
5 0:0.58823529 1:0.625 5:689 6:2 7:7 8:1 9:86 
5 0:1 1:0.52631579 5:110 6:1 7:4 8:1 9:18 
5 0:1 1:0.66666667 5:96 6:3 7:2 8:1 9:18 
5 0:1 1:0.76923077 5:90 6:3 7:3 8:1 9:12 
5 0:0.83333333 1:0.90909091 5:95 7:2 8:1 9:11 
5 0:0.90909091 1:0.83333333 5:81 7:1 8:1 9:13 
0.3226284692317005 0:1 1:0.76923077 5:287 6:9 7:4 8:1 9:41 
5 0:0.66666667 1:0.83333333 5:410 6:4 7:4 8:1 9:54 
5 0:0.76923077 1:0.5 5:414 6:2 7:5 8:1 9:53 
5 0:1 1:0.83333333 5:173 6:2 7:4 8:1 9:28 
0.4321903664164353 0:1 1:0.71428571 5:276 6:1 7:5 8:1 9:40 
3.422765786543879 0:0.90909091 1:0.76923077 5:134 6:3 7:3 8:1 9:20 
5 0:1 1:0.83333333 5:135 7:3 8:1 9:21 
0.9144341105449401 0:1 1:0.58823529 5:332 6:1 7:5 8:1 9:40 
0.7997393315833848 0:0.90909091 1:0.83333333 5:283 6:1 7:3 8:1 9:39 
5 0:0.90909091 1:0.90909091 5:81 6:2 7:1 8:1 9:15 
0.7869088788946502 0:0.90909091 1:0.76923077 5:252 6:5 7:4 8:1 9:31 
0.5037792759506513 0:1 1:1 5:76 6:2 7:2 8:1 9:8 
5 0:1 1:0.90909091 5:85 7:1 8:1 9:12 
5 0:1 1:0.90909091 5:95 6:1 7:1 8:1 9:16 
5 0:1 1:0.76923077 5:191 6:4 7:4 8:1 9:33 
0.578528758004357 0:0.90909091 1:0.83333333 5:227 6:1 7:3 8:1 9:34 
5 0:1 1:1 5:98 7:1 8:1 9:18 
1.27308181814529 0:0.83333333 1:0.71428571 5:496 6:7 7:5 8:1 9:61 
2.351365928997689 0:0.90909091 1:0.76923077 5:312 6:8 7:5 8:1 9:44 
0.04486548509196615 0:0.83333333 1:0.76923077 5:252 6:3 7:4 8:1 9:33 
1.127636238340747 0:0.90909091 1:0.45454545 4:1 5:751 6:5 7:9 8:1 9:83 
0.8192015300651653 0:0.83333333 1:0.47619048 4:1 5:800 6:5 7:8 8:1 9:87 
0.7808678531794281 0:0.625 1:0.625 5:637 6:6 7:6 8:1 9:82 
3.658868970119221 0:0.90909091 1:1 5:107 6:2 7:4 8:1 9:18 
3.67733657002342 0:0.90909091 1:1 5:141 6:3 7:2 8:1 9:19 
5 0:0.83333333 1:0.90909091 5:119 7:2 8:1 9:16 
2.004291439831313 0:0.90909091 1:0.90909091 5:114 7:1 8:1 9:20 
0.878118500278339 0:0.76923077 1:0.76923077 5:428 6:11 7:5 8:1 9:65 
0.5465811613364838 0:0.76923077 1:0.5 5:415 6:3 7:5 8:1 9:59 
3.029826803855531 0:1 1:0.83333333 5:163 6:1 7:4 8:1 9:28 
0.4890060406773382 0:0.58823529 1:0.625 5:709 6:2 7:7 8:1 9:88 
1.128265788086196 0:1 1:0.5 5:129 6:2 7:5 8:1 9:21 
5 0:0.90909091 1:0.76923077 5:85 6:1 7:2 8:1 9:14 
5 0:0.83333333 1:0.76923077 5:169 6:3 7:4 8:1 9:28 
5 0:0.83333333 1:0.55555556 5:546 6:6 7:5 8:1 9:71 
0.8831450615706384 0:0.625 1:0.71428571 5:479 6:3 7:5 8:1 9:67 
4.991713304807115 0:0.625 1:0.71428571 5:479 6:3 7:5 8:1 9:67 
5 0:1 1:1 5:88 6:2 7:2 8:1 9:16 
5 0:1 1:1 5:72 6:2 7:2 8:1 9:9 
5 0:0.83333333 1:1 5:85 7:1 8:1 9:11 
0.02475749465441915 0:1 1:0.66666667 5:109 6:4 7:2 8:1 9:21 
4.488158195942933 0:0.90909091 1:0.90909091 5:79 6:1 7:1 8:1 9:14 
5 0:0.76923077 1:0.76923077 5:256 6:7 7:5 8:1 9:37 
5 0:0.83333333 1:0.71428571 5:248 6:5 7:2 8:1 9:44 
5 0:0.90909091 1:0.90909091 5:138 6:1 7:3 8:1 9:22 
5 0:0.83333333 1:0.83333333 5:203 6:9 7:2 8:1 9:33 
1.041264548830476 0:0.66666667 1:0.71428571 5:470 6:4 7:5 8:1 9:58 
1.369043532281836 0:0.83333333 1:0.71428571 5:284 6:9 7:5 8:1 9:41 
0.7624617040554499 0:1 1:0.58823529 5:599 6:6 7:6 8:1 9:76 
1.428377260983548 0:0.625 1:0.76923077 5:420 6:5 7:4 8:1 9:59 
3.09024900229985 0:1 1:0.52631579 5:87 6:2 7:3 8:1 9:13 
3.122638807698347 0:1 1:0.58823529 5:101 7:4 8:1 9:13 
1.445569567639097 0:0.83333333 1:0.90909091 5:111 7:2 8:1 9:14 
5 0:1 1:0.90909091 5:84 6:1 7:1 8:1 9:13 
3.066860024520213 0:0.66666667 1:0.83333333 5:406 6:5 7:3 8:1 9:50 
1.222513319730774 0:0.76923077 1:0.625 5:419 6:6 7:5 8:1 9:56 
5 0:1 1:0.76923077 5:199 6:2 7:4 8:1 9:31 
5 0:0.83333333 1:0.71428571 5:464 6:4 7:5 8:1 9:57 
5 0:1 1:0.71428571 5:274 6:8 7:5 8:1 9:39 
5 0:0.83333333 1:0.90909091 5:95 7:2 8:1 9:12 
5 0:0.90909091 1:0.76923077 5:258 6:5 7:4 8:1 9:36 
5 0:0.83333333 1:0.47619048 4:1 5:786 6:5 7:8 8:1 9:85 
1.296373419205561 0:0.58823529 1:0.625 5:687 6:2 7:7 8:1 9:84 
5 0:1 1:0.52631579 5:110 6:1 7:4 8:1 9:18 
5 0:1 1:0.66666667 5:96 6:3 7:2 8:1 9:18 
5 0:1 1:0.76923077 5:90 6:3 7:3 8:1 9:12 
5 0:0.83333333 1:0.90909091 5:95 7:2 8:1 9:11 
5 0:0.90909091 1:0.83333333 5:81 7:1 8:1 9:13 
5 0:0.66666667 1:0.83333333 5:410 6:4 7:4 8:1 9:54 
5 0:0.76923077 1:0.5 5:414 6:2 7:5 8:1 9:53 
4.783724812945719 0:0.90909091 1:0.90909091 5:89 6:1 7:1 8:1 9:15 
5 0:1 1:0.83333333 5:173 6:2 7:4 8:1 9:28 
4.474863628834351 0:0.83333333 1:0.71428571 5:461 6:4 7:5 8:1 9:57 
5 0:1 1:0.71428571 5:274 6:8 7:5 8:1 9:39 
3.412110837639359 0:0.90909091 1:0.76923077 5:256 6:5 7:4 8:1 9:36 
2.304091914425611 0:0.83333333 1:0.47619048 4:1 5:784 6:5 7:9 8:1 9:85 
5 0:1 1:0.52631579 5:112 7:3 8:1 9:18 
5 0:1 1:0.66666667 5:98 6:3 7:2 8:1 9:18 
5 0:0.83333333 1:0.90909091 5:95 7:2 8:1 9:11 
0.1244525643567649 0:0.90909091 1:0.83333333 5:85 7:1 8:1 9:13 
3.930760171697354 0:0.76923077 1:0.5 5:407 6:2 7:5 8:1 9:53 
5 0:1 1:0.83333333 5:174 6:2 7:4 8:1 9:28 
0.1749591937366561 0:0.83333333 1:0.76923077 5:336 6:5 7:4 8:1 9:43 
1.278658828420093 0:0.83333333 1:0.71428571 5:266 6:3 7:6 8:1 9:35 
0.9433243162915634 0:0.90909091 1:0.76923077 5:221 6:1 7:4 8:1 9:34 
0.4045714496221765 0:0.66666667 1:0.47619048 4:1 5:767 6:3 7:8 8:1 9:85 
2.808211485386888 0:0.58823529 1:0.625 5:694 6:1 7:7 8:1 9:84 
5 0:1 1:1 5:95 6:2 7:2 8:1 9:16 
5 0:0.76923077 1:0.5 5:419 6:2 7:5 8:1 9:54 
5 0:1 1:0.625 5:93 6:3 7:3 8:1 9:15 
2.575365939315474 0:1 1:0.76923077 5:100 6:2 7:3 8:1 9:11 
1.736260721439924 0:0.83333333 1:0.90909091 5:105 7:2 8:1 9:12 
4.512280814688837 0:0.90909091 1:0.83333333 5:96 6:2 7:1 8:1 9:14 
1.110974859738962 0:0.625 1:0.83333333 5:391 6:7 7:4 8:1 9:50 
0.05249017222446544 0:0.76923077 1:0.76923077 5:367 6:1 7:5 8:1 9:50 
4.900628430258694 0:0.90909091 1:0.83333333 5:144 6:1 7:1 8:1 9:23 
0.1721396372104846 0:0.90909091 1:0.83333333 5:133 6:2 7:1 8:1 9:24 
3.776228200379363 0:0.90909091 1:0.90909091 5:120 6:2 7:2 8:1 9:21 
3.822819517386654 0:1 1:0.83333333 5:176 6:3 7:4 8:1 9:29 
0.8713076461992333 0:1 1:0.76923077 5:286 6:1 7:3 8:1 9:30 
2.631365191517329 0:0.83333333 1:0.90909091 5:126 6:1 7:1 8:1 9:20 
5 0:1 1:1 5:81 6:3 7:2 8:1 9:12 
5 0:0.90909091 1:1 5:68 6:2 7:1 8:1 9:12 
1.645214424475718 0:0.90909091 1:0.90909091 5:65 7:1 8:1 9:12 
3.586927513900794 0:1 1:1 5:112 6:1 7:1 8:1 9:21 
1.031648571913461 0:0.83333333 1:0.71428571 5:224 6:1 7:2 8:1 9:35 
3.000109517737194 0:1 1:0.71428571 5:204 6:2 7:4 8:1 9:33 
5 0:0.90909091 1:0.71428571 5:401 6:4 7:5 8:1 9:51 
4.344627943547991 0:1 1:0.90909091 5:60 6:3 7:2 8:1 9:12 
1.458383722606634 0:1 1:0.83333333 5:146 6:3 7:3 8:1 9:25 
1.284867290726874 0:0.83333333 1:0.5 4:1 5:680 6:4 7:7 8:1 9:80 
0.723560403538981 0:0.625 1:0.625 5:571 6:2 7:6 8:1 9:77 
2.925848743655627 0:1 1:0.625 5:93 6:2 7:3 8:1 9:14 
5 0:0.90909091 1:0.71428571 5:100 6:4 7:3 8:1 9:17 
3.172708844171572 0:1 1:1 5:75 6:3 7:2 8:1 9:11 
4.960609395723461 0:0.83333333 1:0.90909091 5:81 7:2 8:1 9:10 
5 0:0.90909091 1:0.83333333 5:79 7:1 8:1 9:13 
5 0:1 1:0.83333333 5:138 6:3 7:3 8:1 9:24 
3.455868169953867 0:0.83333333 1:0.90909091 5:193 6:2 7:3 8:1 9:33 
1.493870528753279 0:0.90909091 1:0.52631579 5:237 7:3 8:1 9:36 
2.025250092125192 0:1 1:0.83333333 5:131 6:2 7:4 8:1 9:19 
0.3336761716017855 0:1 1:0.90909091 5:131 6:1 7:2 8:1 9:16 
2.154031177958691 0:1 1:0.76923077 5:251 6:2 7:3 8:1 9:42 
3.99879883728248 0:1 1:1 5:66 6:1 7:2 8:1 9:14 
2.003861991320162 0:0.71428571 1:0.71428571 5:373 6:3 7:5 8:1 9:48 
2.025767334421452 0:0.76923077 1:0.71428571 5:241 6:6 7:5 8:1 9:35 
5 0:0.83333333 1:0.76923077 5:186 6:2 7:4 8:1 9:32 
0.6743205760050473 0:0.90909091 1:0.47619048 4:1 5:717 6:5 7:8 8:1 9:81 
0.6517089329181683 0:0.58823529 1:0.625 5:635 6:3 7:7 8:1 9:78 
5 0:1 1:0.625 5:67 6:2 7:3 8:1 9:12 
0.8767519841244028 0:0.83333333 1:0.76923077 5:95 6:3 7:2 8:1 9:15 
4.697830161192255 0:1 1:1 5:42 6:1 7:2 8:1 9:8 
1.224502459603921 0:1 1:0.83333333 5:41 6:1 7:2 8:1 9:9 
2.428834353130642 0:0.83333333 1:0.83333333 5:67 7:3 8:1 9:12 
5 0:1 1:0.83333333 5:57 7:1 8:1 9:10 
0.5898093843788572 0:0.71428571 1:0.83333333 5:353 6:5 7:4 8:1 9:49 
1.933479458443259 0:0.76923077 1:0.5 5:286 6:2 7:4 8:1 9:43 
5 0:0.90909091 1:0.83333333 5:133 6:2 7:3 8:1 9:23 
3.351457755972595 0:0.71428571 1:0.76923077 5:382 6:3 7:4 8:1 9:55 
3.571715148996705 0:0.83333333 1:0.83333333 5:200 6:3 7:3 8:1 9:29 
0.7757634983539663 0:0.90909091 1:0.76923077 5:275 7:3 8:1 9:37 
0.8840992321482081 0:0.66666667 1:0.76923077 5:360 6:2 7:4 8:1 9:59 
5 0:0.90909091 1:1 5:101 6:1 7:3 8:1 9:15 
5 0:0.90909091 1:0.90909091 5:94 6:2 7:3 8:1 9:17 
2.340565335510222 0:1 1:0.76923077 5:108 6:2 7:2 8:1 9:20 
5 0:0.90909091 1:0.90909091 5:84 7:2 8:1 9:13 
4.488438829922182 0:0.90909091 1:0.90909091 5:95 7:2 8:1 9:17 
1.319854465163288 0:0.76923077 1:0.76923077 5:335 6:7 7:6 8:1 9:50 
0.58917497717802 0:0.90909091 1:0.76923077 5:218 6:1 7:5 8:1 9:33 
5 0:0.83333333 1:0.83333333 5:145 6:1 7:4 8:1 9:25 
2.037237025998996 0:1 1:0.76923077 5:399 6:3 7:4 8:1 9:52 
1.809081112603936 0:1 1:0.83333333 5:209 6:6 7:3 8:1 9:35 
3.064655992944954 0:1 1:0.90909091 5:168 6:4 7:2 8:1 9:29 
0.8379354181864372 0:0.76923077 1:0.52631579 4:1 5:686 6:5 7:7 8:1 9:77 
4.688875333721573 0:0.625 1:0.55555556 5:691 6:2 7:8 8:1 9:87 
5 0:1 1:0.625 5:64 6:1 7:1 8:1 9:12 
5 0:1 1:1 5:29 6:1 7:1 8:1 9:6 
5 0:1 1:1 5:69 6:2 7:1 8:1 9:10 
5 0:1 1:0.90909091 5:36 7:2 8:1 9:8 
1.891138424009619 0:0.90909091 1:0.47619048 5:361 6:1 7:5 8:1 9:50 
5 0:1 1:0.83333333 5:63 7:2 8:1 9:12 
0.02855840675070222 0:1 1:0.83333333 5:151 6:3 7:3 8:1 9:27 
1.770963086791109 0:0.76923077 1:0.71428571 5:361 6:3 7:5 8:1 9:46 
0.7082279053952095 0:1 1:0.625 5:212 6:7 7:7 8:1 9:36 
0.8625225234878811 0:0.58823529 1:0.625 5:650 6:2 7:7 8:1 9:83 
4.506276363210915 0:1 1:1 5:58 6:1 7:2 8:1 9:11 
5 0:1 1:0.76923077 5:53 6:1 7:3 8:1 9:12 
5 0:1 1:0.90909091 5:60 6:2 7:2 8:1 9:12 
5 0:0.90909091 1:0.83333333 5:75 6:1 7:2 8:1 9:12 
0.871178854490593 0:1 1:0.66666667 5:239 6:1 7:5 8:1 9:42 
5 0:0.90909091 1:1 5:73 6:1 7:2 8:1 9:14 
1.7295136460927 0:0.71428571 1:0.76923077 5:379 6:3 7:6 8:1 9:49 
1.469499904365357 0:0.76923077 1:0.5 5:389 6:2 7:4 8:1 9:53 
3.893362565328645 0:1 1:0.83333333 5:137 6:2 7:4 8:1 9:25 
5 0:0.83333333 1:0.71428571 5:463 6:4 7:5 8:1 9:57 
1.655138674064808 0:0.90909091 1:0.76923077 5:251 6:5 7:4 8:1 9:35 
0.4581262324855597 0:0.66666667 1:0.47619048 4:1 5:782 6:5 7:8 8:1 9:84 
0.2511540549779294 0:0.58823529 1:0.625 5:694 6:2 7:7 8:1 9:88 
0.3642225968571167 0:0.90909091 1:0.625 5:119 6:3 7:4 8:1 9:18 
3.247867116494061 0:1 1:0.71428571 5:144 7:4 8:1 9:20 
3.179944129485722 0:1 1:0.76923077 5:102 6:4 7:2 8:1 9:16 
5 0:0.83333333 1:0.90909091 5:105 7:2 8:1 9:14 
1.334456205147278 0:0.625 1:0.83333333 5:400 6:6 7:4 8:1 9:52 
1.013003836108651 0:0.76923077 1:0.5 5:408 6:1 7:5 8:1 9:53 
0.2627536981086686 0:1 1:0.83333333 5:184 6:3 7:4 8:1 9:30 
0.7799213749367474 0:0.83333333 1:0.76923077 5:470 6:8 7:5 8:1 9:57 
0.8589279414160506 0:0.83333333 1:0.71428571 5:279 6:8 7:5 8:1 9:37 
5 0:0.83333333 1:0.76923077 5:260 6:4 7:4 8:1 9:40 
1.001750850619533 0:1 1:0.76923077 5:127 6:1 7:3 8:1 9:21 
0.8649999958180608 0:0.83333333 1:0.5 4:1 5:646 6:5 7:7 8:1 9:78 
0.6462425351120575 0:0.625 1:0.66666667 5:670 6:5 7:7 8:1 9:87 
1.470598179905181 0:1 1:1 5:105 6:1 7:5 8:1 9:17 
5 0:0.90909091 1:0.71428571 5:123 6:1 7:3 8:1 9:19 
2.736949756511709 0:0.90909091 1:0.90909091 5:96 7:2 8:1 9:12 
1.209486060256564 0:0.90909091 1:0.83333333 5:108 7:1 8:1 9:18 
0.8783259394350309 0:0.83333333 1:0.83333333 5:384 6:8 7:4 8:1 9:60 
3.606321007585799 0:0.76923077 1:0.58823529 5:416 6:4 7:5 8:1 9:62 
5 0:1 1:0.83333333 5:156 6:2 7:4 8:1 9:27 
1.007212560651562 0:0.83333333 1:0.71428571 5:401 6:6 7:5 8:1 9:48 
0.7467432021656328 0:1 1:0.76923077 5:185 6:4 7:4 8:1 9:27 
1.334139274005006 0:0.90909091 1:0.83333333 5:216 6:4 7:3 8:1 9:32 
5 0:0.83333333 1:0.47619048 4:1 5:786 6:5 7:8 8:1 9:85 
5 0:0.58823529 1:0.625 5:689 6:2 7:7 8:1 9:86 
5 0:1 1:0.55555556 5:97 6:1 7:4 8:1 9:15 
5 0:1 1:0.76923077 5:79 6:2 7:2 8:1 9:14 
5 0:0.83333333 1:0.90909091 5:95 7:2 8:1 9:11 
1.850725230462048 0:0.90909091 1:0.76923077 5:95 6:2 7:1 8:1 9:16 
4.019873100508787 0:0.83333333 1:0.83333333 5:217 6:4 7:3 8:1 9:32 
5 0:0.66666667 1:0.83333333 5:308 6:3 7:4 8:1 9:43 
5 0:0.76923077 1:0.5 5:414 6:2 7:5 8:1 9:53 
5 0:1 1:0.83333333 5:173 6:2 7:4 8:1 9:28 
5 0:0.90909091 1:0.76923077 5:143 6:1 7:4 8:1 9:21 
0.463937664961094 0:1 1:0.47619048 4:1 5:659 6:5 7:8 8:1 9:73 
0.7251180433164308 0:0.66666667 1:0.625 5:569 6:3 7:6 8:1 9:80 
0.5430023513404871 0:1 1:0.71428571 5:67 7:3 8:1 9:12 
4.050420221072976 0:0.90909091 1:0.90909091 5:117 6:4 7:2 8:1 9:22 
1.392347527586291 0:0.83333333 1:0.71428571 5:435 6:3 7:5 8:1 9:54 
1.023660944286181 0:0.83333333 1:0.71428571 5:357 6:6 7:5 8:1 9:51 
0.877565970545405 0:0.76923077 1:0.45454545 4:1 5:868 6:6 7:8 8:1 9:96 
0.8402543299056505 0:0.66666667 1:0.71428571 5:563 6:2 7:5 8:1 9:73 
2.881879033415859 0:1 1:1 5:50 7:2 8:1 9:8 
2.695881903224332 0:0.83333333 1:0.76923077 5:203 6:4 7:4 8:1 9:32 
1.096627386331202 0:0.83333333 1:0.83333333 5:174 6:9 7:4 8:1 9:31 
1.297541044591892 0:0.90909091 1:0.83333333 5:185 6:6 7:5 8:1 9:31 
1.267165310236475 0:0.83333333 1:0.71428571 5:205 6:2 7:5 8:1 9:31 
2.202598212372726 0:0.90909091 1:0.71428571 5:227 6:6 7:5 8:1 9:37 
0.8776019365453892 0:0.83333333 1:0.66666667 5:488 6:13 7:5 8:1 9:58 
0.267036058974664 0:0.83333333 1:0.55555556 5:416 6:6 7:6 8:1 9:58 
0.5790643568733291 0:0.83333333 1:0.76923077 5:193 6:2 7:4 8:1 9:30 
5 0:0.90909091 1:0.83333333 5:91 7:4 8:1 9:14 
1.200112073355555 0:1 1:0.83333333 5:74 7:2 8:1 9:12 
1.236215096904634 0:0.76923077 1:0.71428571 5:275 6:4 7:5 8:1 9:37 
0.9828881538623315 0:1 1:0.625 5:311 6:2 7:5 8:1 9:46 
5 0:0.90909091 1:0.71428571 5:394 6:3 7:4 8:1 9:52 
0.8518259489758433 0:1 1:0.71428571 5:282 6:8 7:5 8:1 9:41 
3.344747085237693 0:0.90909091 1:0.76923077 5:251 6:5 7:4 8:1 9:36 
1.773840411255135 0:1 1:0.90909091 5:104 7:2 8:1 9:14 
5 0:0.83333333 1:0.47619048 4:1 5:787 6:5 7:8 8:1 9:86 
0.879905964226791 0:0.58823529 1:0.625 5:684 6:2 7:7 8:1 9:86 
5 0:1 1:0.52631579 5:102 6:1 7:3 8:1 9:15 
5 0:1 1:0.66666667 5:120 6:2 7:3 8:1 9:18 
2.355006989735312 0:1 1:0.76923077 5:91 6:1 7:3 8:1 9:16 
5 0:0.83333333 1:0.90909091 5:91 7:2 8:1 9:12 
5 0:0.90909091 1:0.76923077 5:90 7:1 8:1 9:13 
1.928413501057667 0:0.66666667 1:0.83333333 5:409 6:4 7:4 8:1 9:53 
5 0:0.76923077 1:0.5 5:402 6:2 7:5 8:1 9:53 
3.690334929949737 0:1 1:0.83333333 5:171 7:4 8:1 9:28 
4.471078141496773 0:0.90909091 1:0.83333333 5:190 6:2 7:2 8:1 9:31 
0.2345780392631517 0:0.83333333 1:0.71428571 5:441 6:4 7:5 8:1 9:57 
0.2520322335258742 0:1 1:0.71428571 5:250 6:8 7:5 8:1 9:36 
3.203409376640826 0:0.90909091 1:0.76923077 5:243 6:4 7:4 8:1 9:36 
0.9307307530638059 0:0.83333333 1:0.47619048 4:1 5:774 6:7 7:8 8:1 9:86 
0.2422301054611274 0:0.55555556 1:0.625 5:677 6:3 7:7 8:1 9:88 
5 0:1 1:0.76923077 5:95 6:3 7:2 8:1 9:15 
4.549894854336331 0:1 1:0.76923077 5:105 6:2 7:3 8:1 9:14 
0.7960994569406923 0:0.83333333 1:0.90909091 5:102 6:1 7:2 8:1 9:13 
0.9740733291475263 0:0.90909091 1:0.83333333 5:90 7:1 8:1 9:15 
3.174929367298623 0:0.66666667 1:0.83333333 5:453 6:6 7:4 8:1 9:60 
0.9404559072366376 0:0.76923077 1:0.5 5:424 6:1 7:5 8:1 9:54 
0.8866845933820019 0:0.83333333 1:0.76923077 5:151 6:5 7:5 8:1 9:26 
4.148765294202624 0:1 1:0.83333333 5:178 6:5 7:3 8:1 9:29 
0.87739444099852 0:0.83333333 1:0.52631579 4:1 5:619 6:4 7:6 8:1 9:72 
0.8945030669843511 0:0.66666667 1:0.625 5:582 6:2 7:7 8:1 9:81 
5 0:1 1:0.83333333 5:46 7:1 8:1 9:8 
5 0:1 1:1 5:53 6:1 7:2 8:1 9:11 
5 0:0.83333333 1:0.90909091 5:54 7:2 8:1 9:10 
4.482637708337717 0:1 1:1 5:48 7:1 8:1 9:10 
0.8343210011122798 0:0.71428571 1:0.83333333 5:255 6:4 7:4 8:1 9:41 
2.53007743213378 0:0.76923077 1:0.52631579 5:294 7:4 8:1 9:44 
2.614834823381647 0:1 1:0.83333333 5:100 6:1 7:3 8:1 9:19 
5 0:0.83333333 1:0.71428571 5:464 6:4 7:5 8:1 9:57 
5 0:1 1:0.71428571 5:274 6:8 7:5 8:1 9:38 
5 0:0.90909091 1:0.76923077 5:258 6:5 7:4 8:1 9:36 
2.987684180636223 0:0.83333333 1:0.47619048 4:1 5:791 6:5 7:8 8:1 9:84 
5 0:0.58823529 1:0.625 5:690 6:2 7:7 8:1 9:85 
5 0:1 1:0.52631579 5:110 6:1 7:4 8:1 9:18 
5 0:1 1:0.66666667 5:96 6:3 7:2 8:1 9:18 
5 0:1 1:0.76923077 5:90 6:3 7:3 8:1 9:12 
5 0:0.83333333 1:0.90909091 5:95 7:2 8:1 9:11 
5 0:0.90909091 1:0.83333333 5:81 7:1 8:1 9:13 
1.088966250992779 0:0.76923077 1:0.5 5:395 6:2 7:5 8:1 9:51 
5 0:1 1:0.83333333 5:173 6:2 7:4 8:1 9:28 
0.04944463411508046 0:0.83333333 1:0.71428571 5:430 6:3 7:5 8:1 9:53 
0.5999671346703828 0:1 1:0.90909091 5:151 6:5 7:2 8:1 9:29 
0.09655765297080279 0:0.90909091 1:0.66666667 5:256 6:6 7:6 8:1 9:39 
4.768030668679093 0:0.90909091 1:0.76923077 5:234 6:3 7:4 8:1 9:35 
0.9288545336138033 0:0.76923077 1:0.52631579 4:1 5:672 6:4 7:6 8:1 9:74 
5 0:0.58823529 1:0.625 5:669 6:3 7:7 8:1 9:84 
1.721118696442547 0:1 1:0.71428571 5:102 6:3 7:3 8:1 9:15 
5 0:0.90909091 1:1 5:101 7:1 8:1 9:12 
4.205884722922958 0:0.71428571 1:0.83333333 5:348 6:4 7:4 8:1 9:49 
3.99764832611541 0:0.90909091 1:0.66666667 5:59 7:1 8:1 9:12 
0.177027363276654 0:0.76923077 1:0.47619048 5:391 7:5 8:1 9:51 
2.843267619762695 0:1 1:0.83333333 5:174 6:2 7:4 8:1 9:25 
5 0:1 1:1 5:44 6:1 7:1 8:1 9:9 
1.850734750738638 0:0.83333333 1:0.71428571 5:425 6:7 7:5 8:1 9:54 
3.692718156842855 0:0.90909091 1:0.76923077 5:233 6:6 7:4 8:1 9:36 
2.567217283746778 0:0.90909091 1:0.76923077 5:264 6:4 7:4 8:1 9:39 
0.8374057988214871 0:0.71428571 1:0.47619048 4:1 5:765 6:5 7:8 8:1 9:84 
0.5990306874522565 0:0.58823529 1:0.58823529 5:614 6:2 7:7 8:1 9:80 
5 0:1 1:0.90909091 5:77 6:3 7:2 8:1 9:16 
5 0:1 1:0.66666667 5:103 6:2 7:3 8:1 9:19 
1.92817937112299 0:1 1:0.76923077 5:92 6:1 7:3 8:1 9:13 
4.397878610791054 0:0.90909091 1:0.90909091 5:92 6:1 7:1 8:1 9:14 
0.2653169029193918 0:0.625 1:0.83333333 5:349 6:3 7:4 8:1 9:49 
2.563349653088448 0:0.76923077 1:0.5 5:341 6:2 7:4 8:1 9:49 
1.560847048589883 0:1 1:0.76923077 5:166 6:2 7:4 8:1 9:27 
0.7939633746388758 0:0.76923077 1:0.71428571 5:481 6:3 7:5 8:1 9:58 
0.524302703378806 0:0.90909091 1:0.71428571 5:421 6:9 7:5 8:1 9:55 
5 0:0.83333333 1:0.76923077 5:305 6:4 7:4 8:1 9:43 
0.8775985676087734 0:0.83333333 1:0.47619048 4:1 5:1007 6:14 7:8 8:1 9:93 
0.8775571530796357 0:0.83333333 1:0.625 5:959 6:7 7:7 8:1 9:99 
2.747261614887273 0:1 1:0.41666667 5:124 6:1 7:3 8:1 9:18 
1.346306008118022 0:1 1:0.66666667 5:139 6:3 7:3 8:1 9:25 
5 0:1 1:0.58823529 5:114 6:1 7:3 8:1 9:14 
5 0:0.83333333 1:0.90909091 5:112 7:2 8:1 9:14 
0.9479788416639837 0:0.90909091 1:0.83333333 5:128 6:2 7:1 8:1 9:16 
0.9006624731635058 0:0.76923077 1:0.71428571 5:441 6:8 7:5 8:1 9:62 
0.8773100128001368 0:0.83333333 1:0.83333333 5:514 6:3 7:3 8:1 9:58 
5 0:0.90909091 1:1 5:92 7:1 8:1 9:15 
2.865668284334601 0:0.90909091 1:0.71428571 5:445 6:4 7:5 8:1 9:56 
0.435166776159056 0:1 1:0.83333333 5:251 6:7 7:3 8:1 9:37 
1.08259622143917 0:1 1:1 5:226 6:5 7:1 8:1 9:33 
0.8852498570852445 0:0.83333333 1:0.58823529 4:1 5:745 6:5 7:4 8:1 9:83 
4.398974297050629 0:1 1:0.52631579 5:93 6:1 7:3 8:1 9:17 
5 0:1 1:0.625 5:95 6:3 7:2 8:1 9:18 
5 0:1 1:0.76923077 5:90 6:3 7:3 8:1 9:12 
5 0:0.83333333 1:0.90909091 5:89 7:2 8:1 9:11 
2.923357455364182 0:0.83333333 1:0.90909091 5:127 6:3 7:2 8:1 9:21 
5 0:0.90909091 1:1 5:71 7:1 8:1 9:12 
0.6079392127378022 0:0.71428571 1:0.83333333 5:403 6:2 7:4 8:1 9:56 
4.96785998857852 0:0.76923077 1:0.66666667 5:385 6:3 7:3 8:1 9:49 
1.915480667665387 0:1 1:0.90909091 5:166 6:1 7:3 8:1 9:28 
1.030239526870464 0:0.83333333 1:0.71428571 5:350 6:3 7:5 8:1 9:46 
2.150218130305329 0:1 1:0.71428571 5:287 6:6 7:5 8:1 9:39 
0.6946867732575711 0:0.83333333 1:0.76923077 5:233 6:3 7:4 8:1 9:35 
1.303989071889014 0:0.83333333 1:0.47619048 4:1 5:761 6:3 7:8 8:1 9:87 
0.7950954690961067 0:0.625 1:0.55555556 5:783 6:1 7:8 8:1 9:89 
3.60395083228697 0:1 1:0.5 5:84 6:1 7:4 8:1 9:13 
3.504895443013127 0:0.90909091 1:0.90909091 5:147 6:2 7:2 8:1 9:26 
5 0:1 1:0.625 5:125 6:4 7:3 8:1 9:20 
5 0:1 1:0.71428571 5:81 6:1 7:3 8:1 9:15 
5 0:0.83333333 1:0.90909091 5:91 7:2 8:1 9:13 
5 0:0.90909091 1:0.76923077 5:88 6:1 7:1 8:1 9:14 
4.520681606037268 0:0.71428571 1:0.83333333 5:371 6:3 7:4 8:1 9:50 
0.2122154753399974 0:0.83333333 1:0.58823529 5:424 6:3 7:6 8:1 9:56 
1.287379929273 0:0.83333333 1:0.71428571 5:308 6:3 7:5 8:1 9:41 
0.05662366191016401 0:1 1:0.76923077 5:242 6:1 7:6 8:1 9:37 
1.46530095993011 0:0.83333333 1:0.76923077 5:231 6:4 7:5 8:1 9:36 
4.957895578507156 0:1 1:1 5:78 6:2 7:1 8:1 9:12 
1.023035856588733 0:0.58823529 1:0.47619048 4:1 5:713 6:4 7:8 8:1 9:86 
1.069454078948104 0:0.625 1:0.625 5:629 6:2 7:7 8:1 9:83 
5 0:0.90909091 1:1 5:79 6:1 7:2 8:1 9:13 
5 0:1 1:0.76923077 5:46 6:1 7:2 8:1 9:7 
0.5872404170780087 0:0.90909091 1:0.83333333 5:71 7:1 8:1 9:14 
1.274248417473319 0:0.71428571 1:0.71428571 5:282 6:2 7:5 8:1 9:41 
1.718485269587774 0:0.76923077 1:0.45454545 5:318 6:2 7:5 8:1 9:49 
0.1704243050121412 0:1 1:0.83333333 5:182 6:2 7:4 8:1 9:32 
4.919763516131473 0:1 1:1 5:48 7:1 8:1 9:8 
0.8775926183456905 0:1 1:1 5:4 7:1 8:1 9:1 
2.007935582466306 0:0.90909091 1:0.66666667 5:440 6:4 7:6 8:1 9:55 
5 0:1 1:0.71428571 5:254 6:8 7:5 8:1 9:37 
5 0:0.90909091 1:0.76923077 5:236 6:5 7:4 8:1 9:34 
5 0:0.83333333 1:0.47619048 4:1 5:764 6:5 7:8 8:1 9:84 
5 0:0.58823529 1:0.625 5:664 6:2 7:7 8:1 9:84 
5 0:1 1:0.43478261 5:93 6:1 7:3 8:1 9:16 
1.93996164698945 0:1 1:0.66666667 5:78 6:3 7:3 8:1 9:10 
5 0:0.83333333 1:0.90909091 5:75 7:2 8:1 9:9 
4.05303632233585 0:0.90909091 1:0.71428571 5:67 7:1 8:1 9:11 
5 0:0.66666667 1:0.83333333 5:389 6:4 7:4 8:1 9:52 
5 0:0.83333333 1:0.71428571 5:464 6:4 7:5 8:1 9:57 
5 0:1 1:0.71428571 5:273 6:8 7:5 8:1 9:39 
5 0:0.90909091 1:0.76923077 5:258 6:5 7:4 8:1 9:36 
5 0:0.83333333 1:0.47619048 4:1 5:786 6:5 7:8 8:1 9:85 
5 0:0.58823529 1:0.625 5:689 6:2 7:7 8:1 9:86 
5 0:1 1:1 5:86 6:1 7:1 8:1 9:11 
5 0:0.76923077 1:0.5 5:387 6:3 7:5 8:1 9:51 
0.2368460866146559 0:0.83333333 1:0.83333333 5:111 6:3 7:2 8:1 9:15 
0.6352632163846061 0:1 1:1 5:68 6:2 7:2 8:1 9:10 
5 0:0.90909091 1:0.90909091 5:101 6:1 7:2 8:1 9:13 
2.607015326987497 0:0.66666667 1:0.83333333 5:413 6:4 7:4 8:1 9:54 
5 0:0.76923077 1:0.5 5:413 6:2 7:5 8:1 9:53 
5 0:1 1:0.83333333 5:173 6:2 7:4 8:1 9:28 
3.760365078170934 0:1 1:0.83333333 5:155 6:2 7:4 8:1 9:26 
3.138756821760787 0:0.83333333 1:0.71428571 5:490 6:4 7:5 8:1 9:60 
0.8502710050173075 0:1 1:0.66666667 5:292 6:8 7:5 8:1 9:40 
4.191433406301494 0:1 1:0.76923077 5:264 6:4 7:4 8:1 9:39 
0.9852035565872647 0:0.83333333 1:0.47619048 4:1 5:782 6:5 7:8 8:1 9:90 
0.8610520014453287 0:0.625 1:0.625 5:728 6:2 7:7 8:1 9:91 
5 0:1 1:1 5:74 6:3 7:1 8:1 9:14 
2.139333487578748 0:0.90909091 1:1 5:92 6:3 7:2 8:1 9:18 
5 0:1 1:0.76923077 5:88 6:2 7:3 8:1 9:12 
5 0:0.83333333 1:0.90909091 5:88 7:2 8:1 9:12 
5 0:1 1:1 5:76 7:1 8:1 9:13 
2.09864788056819 0:0.71428571 1:0.83333333 5:377 6:6 7:4 8:1 9:52 
0.7230644820062334 0:0.83333333 1:0.52631579 5:397 6:2 7:3 8:1 9:54 
5 0:1 1:0.83333333 5:176 6:2 7:4 8:1 9:29 
0.6301201253291521 0:0.83333333 1:0.71428571 5:445 6:7 7:5 8:1 9:55 
1.301681510598299 0:1 1:0.71428571 5:315 6:10 7:5 8:1 9:43 
1.805620089323377 0:0.90909091 1:0.76923077 5:269 6:4 7:4 8:1 9:37 
1.322919538853806 0:0.83333333 1:0.45454545 4:1 5:890 6:7 7:9 8:1 9:96 
3.366159709430971 0:0.58823529 1:0.625 5:713 6:3 7:7 8:1 9:89 
5 0:0.90909091 1:0.90909091 5:84 6:3 7:2 8:1 9:13 
5 0:0.83333333 1:0.90909091 5:97 7:2 8:1 9:11 
1.342851686927847 0:0.83333333 1:0.71428571 5:421 6:5 7:6 8:1 9:49 
1.520498780054683 0:0.83333333 1:0.47619048 5:464 6:2 7:5 8:1 9:55 
1.978761145086603 0:1 1:0.83333333 5:190 6:4 7:4 8:1 9:30 
5 0:1 1:0.76923077 5:240 6:2 7:3 8:1 9:33 
3.472441269135511 0:0.83333333 1:0.76923077 5:262 6:6 7:4 8:1 9:37 
3.413682553525125 0:0.90909091 1:0.76923077 5:224 6:3 7:4 8:1 9:35 
0.8778216731048527 0:0.76923077 1:0.5 4:1 5:549 6:5 7:7 8:1 9:62 
0.8447174762948744 0:0.625 1:0.66666667 5:508 6:4 7:5 8:1 9:69 
0.5509256490650275 0:0.90909091 1:1 5:98 6:1 7:3 8:1 9:17 
2.207581062659809 0:0.83333333 1:1 5:91 6:2 7:2 8:1 9:18 
5 0:1 1:1 5:118 6:2 7:2 8:1 9:17 
5 0:0.76923077 1:0.90909091 5:103 7:2 8:1 9:15 
5 0:0.90909091 1:0.90909091 5:80 7:1 8:1 9:13 
0.4657500810537644 0:0.83333333 1:0.76923077 5:257 6:2 7:4 8:1 9:36 
1.137625626158591 0:0.76923077 1:0.5 5:310 7:4 8:1 9:43 
5 0:1 1:0.83333333 5:123 6:2 7:3 8:1 9:22 
0.1886403389219461 0:1 1:0.71428571 5:293 6:7 7:5 8:1 9:41 
3.803163055350049 0:0.90909091 1:0.76923077 5:266 6:5 7:4 8:1 9:36 
0.7670260608336055 0:0.83333333 1:0.47619048 4:1 5:814 6:5 7:8 8:1 9:89 
0.9550399466466775 0:0.58823529 1:0.625 5:733 6:2 7:7 8:1 9:88 
1.972624635824417 0:1 1:0.52631579 5:114 6:1 7:4 8:1 9:18 
0.9549004867916437 0:1 1:0.625 5:109 6:3 7:2 8:1 9:20 
5 0:1 1:0.76923077 5:91 6:2 7:3 8:1 9:15 
5 0:0.83333333 1:0.90909091 5:108 7:2 8:1 9:14 
5 0:0.90909091 1:0.76923077 5:83 7:1 8:1 9:15 
0.5206298119290409 0:0.66666667 1:0.83333333 5:426 6:4 7:4 8:1 9:58 
0.6940128870969071 0:0.76923077 1:0.5 5:418 6:3 7:5 8:1 9:56 
0.5304924640143648 0:0.83333333 1:0.71428571 5:304 6:4 7:4 8:1 9:39 
0.08797788679359213 0:0.71428571 1:0.71428571 5:248 6:6 7:6 8:1 9:37 
0.9032680697363581 0:0.90909091 1:0.76923077 5:210 6:2 7:5 8:1 9:31 
0.7998244769167054 0:0.76923077 1:0.55555556 5:715 6:9 7:8 8:1 9:83 
2.895784073207215 0:0.71428571 1:0.76923077 5:391 6:6 7:5 8:1 9:54 
3.226403002519588 0:0.90909091 1:0.71428571 5:167 6:4 7:4 8:1 9:27 
1.417445668122835 0:1 1:1 5:104 6:4 7:4 8:1 9:17 
5 0:0.83333333 1:0.83333333 5:116 6:2 7:3 8:1 9:20 
0.8785613742672468 0:0.83333333 1:0.90909091 5:152 7:2 8:1 9:19 
0.9638370809087155 0:0.71428571 1:0.76923077 5:293 6:4 7:5 8:1 9:45 
1.669099490890698 0:0.90909091 1:0.71428571 5:272 6:2 7:6 8:1 9:37 
5 0:0.83333333 1:0.90909091 5:169 6:2 7:4 8:1 9:29 
2.189015853719508 0:0.76923077 1:0.71428571 5:460 6:3 7:5 8:1 9:60 
1.338168393871734 0:0.90909091 1:0.76923077 5:275 6:5 7:3 8:1 9:41 
5 0:0.83333333 1:0.76923077 5:260 6:1 7:4 8:1 9:38 
1.987211320021263 0:0.625 1:0.5 4:1 5:738 6:5 7:7 8:1 9:79 
1.117515189108206 0:0.625 1:0.625 5:724 6:2 7:7 8:1 9:87 
3.196004706415618 0:1 1:0.76923077 5:96 6:1 7:4 8:1 9:17 
5 0:0.83333333 1:0.625 5:102 6:3 7:2 8:1 9:18 
0.8063817740776473 0:1 1:0.625 5:112 6:2 7:3 8:1 9:18 
5 0:0.83333333 1:0.90909091 5:101 7:2 8:1 9:14 
2.78603445398628 0:1 1:0.90909091 5:85 7:2 8:1 9:16 
2.950688363844015 0:0.71428571 1:0.76923077 5:402 6:3 7:5 8:1 9:54 
1.807558914987502 0:0.71428571 1:0.5 5:432 6:4 7:5 8:1 9:55 
0.8042259083436395 0:1 1:0.76923077 5:196 6:3 7:4 8:1 9:34 
2.286035418233166 0:0.83333333 1:0.76923077 5:335 6:3 7:4 8:1 9:46 
4.936596176122815 0:0.83333333 1:0.76923077 5:337 6:5 7:4 8:1 9:47 
1.217040966241828 0:1 1:0.71428571 5:255 6:8 7:4 8:1 9:35 
3.438984265478721 0:0.90909091 1:0.83333333 5:230 6:5 7:4 8:1 9:33 
0.9469672912724064 0:0.83333333 1:0.58823529 5:681 6:4 7:7 8:1 9:75 
0.8244729340714603 0:0.625 1:0.71428571 5:512 6:2 7:5 8:1 9:66 
5 0:1 1:1 5:91 6:1 7:3 8:1 9:14 
1.648868539806222 0:1 1:0.66666667 5:92 6:2 7:3 8:1 9:12 
0.1517698207906826 0:1 1:0.71428571 5:133 6:5 7:5 8:1 9:18 
5 0:0.83333333 1:0.90909091 5:94 7:2 8:1 9:13 
5 0:1 1:0.76923077 5:61 6:1 7:1 8:1 9:11 
0.7341779735690432 0:1 1:0.76923077 5:184 6:5 7:3 8:1 9:28 
1.829756014918657 0:0.66666667 1:0.83333333 5:404 6:4 7:4 8:1 9:53 
0.6795440027207548 0:0.83333333 1:0.625 5:285 6:2 7:5 8:1 9:36 
0.2435297510056317 0:1 1:0.83333333 5:152 6:2 7:5 8:1 9:23 
1.84343091776815 0:1 1:0.66666667 5:234 6:3 7:6 8:1 9:37 
0.3702219631544465 0:0.76923077 1:0.5 4:1 5:659 6:5 7:7 8:1 9:73 
0.5711042969981661 0:0.66666667 1:0.66666667 5:614 6:1 7:6 8:1 9:78 
5 0:0.90909091 1:0.71428571 5:220 6:7 7:5 8:1 9:33 
4.900451737224825 0:0.90909091 1:0.76923077 5:231 6:5 7:4 8:1 9:34 
0.7274181153496082 0:0.83333333 1:0.47619048 4:1 5:720 6:7 7:8 8:1 9:82 
4.898125794719592 0:0.58823529 1:0.625 5:696 6:3 7:7 8:1 9:88 
5 0:1 1:0.83333333 5:80 6:2 7:3 8:1 9:15 
1.766281907198814 0:1 1:0.76923077 5:87 6:1 7:3 8:1 9:13 
5 0:0.90909091 1:0.83333333 5:93 7:1 8:1 9:15 
5 0:0.83333333 1:0.90909091 5:270 6:2 7:1 8:1 9:43 
5 0:0.90909091 1:1 5:99 6:1 7:3 8:1 9:16 
5 0:0.76923077 1:0.5 5:404 6:4 7:4 8:1 9:57 
2.90261153203122 0:1 1:0.83333333 5:151 7:3 8:1 9:24 
5 0:1 1:1 5:46 6:1 7:2 8:1 9:7 
4.795072179329798 0:0.90909091 1:0.71428571 5:448 6:4 7:5 8:1 9:60 
2.232128210153883 0:1 1:0.71428571 5:221 6:6 7:5 8:1 9:33 
2.538203673807566 0:0.90909091 1:0.76923077 5:210 6:1 7:4 8:1 9:34 
0.7831841573825656 0:0.76923077 1:0.5 4:1 5:656 6:6 7:7 8:1 9:76 
1.318949788059232 0:0.625 1:0.625 5:700 6:3 7:7 8:1 9:88 
5 0:1 1:1 5:89 6:2 7:2 8:1 9:17 
5 0:1 1:0.52631579 5:114 6:1 7:4 8:1 9:19 
4.432986405022817 0:1 1:0.625 5:89 6:4 7:3 8:1 9:16 
5 0:0.90909091 1:1 5:110 6:2 7:3 8:1 9:21 
5 0:0.83333333 1:0.90909091 5:111 6:2 7:2 8:1 9:18 
5 0:0.83333333 1:0.76923077 5:81 7:1 8:1 9:13 
1.594455735169259 0:0.71428571 1:0.83333333 5:373 6:5 7:4 8:1 9:54 
1.04213049688873 0:0.76923077 1:0.5 5:458 6:6 7:4 8:1 9:61 
0.615083009624211 0:1 1:0.83333333 5:175 6:2 7:4 8:1 9:26 
0.6821859988178679 0:0.90909091 1:0.71428571 5:324 6:5 7:5 8:1 9:39 
4.602054599090752 0:1 1:0.71428571 5:113 6:2 7:1 8:1 9:18 
5 0:0.83333333 1:0.83333333 5:102 7:3 8:1 9:15 
1.162074497085867 0:1 1:0.83333333 5:158 6:2 7:3 8:1 9:25 
0.8597184719686353 0:1 1:0.45454545 4:1 5:514 6:5 7:9 8:1 9:64 
0.8045711659108424 0:0.71428571 1:0.66666667 5:598 6:2 7:6 8:1 9:76 
0.6267335996622907 0:1 1:0.38461538 5:87 7:2 8:1 9:11 
0.2494848195585874 0:0.90909091 1:0.71428571 5:78 6:2 7:1 8:1 9:11 
5 0:1 1:0.58823529 5:69 6:2 7:1 8:1 9:12 
5 0:1 1:1 5:66 7:1 8:1 9:9 
3.725767191819139 0:0.83333333 1:0.76923077 5:180 6:4 7:5 8:1 9:28 
0.01720967089099396 0:0.90909091 1:0.71428571 5:193 6:1 7:2 8:1 9:28 
5 0:1 1:0.90909091 5:78 6:1 7:2 8:1 9:13 
5 0:1 1:1 5:108 7:2 8:1 9:17 
2.164400066896047 0:0.90909091 1:0.90909091 5:401 6:5 7:2 8:1 9:51 
0.1119736952430118 0:1 1:0.71428571 5:226 6:3 7:3 8:1 9:34 
2.416949768227443 0:0.83333333 1:0.83333333 5:230 6:3 7:3 8:1 9:35 
1.158030817907454 0:0.90909091 1:0.71428571 4:1 5:271 6:4 7:1 8:1 9:40 
0.8364931141433811 0:0.71428571 1:0.66666667 5:567 6:3 7:6 8:1 9:70 
5 0:1 1:0.90909091 5:91 6:3 7:2 8:1 9:16 
5 0:1 1:1 5:100 6:3 7:2 8:1 9:15 
3.961402660506304 0:1 1:0.90909091 5:94 6:1 7:1 8:1 9:16 
2.461373703947457 0:0.66666667 1:0.90909091 5:310 6:3 7:4 8:1 9:44 
3.565377077066769 0:0.83333333 1:0.55555556 5:313 6:2 7:2 8:1 9:48 
5 0:0.90909091 1:0.83333333 5:160 6:2 7:3 8:1 9:28 
1.04212416000309 0:0.83333333 1:0.71428571 5:363 6:3 7:5 8:1 9:52 
1.591650176224217 0:1 1:0.71428571 5:281 6:7 7:5 8:1 9:43 
0.8735556797436659 0:0.90909091 1:0.76923077 5:270 6:3 7:4 8:1 9:39 
0.6375246352435514 0:0.83333333 1:0.47619048 4:1 5:801 6:5 7:8 8:1 9:91 
0.8684302405434371 0:0.58823529 1:0.625 5:654 6:2 7:7 8:1 9:88 
5 0:1 1:0.52631579 5:106 6:2 7:4 8:1 9:15 
0.6529389786589566 0:0.83333333 1:0.47619048 5:338 6:1 7:5 8:1 9:50 
5 0:0.90909091 1:0.66666667 5:95 6:4 7:3 8:1 9:16 
5 0:1 1:0.76923077 5:90 6:1 7:3 8:1 9:11 
0.1819742216920889 0:0.83333333 1:0.90909091 5:109 7:2 8:1 9:13 
4.197946300944762 0:0.90909091 1:0.83333333 5:105 7:1 8:1 9:17 
0.6198734533986804 0:0.66666667 1:0.83333333 5:345 6:4 7:4 8:1 9:49 
1.058577023713244 0:0.76923077 1:0.5 5:443 7:5 8:1 9:58 
1.98327371046612 0:1 1:0.83333333 5:208 6:4 7:4 8:1 9:30 
1.121822840604635 0:0.90909091 1:0.76923077 5:447 6:2 7:4 8:1 9:51 
2.441346005456496 0:0.90909091 1:0.76923077 5:252 6:2 7:4 8:1 9:36 
1.94324554044822 0:0.90909091 1:0.76923077 5:214 6:4 7:4 8:1 9:36 
0.9009958270289178 0:1 1:0.83333333 5:153 6:1 7:4 8:1 9:27 
1.047849687150343 0:0.90909091 1:0.58823529 4:1 5:630 6:3 7:4 8:1 9:69 
0.9428954197526692 0:0.83333333 1:0.71428571 5:500 6:3 7:4 8:1 9:72 
5 0:1 1:0.58823529 5:98 6:1 7:1 8:1 9:16 
2.518567382676991 0:0.83333333 1:1 5:98 7:1 8:1 9:12 
3.35912453513839 0:0.90909091 1:0.83333333 5:298 7:3 8:1 9:38 
2.512172882988556 0:0.71428571 1:0.625 5:385 6:4 7:3 8:1 9:54 
3.990331751651742 0:1 1:0.90909091 5:162 6:1 7:2 8:1 9:25 
2.302536152341364 0:1 1:1 5:66 6:3 7:1 8:1 9:13 
5 0:1 1:0.83333333 5:92 7:2 8:1 9:17 
0.5081735035433939 0:1 1:0.90909091 5:23 7:1 8:1 9:3 
5 0:0.90909091 1:0.76923077 5:56 6:1 7:1 8:1 9:10 
3.336592336273011 0:1 1:0.90909091 5:39 7:2 8:1 9:7 
2.619273020908939 0:1 1:0.76923077 5:42 7:1 8:1 9:6 
3.288033923740135 0:1 1:1 5:34 7:1 8:1 9:6 
1.750168632366988 0:1 1:0.83333333 5:50 7:2 8:1 9:8 
5 0:1 1:0.71428571 5:75 6:1 7:2 8:1 9:14 
0.7911511985572199 0:0.83333333 1:0.71428571 5:484 6:4 7:5 8:1 9:57 
5 0:1 1:0.71428571 5:288 6:8 7:5 8:1 9:39 
5 0:0.90909091 1:0.76923077 5:293 6:5 7:4 8:1 9:36 
5 0:0.83333333 1:0.5 4:1 5:814 6:5 7:8 8:1 9:85 
5 0:0.58823529 1:0.625 5:686 6:2 7:7 8:1 9:86 
5 0:1 1:0.52631579 5:111 6:2 7:4 8:1 9:17 
1.396809047030942 0:1 1:1 5:39 7:1 8:1 9:6 
5 0:1 1:0.76923077 5:99 6:3 7:3 8:1 9:12 
5 0:0.83333333 1:0.90909091 5:101 7:2 8:1 9:11 
5 0:0.90909091 1:0.83333333 5:83 7:1 8:1 9:13 
5 0:0.66666667 1:0.83333333 5:423 6:5 7:4 8:1 9:54 
5 0:0.76923077 1:0.5 5:438 6:2 7:5 8:1 9:56 
5 0:1 1:0.83333333 5:189 6:2 7:4 8:1 9:30 
1.291235956157507 0:1 1:0.90909091 5:39 7:2 8:1 9:7 
1.808362121500285 0:0.76923077 1:0.71428571 5:429 6:3 7:5 8:1 9:56 
5 0:1 1:0.83333333 5:247 6:8 7:5 8:1 9:37 
0.8803430959724231 0:0.76923077 1:0.47619048 4:1 5:726 6:5 7:8 8:1 9:78 
0.7489099729465721 0:0.625 1:0.625 5:709 6:2 7:8 8:1 9:84 
5 0:1 1:0.625 5:65 7:2 8:1 9:9 
5 0:0.83333333 1:0.76923077 5:97 6:2 7:2 8:1 9:18 
5 0:1 1:0.90909091 5:87 6:2 7:3 8:1 9:14 
0.7857153347141062 0:0.90909091 1:1 5:97 7:1 8:1 9:18 
3.692542658137294 0:0.71428571 1:0.83333333 5:382 6:4 7:4 8:1 9:52 
1.174295095404921 0:0.76923077 1:0.5 5:415 6:4 7:4 8:1 9:57 
0.92311211669591 0:1 1:0.83333333 5:152 6:2 7:4 8:1 9:28 
1.135836691954701 0:0.76923077 1:0.625 5:322 6:6 7:4 8:1 9:42 
2.802477558758324 0:0.66666667 1:0.76923077 5:261 6:3 7:4 8:1 9:37 
0.8504499974465684 0:0.66666667 1:0.5 4:1 5:810 6:5 7:7 8:1 9:93 
1.047913212666739 0:0.625 1:0.76923077 5:521 6:3 7:4 8:1 9:69 
4.974019332905154 0:1 1:0.52631579 5:91 7:4 8:1 9:15 
5 0:0.90909091 1:0.76923077 5:81 6:2 7:2 8:1 9:12 
5 0:1 1:0.76923077 5:110 6:2 7:3 8:1 9:16 
5 0:0.83333333 1:0.90909091 5:99 7:2 8:1 9:13 
1.151496334263444 0:0.90909091 1:0.83333333 5:117 6:2 7:1 8:1 9:18 
0.3854991428540353 0:0.83333333 1:0.58823529 5:451 6:2 7:6 8:1 9:58 
0.4046825172546589 0:0.90909091 1:0.83333333 5:209 6:4 7:4 8:1 9:29 
5 0:0.83333333 1:0.71428571 5:457 6:4 7:5 8:1 9:59 
5 0:1 1:0.71428571 5:288 6:5 7:5 8:1 9:38 
5 0:0.90909091 1:0.76923077 5:273 6:5 7:4 8:1 9:37 
0.786730123883618 0:0.83333333 1:0.45454545 4:1 5:805 6:3 7:9 8:1 9:90 
5 0:0.58823529 1:0.625 5:741 6:1 7:7 8:1 9:97 
5 0:1 1:0.52631579 5:121 6:1 7:4 8:1 9:20 
5 0:1 1:0.66666667 5:110 6:3 7:2 8:1 9:19 
5 0:1 1:0.76923077 5:99 6:3 7:3 8:1 9:13 
5 0:0.83333333 1:0.90909091 5:104 7:2 8:1 9:12 
5 0:0.90909091 1:0.83333333 5:94 7:1 8:1 9:14 
4.165427422330967 0:0.66666667 1:0.83333333 5:403 6:3 7:4 8:1 9:56 
5 0:0.76923077 1:0.5 5:434 6:1 7:5 8:1 9:58 
2.788455085835288 0:1 1:0.83333333 5:201 6:2 7:4 8:1 9:31 
4.321254277977436 0:0.83333333 1:0.71428571 5:464 6:4 7:5 8:1 9:59 
5 0:0.66666667 1:0.83333333 5:410 6:4 7:4 8:1 9:54 
5 0:0.66666667 1:0.83333333 5:410 6:4 7:4 8:1 9:54 
5 0:0.66666667 1:0.83333333 5:410 6:4 7:4 8:1 9:54 
5 0:0.66666667 1:0.83333333 5:410 6:4 7:4 8:1 9:54 
5 0:1 1:0.52631579 5:120 6:2 7:4 8:1 9:20 
5 0:1 1:0.66666667 5:106 6:3 7:2 8:1 9:20 
5 0:1 1:0.76923077 5:71 6:2 7:3 8:1 9:10 
4.34620866454866 0:0.90909091 1:0.90909091 5:79 7:2 8:1 9:9 
5 0:0.76923077 1:1 5:97 7:1 8:1 9:14 
0.3534710349170815 0:0.66666667 1:0.90909091 5:391 6:4 7:3 8:1 9:54 
5 0:0.66666667 1:0.83333333 5:410 6:4 7:4 8:1 9:54 
5 0:0.66666667 1:0.83333333 5:410 6:4 7:4 8:1 9:54 
2.025694093288147 0:1 1:0.71428571 5:289 6:8 7:5 8:1 9:41 
2.840059716365229 0:0.90909091 1:0.76923077 5:254 6:4 7:5 8:1 9:36 
2.606085515924442 0:0.83333333 1:0.47619048 4:1 5:777 6:5 7:8 8:1 9:85 
5 0:0.625 1:0.625 5:618 6:2 7:6 8:1 9:80 
0.3452389547991856 0:1 1:0.76923077 5:90 6:1 7:4 8:1 9:16 
0.2374188289752768 0:1 1:0.66666667 5:106 6:4 7:3 8:1 9:19 
5 0:1 1:0.76923077 5:88 6:1 7:3 8:1 9:16 
2.351449298485409 0:0.83333333 1:0.90909091 5:112 6:1 7:2 8:1 9:14 
0.4148987752221315 0:0.76923077 1:0.52631579 5:409 6:2 7:5 8:1 9:56 
0.6498908715352486 0:0.83333333 1:0.71428571 5:412 6:3 7:5 8:1 9:60 
1.502953078850155 0:1 1:0.71428571 5:252 6:7 7:5 8:1 9:38 
5 0:0.90909091 1:0.83333333 5:205 6:2 7:4 8:1 9:28 
1.066897477248817 0:0.83333333 1:0.47619048 4:1 5:801 6:5 7:8 8:1 9:86 
2.560192925651431 0:0.58823529 1:0.625 5:719 6:1 7:7 8:1 9:88 
0.792138158071826 0:1 1:0.76923077 5:131 7:6 8:1 9:14 
5 0:0.90909091 1:0.625 5:109 6:3 7:3 8:1 9:17 
4.51909323580337 0:1 1:0.76923077 5:96 7:3 8:1 9:12 
1.324839453095676 0:0.83333333 1:0.90909091 5:107 7:2 8:1 9:11 
0.868381194615279 0:0.76923077 1:0.76923077 5:437 6:5 7:5 8:1 9:66 
0.6087485828826028 0:0.83333333 1:0.47619048 5:453 6:3 7:6 8:1 9:57 
0.5000552085000952 0:0.76923077 1:0.71428571 5:494 6:4 7:5 8:1 9:62 
1.9316916405092 0:1 1:0.71428571 5:226 6:5 7:5 8:1 9:34 
1.534699932233615 0:0.83333333 1:0.76923077 5:243 6:1 7:4 8:1 9:32 
0.9178527095627377 0:0.83333333 1:0.45454545 4:1 5:700 6:4 7:9 8:1 9:78 
0.1473211414265357 0:0.625 1:0.625 5:694 7:7 8:1 9:81 
2.970308240397344 0:1 1:0.5 5:105 7:4 8:1 9:16 
1.376523185007817 0:1 1:0.625 5:98 7:3 8:1 9:19 
3.96967934787378 0:0.83333333 1:0.90909091 5:104 7:2 8:1 9:14 
5 0:0.90909091 1:0.83333333 5:76 7:1 8:1 9:11 
4.882405643027514 0:0.71428571 1:0.83333333 5:392 6:4 7:4 8:1 9:54 
1.224692894931679 0:0.76923077 1:0.5 5:375 6:1 7:4 8:1 9:51 
5 0:1 1:0.76923077 5:169 6:1 7:4 8:1 9:25 
0.8287223044116048 0:0.90909091 1:0.71428571 5:350 6:3 7:4 8:1 9:41 
3.193699672586427 0:1 1:0.71428571 5:285 6:7 7:4 8:1 9:41 
2.978759775018373 0:0.90909091 1:0.71428571 5:257 6:5 7:5 8:1 9:36 
3.903458396949799 0:0.58823529 1:0.625 5:694 6:3 7:7 8:1 9:87 
0.9687531559541673 0:1 1:0.66666667 5:160 6:5 7:3 8:1 9:25 
0.3962869523942272 0:1 1:0.71428571 5:114 6:3 7:5 8:1 9:15 
5 0:0.83333333 1:0.90909091 5:94 7:2 8:1 9:12 
5 0:0.76923077 1:0.5 5:418 6:3 7:5 8:1 9:55 
0.2733322274523717 0:1 1:0.83333333 5:182 6:2 7:5 8:1 9:30 
4.741005828213204 0:0.71428571 1:0.71428571 5:396 6:3 7:5 8:1 9:52 
5 0:0.90909091 1:0.71428571 5:231 6:6 7:5 8:1 9:38 
5 0:1 1:0.76923077 5:196 6:5 7:4 8:1 9:33 
5 0:0.71428571 1:0.47619048 4:1 5:683 6:7 7:8 8:1 9:81 
0.8492156025665347 0:0.58823529 1:0.625 5:638 6:3 7:7 8:1 9:80 
5 0:1 1:0.625 5:62 6:3 7:2 8:1 9:11 
5 0:0.90909091 1:0.66666667 5:62 6:3 7:1 8:1 9:12 
5 0:1 1:0.76923077 5:55 6:1 7:2 8:1 9:10 
5 0:0.83333333 1:0.90909091 5:82 7:2 8:1 9:12 
4.602526505118021 0:0.90909091 1:0.83333333 5:58 6:1 7:1 8:1 9:12 
5 0:0.66666667 1:0.83333333 5:369 6:4 7:4 8:1 9:52 
3.643829858677465 0:0.76923077 1:0.55555556 5:383 6:4 7:4 8:1 9:55 
5 0:1 1:0.83333333 5:129 6:2 7:4 8:1 9:25 
3.456885620768099 0:1 1:0.90909091 5:34 6:2 7:1 8:1 9:7 
5 0:1 1:0.90909091 5:39 6:1 7:1 8:1 9:9 
0.2632485833071724 0:1 1:0.90909091 5:21 7:1 8:1 9:3 
0.1334823103424752 0:1 1:1 5:24 6:1 7:1 8:1 9:5 
4.65363582109983 0:1 1:0.83333333 5:36 6:1 7:2 8:1 9:6 
0.3004843081525178 0:1 1:0.90909091 5:27 7:1 8:1 9:5 
0.976692896751871 0:0.90909091 1:1 5:225 6:2 7:1 8:1 9:35 
3.043379114830948 0:1 1:1 5:51 6:1 7:1 8:1 9:11 
5 0:1 1:0.83333333 5:76 6:1 7:2 8:1 9:10 
4.678494699316982 0:1 1:1 5:107 6:2 7:1 8:1 9:20 
3.143008406647988 0:1 1:1 5:57 6:2 7:1 8:1 9:11 
1.979475398568151 0:1 1:1 5:50 6:1 7:1 8:1 9:9 
0.7611189754591113 0:1 1:1 5:18 7:1 8:1 9:4 
0.7783491214372567 0:0.90909091 1:1 5:142 7:1 8:1 9:26 
5 0:1 1:1 5:34 7:1 8:1 9:6 
0.9841570405362728 0:1 1:1 5:27 7:1 8:1 9:6 
5 0:0.83333333 1:0.71428571 5:398 6:4 7:5 8:1 9:54 
2.225700684368475 0:1 1:0.71428571 5:223 6:8 7:5 8:1 9:37 
1.307215555498389 0:1 1:0.76923077 5:172 6:1 7:3 8:1 9:22 
5 0:0.76923077 1:0.83333333 5:198 6:4 7:3 8:1 9:35 
5 0:0.76923077 1:0.76923077 5:59 6:1 7:1 8:1 9:10 
5 0:1 1:0.625 5:71 6:3 7:2 8:1 9:15 
0.1245601103478109 0:1 1:0.625 5:97 7:2 8:1 9:17 
3.722643291148183 0:0.83333333 1:0.90909091 5:61 7:2 8:1 9:9 
5 0:1 1:0.83333333 5:55 6:2 7:2 8:1 9:10 
0.9904548582045889 0:1 1:0.76923077 5:106 6:3 7:2 8:1 9:20 
5 0:0.90909091 1:1 5:72 7:2 8:1 9:12 
2.546195393112018 0:0.76923077 1:0.76923077 5:219 6:6 7:4 8:1 9:31 
5 0:0.83333333 1:0.76923077 5:130 6:1 7:3 8:1 9:22 
4.817152865005864 0:0.90909091 1:0.76923077 5:160 6:3 7:4 8:1 9:27 
2.684496622942606 0:1 1:0.83333333 5:62 6:2 7:2 8:1 9:8 
5 0:1 1:0.90909091 5:64 6:1 7:2 8:1 9:12 
5 0:1 1:0.71428571 5:344 6:4 7:4 8:1 9:48 
1.143149147970738 0:1 1:0.76923077 5:216 6:9 7:4 8:1 9:35 
5 0:1 1:0.83333333 5:189 6:4 7:3 8:1 9:29 
3.26838262485873 0:0.83333333 1:0.5 4:1 5:734 6:5 7:8 8:1 9:82 
0.947197857499676 0:0.71428571 1:0.76923077 5:486 6:2 7:4 8:1 9:66 
5 0:1 1:1 5:80 6:4 7:2 8:1 9:15 
3.984651254473937 0:1 1:1 5:35 7:1 8:1 9:7 
1.513025037422136 0:1 1:1 5:49 6:3 7:1 8:1 9:13 
5 0:1 1:0.90909091 5:50 6:2 7:2 8:1 9:10 
5 0:1 1:1 5:36 7:1 8:1 9:6 
5 0:0.90909091 1:0.90909091 5:54 7:1 8:1 9:11 
5 0:0.90909091 1:0.90909091 5:197 6:2 7:2 8:1 9:27 
1.855596695353726 0:1 1:0.83333333 5:137 6:2 7:3 8:1 9:25 
5 0:0.76923077 1:0.90909091 5:63 7:2 8:1 9:10 
-1.122352303557178 0:0.34482759 1:0.29411765 5:2981 6:7 7:24 8:1 9:257 
-1.122421417472674 0:0.90909091 1:0.18518519 5:2749 6:36 7:45 8:1 9:236 
-1.122352091816827 0:0.76923077 1:0.16949153 5:2686 6:45 7:49 8:1 9:184 
-1.122383965423756 0:0.18518519 1:0.2173913 5:2722 6:24 7:37 8:1 9:268 
-1.122194609236782 0:0.22222222 1:0.32258065 5:3050 6:21 7:21 8:1 9:258 
-1.122174245888758 0:0.34482759 1:0.3125 5:2949 6:10 7:22 8:1 9:220 
-1.121998898965679 0:0.25641026 1:0.26315789 5:2855 6:32 7:28 8:1 9:283 
-1.122613977472422 0:0.43478261 1:0.15151515 5:2708 6:44 7:57 8:1 9:243 
-1.1221337550124 0:0.20408163 1:0.28571429 5:2920 6:19 7:25 8:1 9:255 
-1.122132061303961 0:0.27027027 1:0.27777778 5:2695 6:33 7:23 8:1 9:253 
-1.122761234848486 0:0.625 1:0.16949153 5:2551 6:16 7:49 8:1 9:213 
-1.122692376139693 0:0.38461538 1:0.22222222 5:2670 6:21 7:35 8:1 9:225 
-1.122418364593164 0:0.45454545 1:0.29411765 5:2970 6:9 7:24 8:1 9:219 
-1.122436683297468 0:0.55555556 1:0.26315789 5:2659 6:24 7:30 8:1 9:258 
-1.122279145052636 0:0.43478261 1:0.20833333 5:2486 6:37 7:38 8:1 9:194 
-1.122451592678602 0:0.38461538 1:0.21276596 5:2738 6:34 7:39 8:1 9:212 
-1.122449467792022 0:0.26315789 1:0.27027027 5:2894 6:7 7:27 8:1 9:244 
-1.122147555398831 0:0.26315789 1:0.28571429 5:2657 6:23 7:26 8:1 9:232 
-1.122320547552173 0:1 1:0.29411765 5:2577 6:34 7:24 8:1 9:214 
-1.122300294923496 0:0.2173913 1:0.29411765 5:2791 6:15 7:27 8:1 9:236 
-1.138865446066919 0:0.38461538 1:0.22727273 5:2739 6:31 7:36 8:1 9:258 
-1.12242403423737 0:0.35714286 1:0.21276596 5:2388 6:50 7:39 8:1 9:189 
-1.122435902885473 0:0.52631579 1:0.20408163 5:2700 6:24 7:39 8:1 9:217 
-1.122460379877006 0:0.76923077 1:0.14925373 5:2540 6:31 7:57 8:1 9:150 
-1.122437058325982 0:0.47619048 1:0.17241379 5:2609 6:31 7:49 8:1 9:253 
-1.122457445979986 0:0.55555556 1:0.14925373 5:2630 6:32 7:57 8:1 9:220 
-1.12287440907498 0:0.37037037 1:0.27027027 5:2800 6:23 7:27 8:1 9:251 
-1.122077120295924 0:0.37037037 1:0.18867925 5:2693 6:39 7:39 8:1 9:232 
-1.12202152179547 0:0.41666667 1:0.33333333 5:2435 6:44 7:22 8:1 9:251 
-1.122448087626704 0:0.37037037 1:0.3125 5:2378 6:64 7:23 8:1 9:219 
-1.12229082472455 0:0.32258065 1:0.20833333 5:2926 6:5 7:38 8:1 9:282 
-1.12237912311779 0:0.22222222 1:0.23255814 5:2833 6:8 7:32 8:1 9:250 
-1.122851642434148 0:0.20833333 1:0.20408163 5:2686 6:26 7:37 8:1 9:241 
-1.122005471157705 0:0.26315789 1:0.25641026 5:2517 6:28 7:29 8:1 9:209 
-1.122437994769538 0:0.25641026 1:0.27777778 5:2490 6:31 7:26 8:1 9:192 
-1.122461478301071 0:0.25641026 1:0.23809524 5:2627 6:23 7:32 8:1 9:229 
-1.122533365761052 0:0.4 1:0.18181818 5:2576 6:40 7:46 8:1 9:212 
-1.122420484762786 0:0.22222222 1:0.26315789 5:2740 6:22 7:28 8:1 9:262 
-1.122309007321976 0:0.25 1:0.3125 5:2885 6:19 7:22 8:1 9:261 
-1.122420503102981 0:0.23255814 1:0.25 5:2644 6:27 7:29 8:1 9:251 
-1.122283092841657 0:0.19230769 1:0.16949153 5:2684 6:28 7:51 8:1 9:201 
-1.122132380443461 0:0.23809524 1:0.28571429 5:2933 6:12 7:24 8:1 9:250 
-1.122460809996013 0:0.5 1:0.28571429 5:2536 6:38 7:25 8:1 9:259 
-1.122940062422905 0:0.38461538 1:0.25641026 5:2817 6:14 7:29 8:1 9:255 
-1.121989104301675 0:0.90909091 1:0.3125 5:2402 6:27 7:22 8:1 9:236 
-1.122282649388414 0:1 1:0.14705882 5:2509 6:52 7:56 8:1 9:187 
-1.122327648355053 0:0.76923077 1:0.27777778 5:2503 6:47 7:26 8:1 9:222 
-1.122284927195706 0:0.55555556 1:0.25 5:2585 6:39 7:30 8:1 9:242 
-1.122607467582408 0:0.29411765 1:0.32258065 5:2938 6:7 7:22 8:1 9:264 
-1.122256321420587 0:0.2173913 1:0.25641026 5:2852 6:37 7:29 8:1 9:267 
-1.121977669601296 0:0.3125 1:0.26315789 5:2955 6:12 7:25 8:1 9:268 
-1.122867894364335 0:0.22222222 1:0.27777778 5:3020 6:20 7:29 8:1 9:286 
-1.122284169230592 0:0.20408163 1:0.23255814 5:2601 6:35 7:36 8:1 9:228 
-1.122341209259535 0:0.52631579 1:0.19230769 5:2596 6:26 7:42 8:1 9:243 
-1.122289434580476 0:0.38461538 1:0.27777778 5:2736 6:16 7:26 8:1 9:234 
-1.122740904623978 0:0.3125 1:0.3125 5:2632 6:25 7:22 8:1 9:226 
-1.122462026535707 0:0.25 1:0.20833333 5:2583 6:29 7:34 8:1 9:257 
-1.637833279691289 0:0.83333333 1:0.76923077 5:312 6:6 7:4 8:1 9:44 
-5 0:0.83333333 1:0.83333333 5:203 6:9 7:2 8:1 9:33 
-5 0:0.83333333 1:0.76923077 5:169 6:3 7:4 8:1 9:28 
-5 0:0.83333333 1:0.55555556 5:546 6:6 7:5 8:1 9:71 
-5 0:0.625 1:0.71428571 5:479 6:3 7:5 8:1 9:67 
-5 0:0.90909091 1:0.76923077 5:85 6:1 7:2 8:1 9:14 
-5 0:1 1:1 5:88 6:2 7:2 8:1 9:16 
-5 0:1 1:1 5:72 6:2 7:2 8:1 9:9 
-5 0:0.83333333 1:1 5:85 7:1 8:1 9:11 
-5 0:0.90909091 1:0.90909091 5:79 6:1 7:1 8:1 9:14 
-5 0:0.76923077 1:0.76923077 5:256 6:7 7:5 8:1 9:37 
-5 0:0.83333333 1:0.71428571 5:248 6:5 7:2 8:1 9:44 
-2.187496817902464 0:0.90909091 1:0.90909091 5:138 6:1 7:3 8:1 9:22 
-5 0:0.83333333 1:0.76923077 5:385 6:4 7:4 8:1 9:49 
-2.056564094825305 0:1 1:0.71428571 5:273 6:10 7:5 8:1 9:36 
-1.814683662720742 0:0.90909091 1:0.76923077 5:217 6:5 7:4 8:1 9:35 
-1.790450182471175 0:1 1:0.47619048 4:1 5:732 6:6 7:7 8:1 9:82 
-1.083571068365824 0:0.625 1:0.55555556 5:587 6:5 7:7 8:1 9:79 
-5 0:1 1:0.76923077 5:103 6:2 7:3 8:1 9:15 
-0.7211947763562345 0:1 1:0.90909091 5:117 6:3 7:3 8:1 9:15 
-5 0:0.90909091 1:1 5:84 6:1 7:1 8:1 9:13 
-1.232507751395429 0:0.76923077 1:0.83333333 5:319 6:5 7:4 8:1 9:43 
-1.977066608607772 0:0.90909091 1:0.5 5:375 6:7 7:5 8:1 9:55 
-0.7498749584581533 0:1 1:0.83333333 5:133 6:5 7:4 8:1 9:23 
-5 0:0.83333333 1:0.71428571 5:459 6:4 7:5 8:1 9:57 
-1.168699720134782 0:1 1:0.71428571 5:248 6:7 7:5 8:1 9:34 
-1.077695205217863 0:0.90909091 1:0.76923077 5:243 6:4 7:4 8:1 9:34 
-1.123158359521425 0:0.90909091 1:0.5 4:1 5:709 6:4 7:7 8:1 9:76 
-5 0:1 1:0.52631579 5:116 6:3 7:3 8:1 9:18 
-5 0:0.90909091 1:0.66666667 5:100 6:4 7:3 8:1 9:17 
-5 0:0.83333333 1:0.90909091 5:98 7:2 8:1 9:13 
-5 0:0.90909091 1:0.83333333 5:65 7:1 8:1 9:11 
-3.665024503971841 0:0.66666667 1:0.83333333 5:388 6:4 7:4 8:1 9:53 
-3.879579408998434 0:0.76923077 1:0.5 5:399 6:3 7:5 8:1 9:55 
-1.314638339862066 0:1 1:0.83333333 5:132 6:1 7:4 8:1 9:22 
-0.6408035662277757 0:0.83333333 1:0.71428571 5:437 6:3 7:5 8:1 9:56 
-0.1396564790751858 0:1 1:0.71428571 5:276 6:8 7:5 8:1 9:39 
-3.127844554150367 0:0.90909091 1:0.76923077 5:253 6:5 7:4 8:1 9:36 
-2.362929923605282 0:0.83333333 1:0.47619048 4:1 5:787 6:5 7:8 8:1 9:85 
-5 0:0.58823529 1:0.625 5:694 6:2 7:7 8:1 9:86 
-4.851066446022604 0:1 1:0.52631579 5:98 7:4 8:1 9:11 
-5 0:1 1:0.66666667 5:63 6:1 7:3 8:1 9:12 
-1.127921189192332 0:1 1:0.76923077 5:81 6:2 7:3 8:1 9:11 
-5 0:0.83333333 1:0.90909091 5:90 7:2 8:1 9:12 
-5 0:0.90909091 1:0.83333333 5:89 7:1 8:1 9:14 
-4.904665940937634 0:0.66666667 1:0.83333333 5:394 6:4 7:4 8:1 9:51 
-5 0:0.76923077 1:0.5 5:402 6:2 7:5 8:1 9:53 
-5 0:1 1:0.83333333 5:174 6:1 7:4 8:1 9:28 
-5 0:0.90909091 1:0.83333333 5:163 6:2 7:2 8:1 9:27 
-1.85407757041183 0:1 1:0.83333333 5:164 6:3 7:2 8:1 9:26 
-0.3704128076894072 0:0.90909091 1:0.71428571 5:293 6:3 7:4 8:1 9:39 
-3.703335684913006 0:0.76923077 1:0.76923077 5:313 6:3 7:3 8:1 9:49 
-5 0:0.90909091 1:0.90909091 5:89 6:2 7:2 8:1 9:17 
-4.382146773938251 0:1 1:0.90909091 5:71 6:1 7:1 8:1 9:10 
-4.911149460851706 0:0.83333333 1:0.83333333 5:131 6:2 7:2 8:1 9:21 
-0.646856007602283 0:0.90909091 1:0.83333333 5:163 7:2 8:1 9:22 
-1.071580256461677 0:1 1:0.90909091 5:105 6:1 7:1 8:1 9:20 
-5 0:1 1:0.52631579 5:92 6:1 7:3 8:1 9:16 
-5 0:0.90909091 1:0.76923077 5:236 6:5 7:4 8:1 9:34 
-5 0:0.83333333 1:0.47619048 4:1 5:764 6:5 7:8 8:1 9:83 
-5 0:0.58823529 1:0.625 5:664 6:2 7:7 8:1 9:84 
-1.1179966056563 0:1 1:0.52631579 4:3 5:248 7:1 8:1 9:28 
-5 0:1 1:0.66666667 5:78 6:3 7:2 8:1 9:16 
-5 0:1 1:0.76923077 5:74 6:3 7:3 8:1 9:10 
-5 0:0.83333333 1:0.90909091 5:75 7:2 8:1 9:9 
-5 0:0.90909091 1:0.83333333 5:66 7:1 8:1 9:11 
-1.365776724678142 0:0.66666667 1:0.83333333 5:388 6:4 7:4 8:1 9:52 
-4.174912050641877 0:0.76923077 1:0.5 5:387 6:2 7:5 8:1 9:51 
-5 0:1 1:0.83333333 5:154 6:2 7:4 8:1 9:26 
-5 0:1 1:0.71428571 5:254 6:8 7:5 8:1 9:37 
-1.487949258999336 0:0.90909091 1:0.76923077 5:403 6:4 7:4 8:1 9:50 
-0.2359934331845081 0:1 1:0.66666667 5:269 6:8 7:4 8:1 9:38 
-3.846943446543837 0:1 1:0.83333333 5:179 6:4 7:3 8:1 9:28 
-1.123141300421614 0:0.76923077 1:0.5 4:1 5:643 6:4 7:6 8:1 9:71 
-1.17592798186179 0:0.66666667 1:0.71428571 5:500 6:2 7:4 8:1 9:67 
-5 0:1 1:0.625 5:103 7:4 8:1 9:16 
-4.267267792804514 0:1 1:0.90909091 5:69 6:3 7:2 8:1 9:12 
-2.22228230986191 0:1 1:0.76923077 5:99 6:3 7:3 8:1 9:14 
-5 0:1 1:0.90909091 5:87 7:1 8:1 9:11 
-5 0:1 1:0.90909091 5:77 6:1 7:1 8:1 9:14 
-3.009342995204976 0:0.76923077 1:0.76923077 5:431 6:4 7:5 8:1 9:57 
-0.3898369409891249 0:0.90909091 1:0.52631579 5:315 6:2 7:4 8:1 9:44 
-5 0:1 1:0.83333333 5:138 6:2 7:3 8:1 9:23 
-5 0:0.83333333 1:0.71428571 5:400 6:4 7:5 8:1 9:53 
-3.149164638636787 0:1 1:0.71428571 5:226 6:8 7:5 8:1 9:37 
-5 0:0.90909091 1:0.76923077 5:221 6:5 7:4 8:1 9:33 
-5 0:0.58823529 1:0.66666667 5:641 6:2 7:6 8:1 9:83 
-5 0:1 1:0.625 5:58 6:2 7:2 8:1 9:12 
-3.731900926648368 0:1 1:0.625 5:60 6:2 7:1 8:1 9:14 
-5 0:1 1:0.76923077 5:52 6:2 7:2 8:1 9:10 
-5 0:0.83333333 1:0.90909091 5:64 7:2 8:1 9:9 
-5 0:0.90909091 1:0.76923077 5:56 7:1 8:1 9:11 
-3.04531848186857 0:0.66666667 1:0.83333333 5:377 6:4 7:4 8:1 9:50 
-3.583359360800687 0:0.76923077 1:0.5 5:370 6:2 7:4 8:1 9:52 
-5 0:1 1:0.83333333 5:146 6:2 7:4 8:1 9:26 
-1.246631618525205 0:0.90909091 1:0.625 5:376 6:5 7:6 8:1 9:45 
-1.060045157786153 0:1 1:0.71428571 5:210 6:6 7:5 8:1 9:32 
-2.495738547423284 0:1 1:0.71428571 5:187 6:4 7:5 8:1 9:31 
-1.257632075058881 0:0.71428571 1:0.58823529 4:1 5:470 6:5 7:4 8:1 9:62 
-1.119816354001999 0:0.76923077 1:0.55555556 5:619 6:3 7:9 8:1 9:83 
-5 0:1 1:0.76923077 5:96 6:2 7:4 8:1 9:16 
-5 0:1 1:1 5:80 7:2 8:1 9:13 
-3.010271868999485 0:0.90909091 1:0.90909091 5:90 6:1 7:2 8:1 9:12 
-5 0:0.90909091 1:0.90909091 5:86 7:1 8:1 9:11 
-0.5621079350818679 0:0.71428571 1:0.76923077 5:270 6:7 7:4 8:1 9:38 
-0.1029290618558538 0:0.76923077 1:0.5 5:337 6:3 7:4 8:1 9:49 
-3.421640865491415 0:0.90909091 1:0.90909091 5:124 6:1 7:2 8:1 9:21 
-5 0:1 1:0.71428571 5:344 6:4 7:4 8:1 9:48 
-0.1058772642556632 0:1 1:0.76923077 5:160 6:5 7:3 8:1 9:28 
-2.183371782679084 0:0.83333333 1:0.71428571 5:264 6:2 7:5 8:1 9:36 
-3.078938110382211 0:0.90909091 1:0.71428571 5:226 6:3 7:5 8:1 9:33 
-2.516180502604359 0:0.83333333 1:0.76923077 5:208 7:4 8:1 9:31 
-2.485440266893805 0:0.83333333 1:0.47619048 4:1 5:738 6:4 7:8 8:1 9:81 
-1.062863609128889 0:0.58823529 1:0.625 5:676 6:1 7:7 8:1 9:84 
-5 0:1 1:0.625 5:80 6:2 7:2 8:1 9:11 
-0.3737382712393948 0:1 1:0.66666667 5:79 6:2 7:3 8:1 9:13 
-5 0:1 1:0.76923077 5:190 6:4 7:3 8:1 9:29 
-4.2989381155061 0:1 1:0.76923077 5:77 6:1 7:3 8:1 9:12 
-0.3235587516982518 0:0.83333333 1:1 5:107 7:1 8:1 9:15 
-0.4532064844768004 0:0.90909091 1:0.83333333 5:99 6:1 7:1 8:1 9:15 
-1.540527698152423 0:0.66666667 1:0.83333333 5:320 6:3 7:4 8:1 9:48 
-2.504880588502004 0:0.76923077 1:0.5 5:342 7:5 8:1 9:49 
-2.09076727147477 0:1 1:0.83333333 5:143 7:4 8:1 9:22 
-1.126615152105804 0:0.83333333 1:0.55555556 4:1 5:560 6:4 7:5 8:1 9:67 
-1.571341175844859 0:0.66666667 1:0.58823529 5:497 6:6 7:7 8:1 9:59 
-0.9355613315925928 0:0.76923077 1:0.76923077 5:301 6:2 7:3 8:1 9:48 
-3.532421112310836 0:1 1:0.76923077 5:175 6:5 7:5 8:1 9:29 
-0.7909700391418297 0:0.83333333 1:0.71428571 5:245 6:3 7:5 8:1 9:35 
-1.199449805214196 0:0.83333333 1:0.47619048 4:1 5:695 6:5 7:8 8:1 9:80 
-1.235312080358342 0:0.58823529 1:0.58823529 5:672 6:2 7:7 8:1 9:86 
-5 0:1 1:0.52631579 5:99 6:1 7:4 8:1 9:15 
-5 0:1 1:0.66666667 5:105 6:3 7:2 8:1 9:20 
-5 0:1 1:0.76923077 5:84 6:2 7:3 8:1 9:12 
-5 0:0.76923077 1:0.90909091 5:119 6:1 7:2 8:1 9:16 
-0.627616192297747 0:0.90909091 1:1 5:98 6:3 7:1 8:1 9:16 
-3.616490114197024 0:0.625 1:0.625 5:336 6:3 7:4 8:1 9:49 
-5 0:1 1:0.76923077 5:36 6:1 7:1 8:1 9:7 
-1.117724108510835 0:0.71428571 1:0.47619048 5:352 6:3 7:5 8:1 9:53 
-5 0:1 1:0.83333333 5:169 6:2 7:4 8:1 9:30 
-4.070229611693514 0:1 1:0.76923077 5:52 6:2 7:1 8:1 9:13 
-5 0:1 1:1 5:40 6:2 7:1 8:1 9:9 
-5 0:1 1:0.90909091 5:37 7:1 8:1 9:6 
-5 0:1 1:1 5:39 7:1 8:1 9:8 
-5 0:0.76923077 1:0.83333333 5:348 6:4 7:3 8:1 9:48 
-5 0:0.90909091 1:0.83333333 5:198 6:2 7:2 8:1 9:27 
-3.395975073242616 0:1 1:0.83333333 5:116 6:2 7:2 8:1 9:22 
-1.92239026155282 0:0.83333333 1:0.90909091 5:136 6:1 7:2 8:1 9:18 
-1.261968636492242 0:1 1:0.90909091 5:117 6:4 7:2 8:1 9:24 
-1.868794137323065 0:1 1:0.90909091 5:89 6:3 7:2 8:1 9:13 
-5 0:0.83333333 1:0.83333333 5:89 6:1 7:2 8:1 9:17 
-5 0:1 1:0.90909091 5:33 7:1 8:1 9:7 
-5 0:1 1:1 5:48 7:2 8:1 9:10 
-5 0:1 1:1 5:21 6:1 7:1 8:1 9:5 
-1.852755655708799 0:0.90909091 1:0.90909091 5:53 7:2 8:1 9:8 
-5 0:1 1:0.83333333 5:35 7:2 8:1 9:6 
-1.015669226392082 0:0.83333333 1:0.83333333 5:246 6:1 7:4 8:1 9:33 
-1.080458290947929 0:0.90909091 1:0.71428571 5:243 6:9 7:5 8:1 9:36 
-5 0:0.90909091 1:0.76923077 5:233 6:5 7:4 8:1 9:36 
-1.262020215125619 0:0.83333333 1:0.5 4:1 5:628 6:2 7:7 8:1 9:71 
-1.142090710059028 0:0.66666667 1:0.625 5:593 6:2 7:7 8:1 9:78 
-5 0:1 1:0.76923077 5:89 6:1 7:2 8:1 9:12 
-1.429168011540832 0:1 1:0.45454545 5:125 6:3 7:3 8:1 9:20 
-2.675784939236108 0:1 1:0.90909091 5:104 6:2 7:3 8:1 9:17 
-5 0:0.83333333 1:0.90909091 5:110 6:1 7:2 8:1 9:16 
-0.2419611641402633 0:0.83333333 1:0.90909091 5:171 6:2 7:1 8:1 9:27 
-5 0:1 1:1 5:92 7:2 8:1 9:18 
-1.00933697993822 0:0.76923077 1:0.76923077 5:253 6:5 7:4 8:1 9:37 
-1.300738133804088 0:0.83333333 1:0.5 5:331 6:3 7:5 8:1 9:45 
-5 0:1 1:0.83333333 5:138 6:4 7:4 8:1 9:25 
-0.3186374677668753 0:0.83333333 1:0.83333333 5:182 6:1 7:1 8:1 9:28 
-5 0:1 1:0.90909091 5:73 6:1 7:1 8:1 9:14 
-5 0:1 1:0.90909091 5:94 7:1 8:1 9:16 
-5 0:1 1:0.83333333 5:74 6:1 7:2 8:1 9:13 
-1.336772070040423 0:0.90909091 1:0.83333333 5:238 6:4 7:4 8:1 9:35 
-2.583101626764854 0:0.90909091 1:0.83333333 5:284 6:3 7:3 8:1 9:42 
-1.120716431851554 0:0.90909091 1:0.52631579 4:1 5:774 6:7 7:6 8:1 9:77 
-2.384886952997396 0:0.66666667 1:0.625 5:762 6:5 7:7 8:1 9:85 
-5 0:0.90909091 1:1 5:137 6:1 7:3 8:1 9:24 
-0.1908110050842847 0:0.83333333 1:0.76923077 5:124 6:3 7:2 8:1 9:21 
-3.972429621634642 0:1 1:1 5:84 6:2 7:2 8:1 9:12 
-4.169871297515229 0:0.83333333 1:1 5:107 7:1 8:1 9:13 
-5 0:0.90909091 1:1 5:99 7:1 8:1 9:19 
-1.791621594721746 0:0.71428571 1:1 5:363 6:3 7:2 8:1 9:51 
-0.2886003377903876 0:0.76923077 1:0.52631579 5:432 6:4 7:3 8:1 9:58 
-5 0:0.90909091 1:0.83333333 5:190 6:3 7:3 8:1 9:32 
-0.652827502913613 0:1 1:0.83333333 5:172 6:3 7:2 8:1 9:30 
-3.014714048451878 0:1 1:0.66666667 5:172 6:2 7:5 8:1 9:24 
-5 0:0.90909091 1:0.83333333 5:89 6:1 7:2 8:1 9:14 
-5 0:1 1:0.83333333 5:143 6:2 7:2 8:1 9:20 
-0.8024680760244002 0:0.90909091 1:0.83333333 5:168 6:3 7:1 8:1 9:23 
-4.559849894718091 0:1 1:0.90909091 5:69 6:1 7:2 8:1 9:12 
-5 0:1 1:1 5:57 6:1 7:1 8:1 9:9 
-0.6818514398353344 0:1 1:1 5:73 6:3 7:2 8:1 9:13 
-5 0:0.90909091 1:1 5:64 7:1 8:1 9:9 
-5 0:0.90909091 1:1 5:79 6:1 7:1 8:1 9:12 
-1.680238752233777 0:0.90909091 1:0.83333333 5:199 6:3 7:3 8:1 9:34 
-1.527414794027724 0:0.90909091 1:0.83333333 5:94 7:2 8:1 9:15 
-1.196243321187319 0:0.76923077 1:0.66666667 5:443 6:1 7:6 8:1 9:49 
-5 0:0.76923077 1:0.90909091 5:204 6:3 7:4 8:1 9:29 
-5 0:0.83333333 1:0.76923077 5:234 6:2 7:4 8:1 9:36 
-1.060615243188926 0:0.71428571 1:0.5 4:1 5:740 6:5 7:7 8:1 9:86 
-0.9320758153208738 0:0.625 1:0.625 5:677 6:2 7:7 8:1 9:80 
-4.93403199090965 0:1 1:1 5:90 7:4 8:1 9:13 
-5 0:0.90909091 1:0.90909091 5:101 6:3 7:2 8:1 9:16 
-5 0:0.90909091 1:0.90909091 5:83 7:2 8:1 9:15 
-5 0:0.83333333 1:0.90909091 5:101 7:2 8:1 9:14 
-5 0:1 1:0.83333333 5:98 7:3 8:1 9:18 
-1.085533101362691 0:0.625 1:0.76923077 5:478 6:3 7:6 8:1 9:55 
-0.898995320643466 0:0.83333333 1:0.47619048 5:424 6:2 7:5 8:1 9:49 
-3.442731144959463 0:1 1:0.83333333 5:169 6:1 7:3 8:1 9:26 
-1.77685199460101 0:0.83333333 1:0.76923077 5:215 6:2 7:6 8:1 9:31 
-5 0:0.90909091 1:0.76923077 5:91 7:4 8:1 9:15 
-5 0:0.83333333 1:0.90909091 5:120 6:1 7:2 8:1 9:19 
-3.115266199194472 0:0.83333333 1:1 5:122 6:2 7:2 8:1 9:17 
-1.464773710774419 0:0.76923077 1:0.76923077 5:242 6:7 7:5 8:1 9:39 
-5 0:1 1:1 5:94 6:2 7:3 8:1 9:15 
-1.33098374933492 0:0.90909091 1:1 5:89 6:1 7:3 8:1 9:14 
-5 0:1 1:0.83333333 5:72 7:3 8:1 9:13 
-3.089209822938091 0:0.83333333 1:1 5:82 7:2 8:1 9:12 
-5 0:0.90909091 1:0.90909091 5:69 6:2 7:1 8:1 9:11 
-0.6565654293498605 0:0.83333333 1:0.90909091 5:165 6:2 7:5 8:1 9:23 
-5 0:0.83333333 1:0.71428571 5:145 6:1 7:4 8:1 9:26 
-4.12148215278151 0:0.90909091 1:0.83333333 5:89 7:3 8:1 9:12 
-0.6390773570247238 0:1 1:0.76923077 5:300 6:2 7:5 8:1 9:43 
-0.1690444073540503 0:0.90909091 1:0.83333333 5:147 6:2 7:4 8:1 9:25 
-3.990156740795793 0:0.90909091 1:0.83333333 5:123 6:1 7:4 8:1 9:21 
-0.988175221017325 0:1 1:0.66666667 5:290 6:2 7:5 8:1 9:40 
-1.12393729722795 0:0.90909091 1:0.66666667 5:290 6:5 7:5 8:1 9:52 
-5 0:1 1:0.71428571 5:93 6:1 7:4 8:1 9:14 
-5 0:0.90909091 1:0.76923077 5:90 6:3 7:2 8:1 9:16 
-0.3706645258421934 0:1 1:1 5:81 6:1 7:3 8:1 9:14 
-5 0:0.90909091 1:1 5:98 6:1 7:1 8:1 9:12 
-5 0:0.90909091 1:0.76923077 5:84 6:1 7:1 8:1 9:13 
-1.412510516505326 0:0.83333333 1:0.90909091 5:270 6:2 7:2 8:1 9:43 
-5 0:0.83333333 1:0.83333333 5:217 6:5 7:3 8:1 9:32 
-1.193439469457256 0:0.90909091 1:0.83333333 5:144 7:4 8:1 9:24 
-2.46343291857412 0:0.83333333 1:0.71428571 5:488 6:4 7:5 8:1 9:60 
-2.166550949786473 0:1 1:0.71428571 5:263 6:8 7:4 8:1 9:38 
-5 0:0.90909091 1:0.76923077 5:263 6:4 7:4 8:1 9:39 
-1.774650529688101 0:0.83333333 1:0.47619048 4:1 5:786 6:5 7:8 8:1 9:90 
-3.798576181428027 0:0.625 1:0.625 5:714 6:2 7:7 8:1 9:88 
-0.6342001380782509 0:1 1:0.71428571 5:63 6:2 7:1 8:1 9:12 
-5 0:1 1:1 5:77 6:3 7:2 8:1 9:14 
-5 0:1 1:1 5:81 6:3 7:2 8:1 9:14 
-5 0:0.90909091 1:1 5:76 7:1 8:1 9:12 
-5 0:1 1:1 5:77 7:1 8:1 9:11 
-0.9188344163307881 0:0.71428571 1:0.83333333 5:396 6:5 7:4 8:1 9:55 
-2.47521778576642 0:0.83333333 1:0.5 5:413 6:2 7:4 8:1 9:56 
-1.122379406073004 0:0.83333333 1:0.71428571 5:537 6:6 7:5 8:1 9:64 
-2.010826637129618 0:0.83333333 1:0.71428571 5:315 6:8 7:5 8:1 9:45 
-1.873804824569892 0:0.90909091 1:0.71428571 5:333 6:7 7:5 8:1 9:48 
-1.512126803894415 0:0.83333333 1:0.47619048 4:1 5:889 6:7 7:8 8:1 9:93 
-1.122496731783748 0:0.58823529 1:0.625 5:800 6:7 7:7 8:1 9:100 
-4.832463249105701 0:1 1:0.52631579 5:131 6:1 7:4 8:1 9:22 
-5 0:1 1:0.76923077 5:88 6:2 7:3 8:1 9:14 
-2.380370083913936 0:1 1:0.76923077 5:135 6:4 7:3 8:1 9:23 
-1.542702486289841 0:0.83333333 1:0.90909091 5:122 7:2 8:1 9:17 
-5 0:0.90909091 1:0.83333333 5:98 7:1 8:1 9:16 
-1.036005375657141 0:0.66666667 1:0.83333333 5:490 6:6 7:4 8:1 9:65 
-1.320690847336095 0:0.76923077 1:0.5 5:443 6:3 7:5 8:1 9:60 
-3.821221739031368 0:1 1:0.83333333 5:187 6:2 7:4 8:1 9:32 
-3.01835675652484 0:1 1:0.71428571 5:303 6:4 7:4 8:1 9:44 
-5 0:0.90909091 1:0.71428571 5:220 6:7 7:5 8:1 9:33 
-5 0:0.90909091 1:0.76923077 5:231 6:5 7:4 8:1 9:34 
-1.124881972961707 0:0.83333333 1:0.52631579 4:1 5:600 6:7 7:6 8:1 9:69 
-5 0:0.58823529 1:0.625 5:696 6:3 7:7 8:1 9:88 
-5 0:1 1:0.625 5:92 6:2 7:2 8:1 9:15 
-5 0:1 1:0.83333333 5:80 6:2 7:3 8:1 9:15 
-5 0:1 1:0.76923077 5:87 6:1 7:3 8:1 9:13 
-3.392655480463858 0:0.83333333 1:0.90909091 5:114 7:2 8:1 9:13 
-5 0:0.90909091 1:0.83333333 5:93 7:1 8:1 9:15 
-5 0:0.83333333 1:0.90909091 5:270 6:2 7:1 8:1 9:43 
-5 0:0.76923077 1:0.5 5:404 6:4 7:4 8:1 9:57 
-5 0:1 1:0.83333333 5:144 7:2 8:1 9:23 
-3.381710733320949 0:0.90909091 1:0.76923077 5:261 6:5 7:3 8:1 9:39 
-4.976107002789204 0:1 1:0.76923077 5:240 6:2 7:2 8:1 9:33 
-0.442225892641116 0:0.90909091 1:0.83333333 5:203 6:4 7:2 8:1 9:28 
-2.1472662869149 0:1 1:0.625 4:1 5:427 6:7 7:5 8:1 9:53 
-1.085290304090806 0:0.76923077 1:0.66666667 5:474 6:1 7:5 8:1 9:60 
-3.96464236169774 0:1 1:0.58823529 5:111 6:1 7:1 8:1 9:17 
-3.460040586826483 0:0.90909091 1:1 5:86 6:3 7:2 8:1 9:15 
-5 0:1 1:1 5:80 6:3 7:2 8:1 9:14 
-2.449727480091092 0:1 1:0.71428571 5:99 6:1 7:1 8:1 9:14 
-4.10063071732304 0:0.90909091 1:1 5:223 6:3 7:2 8:1 9:35 
-0.2731153963157319 0:0.90909091 1:0.55555556 5:291 6:1 7:2 8:1 9:40 
-2.613943220578347 0:1 1:0.90909091 5:147 6:2 7:3 8:1 9:24 
-3.586407050838731 0:0.76923077 1:0.76923077 5:453 6:7 7:5 8:1 9:59 
-1.332523427023973 0:0.76923077 1:0.71428571 5:254 6:11 7:6 8:1 9:38 
-5 0:0.76923077 1:0.76923077 5:307 6:5 7:4 8:1 9:43 
-1.272260741865668 0:0.66666667 1:0.47619048 4:1 5:677 6:4 7:8 8:1 9:74 
-2.489540256661579 0:0.58823529 1:0.66666667 5:720 6:3 7:7 8:1 9:87 
-3.825437828354806 0:0.83333333 1:0.76923077 5:155 6:4 7:4 8:1 9:25 
-1.194363795639478 0:0.83333333 1:1 5:148 6:6 7:3 8:1 9:24 
-5 0:0.71428571 1:0.90909091 5:112 7:2 8:1 9:14 
-3.986558592079136 0:0.83333333 1:0.90909091 5:121 6:2 7:2 8:1 9:23 
-1.141887307153117 0:0.58823529 1:0.625 5:414 6:10 7:4 8:1 9:60 
-1.243863151206986 0:0.71428571 1:0.47619048 5:421 6:9 7:5 8:1 9:61 
-2.044432419453754 0:0.83333333 1:0.83333333 5:209 6:6 7:4 8:1 9:30 
-5 0:0.83333333 1:0.71428571 5:463 6:4 7:5 8:1 9:58 
-0.1980360679978672 0:0.90909091 1:0.76923077 5:258 6:5 7:4 8:1 9:36 
-0.4939247359960373 0:0.83333333 1:0.47619048 4:1 5:786 6:5 7:8 8:1 9:85 
-0.3497554033665702 0:1 1:0.66666667 5:96 6:3 7:2 8:1 9:18 
-1.77702980929817 0:1 1:0.76923077 5:90 6:3 7:3 8:1 9:12 
-0.1924212165509421 0:0.83333333 1:0.90909091 5:94 7:2 8:1 9:11 
-5 0:0.66666667 1:0.83333333 5:410 6:4 7:4 8:1 9:54 
-0.01252905381238664 0:1 1:0.83333333 5:173 6:2 7:4 8:1 9:28 
-0.9163758676407445 0:1 1:0.83333333 5:226 6:3 7:3 8:1 9:28 
-5 0:1 1:0.71428571 5:96 6:1 7:1 8:1 9:14 
-2.396788671425165 0:0.90909091 1:1 5:108 7:1 8:1 9:20 
-2.256862095064799 0:1 1:0.83333333 5:161 6:1 7:3 8:1 9:23 
-1.117052778261228 0:0.83333333 1:0.71428571 5:372 6:2 7:4 8:1 9:56 
-5 0:1 1:0.45454545 5:76 6:1 7:2 8:1 9:10 
-0.7663105156177917 0:0.90909091 1:1 5:65 6:3 7:2 8:1 9:11 
-4.711452996122052 0:1 1:0.55555556 5:66 6:2 7:1 8:1 9:10 
-2.400365412223293 0:1 1:1 5:56 7:1 8:1 9:11 
-0.3414218343045892 0:0.90909091 1:0.76923077 5:160 6:3 7:1 8:1 9:28 
-5 0:1 1:0.90909091 5:76 7:2 8:1 9:13 
-2.098322672021521 0:0.90909091 1:0.71428571 5:438 6:4 7:5 8:1 9:55 
-5 0:0.90909091 1:0.71428571 5:284 6:7 7:5 8:1 9:42 
-1.874731419188925 0:0.90909091 1:0.76923077 5:248 6:5 7:4 8:1 9:35 
-1.122447362751574 0:0.83333333 1:0.47619048 4:1 5:827 6:6 7:8 8:1 9:91 
-1.152611768389208 0:0.58823529 1:0.66666667 5:723 6:3 7:6 8:1 9:93 
-5 0:1 1:0.55555556 5:120 6:2 7:4 8:1 9:19 
-5 0:1 1:0.66666667 5:110 6:2 7:3 8:1 9:21 
-0.4787858303199154 0:1 1:0.83333333 5:147 6:4 7:3 8:1 9:21 
-2.433286271989725 0:0.90909091 1:0.76923077 5:147 6:1 7:4 8:1 9:20 
-5 0:0.90909091 1:0.76923077 5:95 7:1 8:1 9:16 
-0.07251859159907821 0:0.71428571 1:0.76923077 5:386 6:4 7:5 8:1 9:54 
-3.162973320282867 0:0.76923077 1:0.5 5:411 6:2 7:5 8:1 9:53 
-2.417869777746318 0:1 1:0.76923077 5:223 6:4 7:5 8:1 9:37 
-0.1239035195293421 0:0.83333333 1:0.625 5:406 6:4 7:5 8:1 9:51 
-5 0:1 1:0.83333333 5:167 6:3 7:3 8:1 9:28 
-2.453121879462547 0:0.90909091 1:0.76923077 5:224 6:5 7:4 8:1 9:32 
-1.120241672809532 0:1 1:0.66666667 5:413 6:1 7:6 8:1 9:43 
-0.7060943654226115 0:0.625 1:0.625 5:586 6:2 7:7 8:1 9:74 
-4.566870216603578 0:1 1:0.5 5:135 6:1 7:4 8:1 9:21 
-5 0:1 1:0.90909091 5:109 6:3 7:3 8:1 9:16 
-5 0:0.83333333 1:0.90909091 5:92 7:2 8:1 9:12 
-5 0:0.90909091 1:0.76923077 5:81 7:1 8:1 9:13 
-4.721704302796105 0:0.71428571 1:0.83333333 5:338 6:4 7:4 8:1 9:48 
-3.709459311272421 0:0.76923077 1:0.5 5:337 6:3 7:5 8:1 9:47 
-3.917804856686493 0:1 1:0.83333333 5:169 6:2 7:4 8:1 9:26 
-5 0:0.83333333 1:0.71428571 5:464 6:4 7:5 8:1 9:57 
-5 0:0.83333333 1:0.90909091 5:95 7:2 8:1 9:11 
-5 0:0.66666667 1:0.83333333 5:410 6:4 7:4 8:1 9:54 
-4.515540511037999 0:1 1:0.83333333 5:173 6:2 7:4 8:1 9:28 
-4.138577454216882 0:1 1:0.52631579 5:119 6:1 7:4 8:1 9:20 
-1.266125490969501 0:0.90909091 1:0.76923077 5:258 6:5 7:4 8:1 9:36 
-1.122307505338237 0:0.83333333 1:0.66666667 5:578 6:4 7:5 8:1 9:64 
-2.10063344583763 0:0.76923077 1:0.83333333 5:252 6:1 7:2 8:1 9:36 
-0.5001584966407555 0:1 1:0.76923077 5:90 6:3 7:3 8:1 9:12 
-5 0:0.83333333 1:0.90909091 5:95 7:2 8:1 9:11 
-5 0:0.66666667 1:0.83333333 5:410 6:4 7:4 8:1 9:54 
-1.784356113607369 0:0.76923077 1:0.58823529 5:397 6:2 7:5 8:1 9:49 
-5 0:1 1:0.83333333 5:173 6:2 7:4 8:1 9:28 
-5 0:1 1:0.71428571 5:274 6:8 7:5 8:1 9:39 
-5 0:1 1:0.71428571 5:274 6:8 7:5 8:1 9:39 
-5 0:0.90909091 1:0.76923077 5:258 6:5 7:4 8:1 9:36 
-3.306971056548798 0:0.83333333 1:0.47619048 4:1 5:786 6:5 7:8 8:1 9:85 
-5 0:1 1:0.76923077 5:90 6:3 7:3 8:1 9:12 
-5 0:0.83333333 1:0.90909091 5:95 7:2 8:1 9:11 
-5 0:0.66666667 1:0.83333333 5:410 6:4 7:4 8:1 9:54 
-5 0:1 1:0.83333333 5:173 6:2 7:4 8:1 9:28 
-5 0:0.83333333 1:0.71428571 5:464 6:4 7:5 8:1 9:57 
-3.913651383242913 0:1 1:0.71428571 5:274 6:8 7:5 8:1 9:39 
-5 0:0.90909091 1:0.76923077 5:258 6:5 7:4 8:1 9:36 
-5 0:0.83333333 1:0.47619048 4:1 5:786 6:5 7:8 8:1 9:85 
-4.777940850652986 0:0.58823529 1:0.625 5:689 6:2 7:7 8:1 9:86 
-2.426784043762594 0:1 1:0.52631579 5:110 6:1 7:4 8:1 9:18 
-2.329575830690702 0:1 1:0.66666667 5:96 6:3 7:2 8:1 9:18 
-5 0:1 1:0.76923077 5:90 6:3 7:3 8:1 9:12 
-5 0:0.83333333 1:0.90909091 5:95 7:2 8:1 9:11 
-5 0:0.66666667 1:0.83333333 5:410 6:4 7:4 8:1 9:54 
-4.834681494796926 0:0.76923077 1:0.5 5:414 6:2 7:5 8:1 9:53 
-5 0:1 1:0.83333333 5:173 6:2 7:4 8:1 9:28 
-5 0:0.83333333 1:0.71428571 5:464 6:4 7:5 8:1 9:57 
-5 0:1 1:0.71428571 5:274 6:8 7:5 8:1 9:39 
-5 0:0.90909091 1:0.76923077 5:258 6:5 7:4 8:1 9:36 
-5 0:0.83333333 1:0.47619048 4:1 5:786 6:5 7:8 8:1 9:85 
-5 0:0.625 1:0.625 5:618 6:2 7:6 8:1 9:80 
-5 0:1 1:0.52631579 5:110 6:1 7:4 8:1 9:18 
-5 0:1 1:0.66666667 5:96 6:3 7:2 8:1 9:18 
-5 0:1 1:0.76923077 5:90 6:3 7:3 8:1 9:12 
-5 0:0.83333333 1:0.90909091 5:95 7:2 8:1 9:11 
-3.455736514806854 0:0.90909091 1:0.83333333 5:81 7:1 8:1 9:13 
-5 0:0.66666667 1:0.83333333 5:410 6:4 7:4 8:1 9:54 
-5 0:0.76923077 1:0.5 5:414 6:2 7:5 8:1 9:53 
-5 0:1 1:0.83333333 5:173 6:2 7:4 8:1 9:28 
-5 0:0.83333333 1:0.71428571 5:464 6:4 7:5 8:1 9:57 
-5 0:1 1:0.71428571 5:274 6:8 7:5 8:1 9:39 
-5 0:0.90909091 1:0.76923077 5:258 6:5 7:4 8:1 9:36 
-5 0:0.83333333 1:0.47619048 4:1 5:786 6:5 7:8 8:1 9:85 
-5 0:0.58823529 1:0.625 5:689 6:2 7:7 8:1 9:86 
-5 0:1 1:0.52631579 5:110 6:1 7:4 8:1 9:18 
-5 0:1 1:0.66666667 5:96 6:3 7:2 8:1 9:18 
-5 0:1 1:0.76923077 5:90 6:3 7:3 8:1 9:12 
-5 0:0.83333333 1:0.90909091 5:95 7:2 8:1 9:11 
-5 0:0.90909091 1:0.83333333 5:81 7:1 8:1 9:13 
-5 0:0.66666667 1:0.83333333 5:410 6:4 7:4 8:1 9:54 
-5 0:0.76923077 1:0.5 5:414 6:2 7:5 8:1 9:53 
-5 0:1 1:0.83333333 5:173 6:2 7:4 8:1 9:28 
-0.7605966747451903 0:0.83333333 1:0.71428571 5:465 6:4 7:5 8:1 9:56 
-4.854821209523549 0:1 1:0.71428571 5:274 6:8 7:5 8:1 9:39 
-5 0:0.90909091 1:0.76923077 5:258 6:5 7:4 8:1 9:36 
-5 0:0.83333333 1:0.47619048 4:1 5:786 6:5 7:8 8:1 9:85 
-4.974088965355922 0:0.58823529 1:0.625 5:689 6:2 7:7 8:1 9:86 
-4.958373243206582 0:1 1:0.52631579 5:110 6:1 7:4 8:1 9:18 
-5 0:1 1:0.66666667 5:96 6:3 7:2 8:1 9:18 
-4.926307564085704 0:1 1:0.76923077 5:90 6:3 7:3 8:1 9:12 
-5 0:0.83333333 1:0.90909091 5:95 7:2 8:1 9:11 
-4.824378947624359 0:0.90909091 1:0.83333333 5:81 7:1 8:1 9:13 
-5 0:0.66666667 1:0.83333333 5:410 6:4 7:4 8:1 9:54 
-4.955589729543615 0:0.76923077 1:0.5 5:414 6:2 7:5 8:1 9:53 
-4.995882725634414 0:1 1:0.83333333 5:173 6:2 7:4 8:1 9:28 
-0.9166763622498239 0:0.83333333 1:0.83333333 5:59 7:2 8:1 9:5 
-1.263988175668107 0:0.83333333 1:0.71428571 5:521 6:4 7:5 8:1 9:65 
-5 0:1 1:0.71428571 5:288 6:8 7:5 8:1 9:39 
-5 0:0.90909091 1:0.76923077 5:293 6:5 7:4 8:1 9:36 
-5 0:0.83333333 1:0.47619048 4:1 5:815 6:5 7:8 8:1 9:85 
-5 0:0.58823529 1:0.625 5:686 6:2 7:7 8:1 9:86 
-5 0:1 1:0.55555556 5:111 6:2 7:4 8:1 9:17 
-5 0:1 1:0.76923077 5:106 6:3 7:2 8:1 9:18 
-5 0:1 1:0.76923077 5:99 6:3 7:3 8:1 9:12 
-5 0:0.83333333 1:0.90909091 5:101 7:2 8:1 9:11 
-1.913412974219707 0:0.90909091 1:0.83333333 5:83 7:1 8:1 9:13 
-5 0:0.66666667 1:0.83333333 5:423 6:5 7:4 8:1 9:54 
-5 0:0.76923077 1:0.5 5:438 6:2 7:5 8:1 9:56 
-4.481972361898439 0:1 1:0.83333333 5:189 6:2 7:4 8:1 9:30 
-3.141650473871346 0:1 1:0.66666667 5:262 6:1 7:5 8:1 9:38 
-1.702155177860366 0:1 1:0.83333333 5:130 6:4 7:2 8:1 9:24 
-0.3127189662224838 0:1 1:0.83333333 5:248 6:3 7:2 8:1 9:35 
-1.82107191967476 0:0.90909091 1:0.76923077 5:261 6:3 7:3 8:1 9:40 
-4.744430608186026 0:1 1:0.90909091 5:48 6:1 7:2 8:1 9:7 
-3.848230359804231 0:1 1:0.90909091 5:101 6:2 7:2 8:1 9:17 
-5 0:1 1:0.90909091 5:70 7:1 8:1 9:11 
-5 0:1 1:0.83333333 5:96 7:2 8:1 9:14 
-0.9478636465986829 0:0.90909091 1:0.76923077 5:224 6:6 7:4 8:1 9:39 
-5 0:1 1:0.71428571 5:191 6:2 7:4 8:1 9:32 
-4.771919917034714 0:0.90909091 1:0.76923077 5:126 6:2 7:3 8:1 9:19 
-5 0:0.83333333 1:0.71428571 5:457 6:4 7:5 8:1 9:59 
-5 0:1 1:0.71428571 5:288 6:5 7:5 8:1 9:38 
-5 0:0.90909091 1:0.76923077 5:273 6:5 7:4 8:1 9:37 
-1.122892557564097 0:0.58823529 1:0.625 5:741 6:1 7:7 8:1 9:97 
-5 0:0.58823529 1:0.625 5:741 6:1 7:7 8:1 9:97 
-5 0:1 1:0.52631579 5:121 6:1 7:4 8:1 9:20 
-5 0:1 1:0.66666667 5:110 6:3 7:2 8:1 9:19 
-5 0:1 1:0.76923077 5:99 6:3 7:3 8:1 9:13 
-5 0:0.83333333 1:0.90909091 5:104 7:2 8:1 9:12 
-5 0:0.90909091 1:0.83333333 5:94 7:1 8:1 9:14 
-5 0:0.66666667 1:0.83333333 5:403 6:3 7:4 8:1 9:56 
-5 0:0.76923077 1:0.5 5:434 6:1 7:5 8:1 9:58 
-5 0:1 1:0.83333333 5:201 6:2 7:4 8:1 9:31 
-0.2707261991775607 0:0.76923077 1:0.71428571 5:437 6:5 7:5 8:1 9:55 
-1.047384757315308 0:0.90909091 1:0.71428571 5:328 6:7 7:5 8:1 9:44 
-5 0:0.90909091 1:0.76923077 5:259 6:2 7:4 8:1 9:39 
-1.01788859250841 0:0.83333333 1:0.47619048 4:1 5:792 6:4 7:8 8:1 9:89 
-1.332791665661052 0:0.55555556 1:0.625 5:717 6:2 7:7 8:1 9:91 
-1.731117969333117 0:1 1:0.58823529 5:113 6:1 7:4 8:1 9:20 
-4.663824627603683 0:1 1:0.76923077 5:95 6:3 7:2 8:1 9:17 
-5 0:1 1:0.76923077 5:91 6:2 7:3 8:1 9:16 
-5 0:0.83333333 1:0.90909091 5:102 7:2 8:1 9:13 
-5 0:0.90909091 1:0.83333333 5:92 7:1 8:1 9:13 
-4.35889221244022 0:0.66666667 1:0.83333333 5:417 6:4 7:4 8:1 9:61 
-4.72588631204687 0:1 1:0.83333333 5:198 6:3 7:4 8:1 9:30 
-3.409523914723819 0:1 1:0.71428571 5:388 6:4 7:4 8:1 9:51 
-3.888451581717346 0:1 1:0.66666667 5:288 6:8 7:5 8:1 9:39 
-5 0:0.90909091 1:0.76923077 5:258 6:5 7:4 8:1 9:36 
-0.690462557580987 0:0.83333333 1:0.47619048 4:1 5:793 6:5 7:8 8:1 9:86 
-0.6590758394408317 0:0.58823529 1:0.625 5:687 6:2 7:7 8:1 9:89 
-5 0:1 1:1 5:96 6:3 7:2 8:1 9:16 
-0.5244528550690922 0:1 1:1 5:86 6:4 7:2 8:1 9:15 
-2.993647989173662 0:0.76923077 1:1 5:103 7:1 8:1 9:11 
-5 0:0.90909091 1:1 5:84 7:1 8:1 9:14 
-4.925903626875677 0:0.66666667 1:0.83333333 5:394 6:4 7:4 8:1 9:54 
-2.699480892315244 0:0.76923077 1:0.5 5:419 6:2 7:5 8:1 9:54 
-0.0525075022329416 0:1 1:0.83333333 5:173 6:2 7:4 8:1 9:29 
-1.385589213089427 0:0.83333333 1:0.71428571 5:489 6:4 7:6 8:1 9:62 
-0.3920109671131025 0:0.90909091 1:0.83333333 5:276 6:9 7:3 8:1 9:40 
-1.435176085720323 0:0.90909091 1:0.90909091 5:210 6:3 7:2 8:1 9:34 
-1.335198956480892 0:0.71428571 1:0.47619048 4:1 5:753 6:4 7:8 8:1 9:86 
-0.8916345200638036 0:0.625 1:0.58823529 5:671 6:1 7:7 8:1 9:82 
-5 0:1 1:0.71428571 5:92 6:4 7:3 8:1 9:16 
-1.641976582189291 0:1 1:0.76923077 5:82 6:3 7:2 8:1 9:12 
-5 0:1 1:0.83333333 5:102 6:1 7:3 8:1 9:16 
-5 0:0.90909091 1:0.90909091 5:79 6:1 7:1 8:1 9:13 
-2.843618148613069 0:0.76923077 1:0.83333333 5:312 6:3 7:4 8:1 9:44 
-1.120388345494607 0:0.83333333 1:0.625 5:384 7:4 8:1 9:54 
-2.159570929473191 0:1 1:0.90909091 5:156 6:2 7:4 8:1 9:29 
-0.9893705906330824 0:0.76923077 1:0.71428571 5:475 6:5 7:5 8:1 9:57 
-5 0:0.83333333 1:0.71428571 5:247 6:9 7:5 8:1 9:37 
-2.391753393149661 0:0.90909091 1:0.76923077 5:243 6:4 7:4 8:1 9:34 
-2.318368779095609 0:0.83333333 1:0.47619048 4:1 5:793 6:6 7:8 8:1 9:84 
-1.388907172016032 0:0.55555556 1:0.625 5:679 6:2 7:7 8:1 9:83 
-4.582491121875726 0:0.90909091 1:1 5:115 6:1 7:2 8:1 9:17 
-4.626121828441197 0:0.83333333 1:1 5:99 6:3 7:2 8:1 9:17 
-5 0:1 1:0.76923077 5:94 6:2 7:3 8:1 9:17 
-5 0:0.83333333 1:0.90909091 5:104 7:2 8:1 9:15 
-5 0:1 1:0.90909091 5:92 7:2 8:1 9:16 
-1.070548563829629 0:0.625 1:0.76923077 5:385 6:5 7:5 8:1 9:53 
-4.939600760044613 0:0.76923077 1:0.5 5:371 6:2 7:5 8:1 9:49 
-2.720751390339582 0:1 1:0.83333333 5:177 6:3 7:4 8:1 9:27 
-5 0:0.83333333 1:0.71428571 5:447 6:4 7:5 8:1 9:59 
-0.7204658609019075 0:0.83333333 1:0.71428571 5:290 6:7 7:5 8:1 9:38 
-2.08777520005175 0:0.83333333 1:0.76923077 5:272 6:5 7:4 8:1 9:38 
-1.475084211631081 0:0.83333333 1:0.5 4:1 5:772 6:4 7:8 8:1 9:86 
-1.510737784585195 0:0.58823529 1:0.625 5:701 6:2 7:7 8:1 9:85 
-1.401725093206304 0:1 1:0.55555556 5:135 6:1 7:4 8:1 9:20 
-5 0:1 1:0.66666667 5:111 6:2 7:2 8:1 9:19 
-5 0:1 1:0.71428571 5:100 6:1 7:3 8:1 9:13 
-5 0:0.83333333 1:0.90909091 5:102 7:2 8:1 9:14 
-5 0:0.90909091 1:0.83333333 5:91 6:1 7:1 8:1 9:13 
-5 0:0.625 1:0.83333333 5:418 6:4 7:4 8:1 9:55 
-5 0:0.76923077 1:0.47619048 5:419 6:2 7:5 8:1 9:54 
-4.893723351195089 0:1 1:0.83333333 5:177 6:2 7:3 8:1 9:30 
-5 0:0.83333333 1:0.76923077 5:308 6:2 7:3 8:1 9:43 
-0.6230692235522255 0:0.90909091 1:0.90909091 5:159 6:8 7:2 8:1 9:27 
-1.27900704767041 0:0.83333333 1:0.83333333 5:184 6:1 7:3 8:1 9:28 
-1.75763814367894 0:0.83333333 1:0.71428571 5:408 6:6 7:5 8:1 9:51 
-0.09724423625264272 0:0.71428571 1:0.76923077 5:274 6:8 7:5 8:1 9:42 
-1.218723593703518 0:0.90909091 1:0.71428571 5:239 6:4 7:4 8:1 9:34 
-1.150985817620829 0:0.83333333 1:0.47619048 4:1 5:788 6:5 7:8 8:1 9:84 
-2.428023733925002 0:1 1:0.625 4:1 5:204 6:1 7:3 8:1 9:27 
-5 0:0.58823529 1:0.625 5:691 6:2 7:7 8:1 9:86 
-5 0:0.90909091 1:0.625 5:112 7:3 8:1 9:18 
-0.5756807982232111 0:1 1:0.76923077 5:104 6:3 7:1 8:1 9:19 
-5 0:1 1:0.58823529 5:94 6:1 7:3 8:1 9:15 
-5 0:0.83333333 1:0.83333333 5:107 7:2 8:1 9:15 
-5 0:0.90909091 1:1 5:92 7:2 8:1 9:14 
-5 0:0.625 1:0.66666667 5:382 6:3 7:5 8:1 9:53 
-0.148337716805004 0:0.83333333 1:0.76923077 5:248 6:2 7:3 8:1 9:33 
-4.175827066756388 0:0.76923077 1:0.76923077 5:199 6:4 7:3 8:1 9:34 
-1.114724742204893 0:0.71428571 1:0.58823529 5:367 6:2 7:7 8:1 9:55 
-5 0:0.83333333 1:1 5:114 6:2 7:2 8:1 9:20 
-2.468774430837587 0:0.83333333 1:0.66666667 5:447 6:4 7:5 8:1 9:55 
-1.019394169526926 0:0.90909091 1:0.83333333 5:305 6:10 7:5 8:1 9:42 
-5 0:0.90909091 1:0.76923077 5:266 6:5 7:4 8:1 9:37 
-1.95306746134446 0:0.90909091 1:0.5 4:1 5:799 6:6 7:7 8:1 9:85 
-3.778174178242256 0:0.55555556 1:0.66666667 5:669 6:2 7:6 8:1 9:84 
-1.682493106447365 0:0.90909091 1:0.71428571 5:143 6:3 7:6 8:1 9:22 
-4.868769182062313 0:0.90909091 1:1 5:125 6:4 7:2 8:1 9:21 
-4.613330049266129 0:0.90909091 1:0.66666667 5:106 6:3 7:3 8:1 9:14 
-5 0:0.90909091 1:0.90909091 5:54 6:2 7:2 8:1 9:12 
-5 0:0.83333333 1:0.90909091 5:101 7:2 8:1 9:13 
-5 0:0.71428571 1:0.83333333 5:391 6:5 7:4 8:1 9:54 
-5 0:0.76923077 1:0.47619048 5:406 6:2 7:5 8:1 9:52 
-2.946512511122514 0:1 1:0.83333333 5:178 6:3 7:5 8:1 9:28 
-3.436138405227187 0:0.90909091 1:0.83333333 5:297 6:1 7:3 8:1 9:39 
-1.24961419338096 0:1 1:0.76923077 5:125 6:2 7:4 8:1 9:22 
-3.264461027291338 0:1 1:0.83333333 5:188 6:2 7:3 8:1 9:29 
-0.8063481648241749 0:1 1:0.625 5:421 6:4 7:4 8:1 9:52 
-1.937917116274408 0:0.90909091 1:0.83333333 5:360 6:2 7:3 8:1 9:45 
-5 0:0.90909091 1:0.90909091 5:35 7:1 8:1 9:6 
-5 0:1 1:0.83333333 5:74 6:2 7:2 8:1 9:14 
-4.480920295820768 0:1 1:0.90909091 5:107 6:1 7:2 8:1 9:21 
-5 0:1 1:0.83333333 5:160 6:2 7:2 8:1 9:27 
-3.77164216543628 0:1 1:0.83333333 5:150 6:1 7:2 8:1 9:25 
-2.316635500944618 0:1 1:0.90909091 5:82 7:1 8:1 9:15 
-1.75837559564348 0:0.83333333 1:0.83333333 5:212 6:2 7:3 8:1 9:36 
-0.658560907759032 0:0.83333333 1:0.71428571 5:355 6:2 7:3 8:1 9:55 
-5 0:0.90909091 1:0.90909091 5:104 7:2 8:1 9:15 
-5 0:0.90909091 1:1 5:43 7:1 8:1 9:9 
-4.181240650645391 0:0.76923077 1:0.83333333 5:205 6:3 7:3 8:1 9:33 
-0.4132097442390826 0:0.76923077 1:0.52631579 5:354 6:1 7:3 8:1 9:55 
-1.9350235000306 0:0.83333333 1:0.83333333 5:100 6:2 7:2 8:1 9:16 
-2.791403771968147 0:1 1:0.76923077 5:160 6:5 7:3 8:1 9:28 
-5 0:0.90909091 1:0.90909091 5:109 6:2 7:1 8:1 9:20 
-0.3786114444085144 0:0.90909091 1:0.83333333 5:204 6:2 7:2 8:1 9:31 
-0.7683864742801764 0:0.76923077 1:0.90909091 5:141 7:1 8:1 9:19 
-5 0:1 1:0.76923077 5:66 6:2 7:2 8:1 9:13 
-2.554934698559195 0:0.76923077 1:0.76923077 5:404 6:6 7:4 8:1 9:51 
-0.8049235191507119 0:1 1:0.76923077 5:259 6:9 7:4 8:1 9:38 
-1.152417274894798 0:0.83333333 1:0.83333333 5:245 6:5 7:3 8:1 9:36 
-5 0:0.83333333 1:0.47619048 4:1 5:786 6:5 7:8 8:1 9:85 
-5 0:0.58823529 1:0.625 5:689 6:2 7:7 8:1 9:86 
-1.394387282201273 0:1 1:0.52631579 5:125 6:3 7:4 8:1 9:19 
-5 0:1 1:0.66666667 5:94 6:3 7:2 8:1 9:18 
-5 0:1 1:0.76923077 5:86 6:2 7:3 8:1 9:16 
-2.843643656847695 0:0.83333333 1:1 5:53 6:1 7:1 8:1 9:13 
-3.208010996406558 0:0.83333333 1:1 5:105 6:1 7:1 8:1 9:13 
-2.823152935724257 0:0.90909091 1:0.76923077 5:96 7:1 8:1 9:14 
-1.724197711562679 0:0.71428571 1:0.76923077 5:411 6:4 7:5 8:1 9:52 
-5 0:0.76923077 1:0.5 5:414 6:2 7:5 8:1 9:53 
-5 0:1 1:0.90909091 5:158 6:2 7:3 8:1 9:28 
-5 0:1 1:1 5:43 6:2 7:2 8:1 9:10 
-4.432571274650277 0:0.83333333 1:0.71428571 5:459 6:4 7:5 8:1 9:58 
-1.464169698619717 0:1 1:0.71428571 5:271 6:8 7:5 8:1 9:40 
-0.2441463711090675 0:0.90909091 1:0.90909091 5:31 7:1 8:1 9:5 
-5 0:0.90909091 1:0.76923077 5:253 6:5 7:4 8:1 9:36 
-2.947216844758682 0:0.83333333 1:0.5 4:1 5:778 6:6 7:7 8:1 9:84 
-1.672779372347077 0:0.625 1:0.58823529 5:667 6:2 7:7 8:1 9:85 
-5 0:1 1:0.52631579 5:107 6:2 7:4 8:1 9:17 
-2.903166155009019 0:1 1:0.66666667 5:95 6:3 7:2 8:1 9:18 
-5 0:0.83333333 1:0.90909091 5:95 7:2 8:1 9:11 
-5 0:0.90909091 1:0.83333333 5:80 7:1 8:1 9:12 
-5 0:0.66666667 1:0.83333333 5:401 6:4 7:4 8:1 9:51 
-0.6999979029084731 0:0.66666667 1:0.71428571 5:408 6:2 7:5 8:1 9:51 
-5 0:1 1:0.90909091 5:29 7:1 8:1 9:6 
-1.173443564501335 0:0.83333333 1:0.83333333 5:305 6:3 7:1 8:1 9:43 
-1.990324852553172 0:0.83333333 1:1 5:119 7:1 8:1 9:15 
-5 0:1 1:0.83333333 5:62 6:2 7:1 8:1 9:11 
-3.338366988256946 0:1 1:0.90909091 5:33 7:2 8:1 9:8 
-1.461787224873168 0:1 1:1 5:98 6:5 7:3 8:1 9:18 
-5 0:1 1:0.90909091 5:67 6:1 7:2 8:1 9:12 
-2.658197730926535 0:1 1:0.90909091 5:70 6:1 7:1 8:1 9:12 
-0.09444996090601583 0:1 1:0.90909091 5:54 7:1 8:1 9:12 
-4.607790869697775 0:1 1:1 5:54 6:2 7:3 8:1 9:11 
-5 0:1 1:0.76923077 5:46 7:2 8:1 9:7 
-4.133838078941778 0:1 1:0.66666667 5:58 7:1 8:1 9:9 
-5 0:1 1:1 5:48 7:2 8:1 9:9 
-5 0:1 1:0.90909091 5:43 6:1 7:1 8:1 9:8 
-5 0:1 1:1 5:63 6:1 7:2 8:1 9:13 
-5 0:1 1:0.83333333 5:73 6:2 7:2 8:1 9:15 
-5 0:1 1:0.90909091 5:61 6:2 7:1 8:1 9:12 
-4.914244422346467 0:1 1:0.76923077 5:107 6:1 7:3 8:1 9:16 
-5 0:1 1:0.90909091 5:70 6:1 7:1 8:1 9:13 
-5 0:1 1:0.83333333 5:54 7:2 8:1 9:11 
-1.595453016846065 0:1 1:0.90909091 5:52 6:1 7:1 8:1 9:8 
-5 0:1 1:0.90909091 5:39 7:2 8:1 9:7 
-5 0:1 1:0.90909091 5:45 6:1 7:1 8:1 9:9 
-5 0:1 1:0.90909091 5:57 6:2 7:1 8:1 9:11 
-5 0:1 1:1 5:36 6:1 7:1 8:1 9:8 
-5 0:1 1:0.90909091 5:49 6:1 7:1 8:1 9:10 
-4.552893043940468 0:1 1:0.90909091 5:43 7:1 8:1 9:8 
-0.3520211685921791 0:1 1:0.90909091 5:62 7:1 8:1 9:14 
-5 0:1 1:0.76923077 5:60 7:2 8:1 9:10 
-5 0:1 1:0.90909091 5:33 6:1 7:1 8:1 9:6 
-2.286049704561572 0:1 1:0.76923077 5:196 6:2 7:3 8:1 9:32 
-5 0:1 1:0.76923077 5:161 6:2 7:5 8:1 9:28 
-4.122909011228979 0:0.90909091 1:0.83333333 5:142 6:1 7:4 8:1 9:20 
-1.140980745365419 0:1 1:0.83333333 5:157 6:1 7:3 8:1 9:18 
-0.313321845910084 0:1 1:0.71428571 5:322 6:3 7:4 8:1 9:48 
-0.9427460265638723 0:1 1:0.66666667 5:70 6:2 7:2 8:1 9:14 
-0.6645737625944643 0:1 1:0.76923077 5:49 7:3 8:1 9:7 
-5 0:1 1:0.90909091 5:53 7:2 8:1 9:10 
-0.7764182925265297 0:1 1:0.90909091 5:176 6:1 7:4 8:1 9:32 
-1.162122156025864 0:1 1:0.71428571 5:166 7:4 8:1 9:23 
-4.158508644905208 0:1 1:0.76923077 5:114 7:4 8:1 9:20 
-2.374306752552855 0:0.90909091 1:0.76923077 5:272 6:3 7:4 8:1 9:36 
-2.261487072796693 0:0.90909091 1:0.83333333 5:222 6:7 7:4 8:1 9:31 
-0.9938218298865215 0:0.83333333 1:0.55555556 4:1 5:422 6:2 7:5 8:1 9:47 
-0.5503717644780214 0:0.71428571 1:0.625 5:587 6:2 7:8 8:1 9:75 
-0.8532750039448815 0:1 1:1 5:72 6:1 7:2 8:1 9:14 
-5 0:1 1:0.90909091 5:60 6:3 7:3 8:1 9:10 
-5 0:1 1:1 5:47 6:1 7:2 8:1 9:8 
-5 0:0.83333333 1:0.90909091 5:79 7:2 8:1 9:10 
-5 0:1 1:0.83333333 5:68 7:2 8:1 9:13 
-2.631508207933694 0:0.90909091 1:0.71428571 5:293 6:1 7:3 8:1 9:43 
-2.479356629619014 0:1 1:0.83333333 5:111 7:4 8:1 9:16 
-5 0:0.71428571 1:0.71428571 5:396 6:3 7:5 8:1 9:52 
-5 0:0.90909091 1:0.71428571 5:231 6:6 7:5 8:1 9:38 
-5 0:1 1:0.76923077 5:196 6:5 7:4 8:1 9:33 
-5 0:0.71428571 1:0.47619048 4:1 5:683 6:7 7:8 8:1 9:81 
-0.987515923927654 0:0.625 1:0.625 5:626 6:3 7:7 8:1 9:78 
-4.734578920214693 0:1 1:0.625 5:62 6:3 7:2 8:1 9:11 
-2.762480811237035 0:0.90909091 1:0.66666667 5:62 6:3 7:1 8:1 9:12 
-5 0:1 1:0.76923077 5:55 6:1 7:2 8:1 9:10 
-5 0:0.83333333 1:0.90909091 5:82 7:2 8:1 9:12 
-5 0:0.90909091 1:0.83333333 5:58 6:1 7:1 8:1 9:12 
-5 0:0.66666667 1:0.83333333 5:369 6:4 7:4 8:1 9:52 
-5 0:0.76923077 1:0.55555556 5:383 6:4 7:4 8:1 9:55 
-5 0:1 1:0.83333333 5:129 6:2 7:4 8:1 9:25 
-0.5473039572699854 0:0.76923077 1:0.76923077 5:410 6:2 7:4 8:1 9:49 
-0.107247327156309 0:1 1:0.71428571 5:269 6:7 7:5 8:1 9:39 
-5 0:0.90909091 1:0.76923077 5:230 6:4 7:4 8:1 9:34 
-1.122419650030728 0:1 1:0.5 4:1 5:623 6:6 7:7 8:1 9:62 
-1.105396141387925 0:0.71428571 1:0.625 5:662 6:5 7:7 8:1 9:83 
-5 0:1 1:1 5:80 6:2 7:3 8:1 9:14 
-5 0:1 1:0.625 5:94 6:3 7:2 8:1 9:15 
-4.140644037011542 0:1 1:0.90909091 5:103 6:2 7:2 8:1 9:20 
-3.77494757134803 0:0.83333333 1:0.90909091 5:114 6:2 7:2 8:1 9:14 
-5 0:1 1:0.90909091 5:81 7:1 8:1 9:14 
-2.288199345872932 0:0.83333333 1:0.66666667 5:308 6:4 7:7 8:1 9:42 
-2.343194408769254 0:0.83333333 1:0.47619048 5:359 6:2 7:6 8:1 9:50 
-2.48867826756933 0:1 1:0.83333333 5:161 7:4 8:1 9:26 
-3.482051928314794 0:0.90909091 1:0.83333333 5:156 6:2 7:3 8:1 9:28 
-0.6275321449105745 0:0.90909091 1:0.90909091 5:134 6:5 7:1 8:1 9:24 
-1.077447442858854 0:1 1:0.71428571 5:241 6:4 7:4 8:1 9:31 
-4.689997987014455 0:0.90909091 1:0.76923077 5:192 6:4 7:2 8:1 9:33 
-5 0:0.83333333 1:1 5:58 6:1 7:1 8:1 9:12 
-5 0:1 1:0.90909091 5:38 6:2 7:2 8:1 9:7 
-5 0:1 1:1 5:50 6:2 7:1 8:1 9:10 
-2.514859429342608 0:1 1:0.90909091 5:46 7:1 8:1 9:5 
-5 0:1 1:0.90909091 5:53 7:1 8:1 9:10 
-2.132500600903565 0:0.90909091 1:0.71428571 5:116 6:5 7:3 8:1 9:23 
-2.865878818313549 0:1 1:0.625 5:160 6:1 7:3 8:1 9:29 
-5 0:0.90909091 1:0.90909091 5:97 6:2 7:1 8:1 9:19 
-0.8238828423641241 0:0.90909091 1:1 5:318 6:4 7:1 8:1 9:46 
-0.9215529067392611 0:0.90909091 1:0.83333333 5:210 6:3 7:3 8:1 9:36 
-1.606766353892325 0:0.90909091 1:1 5:183 6:5 7:1 8:1 9:30 
-2.178201364669499 0:0.83333333 1:0.47619048 4:1 5:733 6:5 7:8 8:1 9:84 
-1.139827650461247 0:0.58823529 1:0.625 5:625 6:2 7:7 8:1 9:82 
-5 0:1 1:0.625 5:96 6:2 7:2 8:1 9:17 
-3.081585888399474 0:1 1:0.625 5:68 6:1 7:1 8:1 9:16 
-5 0:1 1:0.76923077 5:54 6:1 7:2 8:1 9:10 
-1.625719299237667 0:0.83333333 1:0.90909091 5:54 7:2 8:1 9:9 
-5 0:0.90909091 1:0.76923077 5:61 7:1 8:1 9:11 
-1.142435552401921 0:0.76923077 1:1 5:245 6:1 7:2 8:1 9:40 
-2.36177402344466 0:0.83333333 1:0.52631579 5:251 6:1 7:3 8:1 9:40 
-1.976533058310656 0:1 1:0.83333333 5:128 7:2 8:1 9:25 
