svm_type c_svc
kernel_type rbf
gamma 0.05
nr_class 2
total_sv 315
rho 0.592305
label 0 1
nr_sv 155 160
SV
1 0:1.4417671 1:5.2048193 2:0.71428571 3:0.19230769 4:0.18518519 5:1 9:0.071005917 10:0.027613412 11:0.253 12:0.2749 13:0.072978304 14:0.013752456 15:0.14666667 16:0.505 17:0.16765286 19:1 20:0.4891945 
1 0:1.3521739 1:4.8782609 2:0.90909091 3:0.47619048 4:0.14084507 5:1 9:0.033472803 10:0.0083682008 11:0.2385 12:0.2514 13:0.10878661 14:0.010438413 15:0.22666667 16:0.476 17:0.19874477 19:1 20:0.48016701 
1 0:1.4899598 1:5.4176707 2:1 3:0.83333333 4:0.15873016 5:1 9:0.076620825 10:0.025540275 11:0.254 12:0.28 13:0.082514735 14:0.0039292731 15:0.18 16:0.507 17:0.19056974 19:1 20:0.4891945 
1 0:1.4715447 1:4.9878049 2:0.76923077 3:0.22222222 4:0.22727273 5:1 9:0.042222222 10:0.044444444 11:0.2245 12:0.2378 13:0.086666667 14:0.019823789 15:0.12 16:0.448 17:0.19777778 19:1 20:0.54185022 
1 0:1.5698529 1:5.6580882 2:0.76923077 3:0.34482759 4:0.20408163 5:1 9:0.072124756 10:0.052631579 11:0.256 12:0.2948 13:0.044834308 14:0.003868472 15:0.13 16:0.511 17:0.15594542 19:1 20:0.52611219 
1 0:1.4933333 1:5.3911111 2:1 3:0.55555556 4:0.20833333 5:1 9:0.059063136 10:0.036659878 11:0.245 12:0.2659 13:0.077393075 14:0.0020366599 15:0.12666667 16:0.489 17:0.19959267 19:1 20:0.45824847 
1 0:1.7831715 1:6.0323625 2:0.625 3:0.20833333 4:0.22222222 5:1 9:0.067460317 10:0.035714286 11:0.2515 12:0.3056 13:0.075396825 14:0.0058708415 15:0.11666667 16:0.502 17:0.19444444 19:1 20:0.60469667 
1 0:1.651341 1:5.6475096 2:1 3:0.3030303 4:0.2 5:1 9:0.063136456 10:0.044806517 11:0.245 12:0.2789 13:0.071283096 14:0.002020202 15:0.14333333 16:0.489 17:0.16293279 19:1 20:0.52727273 
1 0:1.4679803 1:5.0394089 2:0.71428571 3:0.4 4:0.38461538 5:1 9:0.075156576 10:0.056367432 11:0.239 12:0.2408 13:0.054279749 14:0.018595041 15:0.053333333 16:0.477 17:0.18580376 19:1 20:0.41942149 
1 0:1.5982906 1:5.1880342 2:0.4 3:0.43478261 4:0.28571429 5:1 9:0.064516129 10:0.032258065 11:0.2475 12:0.2789 13:0.058467742 14:0.0098814229 15:0.093333333 16:0.494 17:0.19153226 19:1 20:0.46245059 
1 0:1.5076923 1:5.2076923 2:0.76923077 3:0.45454545 4:0.16129032 5:1 9:0.05019305 10:0.027027027 11:0.2585 12:0.2761 13:0.10617761 14:0.0038022814 15:0.18666667 16:0.516 17:0.19111969 19:1 20:0.49429658 
1 0:1.541502 1:5.1264822 2:0.47619048 3:0.25 4:0.28571429 5:1 9:0.060416667 10:0.054166667 11:0.2395 12:0.2586 13:0.075 14:0.0081466395 15:0.09 16:0.478 17:0.17916667 19:1 20:0.51527495 
1 0:1.4055118 1:5.0590551 2:0.35714286 3:0.5 4:0.23255814 5:1 9:0.063241107 10:0.041501976 11:0.2525 12:0.2725 13:0.06916996 14:0.011385199 15:0.11333333 16:0.504 17:0.19960474 19:1 20:0.48197343 
1 0:1.5193133 1:5.2660944 2:0.71428571 3:0.33333333 4:0.32258065 5:1 9:0.051124744 10:0.034764826 11:0.244 12:0.2648 13:0.09406953 14:0.0020242915 15:0.076666667 16:0.487 17:0.19836401 19:1 20:0.47165992 
1 0:1.5415162 1:5.3176895 2:0.71428571 3:0.25 4:0.18518519 5:1 9:0.076320939 10:0.04109589 11:0.255 12:0.2887 13:0.076320939 15:0.14666667 16:0.509 17:0.18982387 19:1 20:0.53578337 
1 0:1.3672566 1:4.960177 2:0.83333333 3:0.43478261 4:0.092592593 5:1 9:0.032258065 10:0.010080645 11:0.2475 12:0.2599 13:0.064516129 14:0.0040160643 15:0.39666667 16:0.494 17:0.1391129 19:1 20:0.45381526 
1 0:1.5340502 1:5.5448029 2:0.76923077 3:0.37037037 4:0.20833333 5:1 9:0.079268293 10:0.046747967 11:0.2455 12:0.2826 13:0.073170732 14:0.002016129 15:0.12666667 16:0.49 17:0.17682927 19:1 20:0.5625 
1 0:1.3656388 1:4.8370044 2:0.83333333 3:0.5 4:0.17857143 5:1 9:0.056 10:0.044 11:0.2495 12:0.2595 13:0.068 14:0.0079681275 15:0.15333333 16:0.498 17:0.168 19:1 20:0.45219124 
1 0:1.4147287 1:5.0736434 2:0.71428571 3:0.25 4:0.16949153 5:1 9:0.0499002 10:0.051896208 11:0.25 12:0.2654 13:0.083832335 14:0.0098814229 15:0.17 16:0.499 17:0.20159681 19:1 20:0.50988142 
1 0:1.4090909 1:5.0454545 2:1 3:0.21276596 4:0.17241379 5:1 9:0.046875 10:0.056640625 11:0.2555 12:0.2721 13:0.1015625 14:0.0019493177 15:0.17 16:0.51 17:0.19921875 19:1 20:0.4288499 
1 0:1.3333333 1:4.699187 2:0.5 3:0.45454545 4:0.34482759 5:1 9:0.072916667 10:0.060416667 11:0.2395 12:0.2456 13:0.095833333 14:0.0020408163 15:0.083333333 16:0.478 17:0.17708333 19:1 20:0.50204082 
1 0:1.5175097 1:5.3540856 2:0.83333333 3:0.47619048 4:0.25 5:1 9:0.070281124 10:0.054216867 11:0.2485 12:0.2669 13:0.078313253 14:0.004 15:0.11 16:0.496 17:0.1746988 19:1 20:0.514 
1 0:1.3969466 1:5.2862595 2:0.71428571 3:0.66666667 4:0.2 5:1 9:0.083673469 10:0.018367347 11:0.2445 12:0.2702 13:0.042857143 14:0.004040404 15:0.13666667 16:0.488 17:0.1755102 19:1 20:0.52929293 
1 0:1.3898305 1:4.9661017 2:0.66666667 3:0.3125 4:0.18518519 5:1 9:0.065606362 10:0.027833002 11:0.251 12:0.2601 13:0.06361829 14:0.0039370079 15:0.14666667 16:0.501 17:0.16699801 19:1 20:0.46456693 
1 0:1.5439331 1:5.1338912 2:0.83333333 3:0.25641026 4:0.15151515 5:1 9:0.061099796 10:0.057026477 11:0.245 12:0.26 13:0.097759674 14:0.0060362173 15:0.18666667 16:0.489 17:0.21995927 19:1 20:0.48088531 
1 0:1.4472574 1:4.9113924 2:0.43478261 3:0.25641026 4:0.17241379 5:1 9:0.052953157 10:0.069246436 11:0.245 12:0.2544 13:0.10794297 14:0.011904762 15:0.16 16:0.489 17:0.18329939 19:1 20:0.4702381 
1 0:1.4217391 1:4.7782609 2:0.52631579 3:0.45454545 4:0.15151515 5:1 9:0.029182879 10:0.060311284 11:0.2565 12:0.2614 13:0.12645914 14:0.011472275 15:0.19666667 16:0.512 17:0.20233463 19:1 20:0.43977055 
1 0:1.4425087 1:5.1777003 2:0.66666667 3:0.47619048 4:0.23255814 5:1 9:0.084848485 10:0.038383838 11:0.247 12:0.272 13:0.054545455 14:0.0039840637 15:0.11 16:0.493 17:0.14343434 19:1 20:0.57171315 
1 0:1.5729927 1:5.2226277 2:0.83333333 3:0.2173913 4:0.25 5:1 9:0.083003953 10:0.041501976 11:0.2525 12:0.2776 13:0.067193676 14:0.011741683 15:0.1 16:0.504 17:0.16600791 19:1 20:0.53620352 
1 0:1.5019608 1:5.5529412 2:0.83333333 3:0.19607843 4:0.2 5:1 9:0.049603175 10:0.031746032 11:0.2515 12:0.2815 13:0.051587302 14:0.0019685039 15:0.13333333 16:0.502 17:0.13888889 19:1 20:0.5019685 
1 0:1.404 1:4.808 2:0.37037037 3:0.18518519 4:0.23255814 5:1 9:0.063265306 10:0.051020408 11:0.2445 12:0.2528 13:0.091836735 14:0.0079522863 15:0.12 16:0.488 17:0.18163265 19:1 20:0.49701789 
1 0:1.4778157 1:5 2:0.47619048 3:0.27777778 4:0.17857143 5:1 9:0.07293666 10:0.071017274 11:0.26 12:0.2805 13:0.063339731 14:0.0056074766 15:0.16666667 16:0.519 17:0.18234165 19:1 20:0.54766355 
0.3326866319073883 0:1.4219409 1:4.8649789 2:1 3:0.24390244 4:0.19607843 5:1 9:0.052521008 10:0.052521008 11:0.2375 12:0.2512 13:0.088235294 14:0.014314928 15:0.14 16:0.474 17:0.18277311 19:1 20:0.48466258 
1 0:1.4090909 1:5.0681818 2:0.58823529 3:0.55555556 4:0.13333333 5:1 9:0.058027079 10:0.040618956 11:0.258 12:0.2677 13:0.10831721 14:0.017175573 15:0.22666667 16:0.515 17:0.1934236 19:1 20:0.41984733 
1 0:1.484375 1:5.34375 2:0.90909091 3:0.38461538 4:0.26315789 5:1 9:0.034343434 10:0.028282828 11:0.247 12:0.2569 13:0.086868687 14:0.0060483871 15:0.093333333 16:0.493 17:0.2 19:1 20:0.51612903 
1 0:1.5602837 1:5.3510638 2:0.71428571 3:0.23255814 4:0.23255814 5:1 9:0.079150579 10:0.046332046 11:0.2585 12:0.2887 13:0.046332046 14:0.0038314176 15:0.11333333 16:0.516 17:0.18725869 19:1 20:0.54022989 
1 0:1.470339 1:5.0211864 2:0.55555556 3:0.43478261 4:0.14285714 5:1 9:0.043650794 10:0.031746032 11:0.2515 12:0.268 13:0.079365079 14:0.0078277886 15:0.21333333 16:0.502 17:0.18849206 19:1 20:0.46183953 
1 0:1.5501859 1:5.2936803 2:1 3:0.3125 4:0.16666667 5:1 9:0.047808765 10:0.061752988 11:0.2505 12:0.2749 13:0.085657371 14:0.0078277886 15:0.18 16:0.5 17:0.18326693 19:1 20:0.52641879 
1 0:1.4957265 1:5.2179487 2:0.90909091 3:0.34482759 4:0.21276596 5:1 9:0.069246436 10:0.054989817 11:0.245 12:0.2667 13:0.057026477 14:0.0081300813 15:0.13333333 16:0.489 17:0.17107943 19:1 20:0.47560976 
1 0:1.5714286 1:5.4947735 2:0.71428571 3:0.27777778 4:0.13333333 5:1 9:0.054054054 10:0.063706564 11:0.2585 12:0.2953 13:0.05984556 14:0.0095419847 15:0.22333333 16:0.516 17:0.17567568 19:1 20:0.54770992 
1 0:1.5429553 1:5.2955326 2:0.5 3:0.22222222 4:0.17857143 5:1 9:0.06407767 10:0.042718447 11:0.257 12:0.2944 13:0.05631068 14:0.0037664783 15:0.16333333 16:0.513 17:0.16116505 19:1 20:0.5480226 
1 0:1.4139194 1:5.1135531 2:0.43478261 3:0.25 4:0.15151515 5:1 9:0.057361377 10:0.049713193 11:0.261 12:0.2817 13:0.11281071 14:0.0037313433 15:0.2 16:0.521 17:0.19311663 19:1 20:0.50932836 
1 0:1.4063745 1:4.9203187 2:0.52631579 3:0.22727273 4:0.20833333 5:1 9:0.057142857 10:0.048979592 11:0.2445 12:0.2507 13:0.085714286 14:0.008 15:0.12666667 16:0.488 17:0.1877551 19:1 20:0.502 
1 0:1.5409253 1:5.113879 2:0.58823529 3:0.34482759 4:0.16393443 5:1 9:0.074144487 10:0.062737643 11:0.2625 12:0.2834 13:0.072243346 14:0.0094339623 15:0.18333333 16:0.524 17:0.21102662 19:1 20:0.53018868 
1 0:1.6071429 1:5.3571429 2:1 3:0.17857143 4:0.19607843 5:1 9:0.073267327 10:0.03960396 11:0.252 12:0.2876 13:0.03960396 14:0.0019685039 15:0.13333333 16:0.503 17:0.13267327 19:1 20:0.5511811 
1 0:1.4417671 1:5.2008032 2:0.90909091 3:0.76923077 4:0.22222222 5:1 9:0.089285714 10:0.051587302 11:0.2515 12:0.2686 13:0.053571429 14:0.0039447732 15:0.11666667 16:0.502 17:0.15873016 19:1 20:0.49112426 
1 0:1.4736842 1:5.4210526 2:0.55555556 3:0.16129032 4:0.20408163 5:1 9:0.067761807 10:0.032854209 11:0.243 12:0.2794 13:0.059548255 14:0.0060606061 15:0.14333333 16:0.485 17:0.15811088 19:1 20:0.57575758 
1 0:1.2033898 1:4.2542373 2:0.90909091 3:0.76923077 4:0.5 5:1 9:0.014084507 10:0.014084507 11:0.035 12:0.0415 13:0.042253521 14:0.025316456 15:0.016666667 16:0.069 17:0.070422535 19:1 20:0.74683544 
1 0:1.0697674 1:4.372093 2:1 3:0.76923077 4:0.5 5:1 10:0.020408163 11:0.024 12:0.0286 13:0.040816327 14:0.053571429 15:0.013333333 16:0.047 17:0.18367347 19:1 20:0.76785714 
1 0:1.28 1:4.64 2:1 3:0.90909091 4:0.47619048 5:1 9:0.016666667 10:0.033333333 11:0.0295 12:0.0361 13:0.016666667 14:0.059701493 15:0.016666667 16:0.058 17:0.15 19:1 20:0.74626866 
1 0:0.83333333 1:4.0833333 2:0.90909091 3:1 4:0.83333333 5:1 9:0.090909091 11:0.005 12:0.0063 14:0.083333333 15:0.0066666667 16:0.009 19:1 20:1 
1 0:1.25 1:4.5909091 2:1 3:0.76923077 4:0.52631579 5:1 9:0.02 10:0.02 11:0.0245 12:0.0294 14:0.052631579 15:0.013333333 16:0.048 17:0.12 19:1 20:0.77192982 
1 0:1.4 1:5.025 2:1 3:0.58823529 4:0.58823529 5:1 9:0.020408163 10:0.040816327 11:0.0485 12:0.0614 13:0.020408163 14:0.0099009901 15:0.023333333 16:0.096 17:0.15306122 19:1 20:0.79207921 
1 0:0.64864865 1:4.4324324 2:1 3:1 4:0.76923077 5:1 11:0.0205 12:0.0242 13:0.023809524 15:0.02 16:0.04 19:1 20:0.84090909 
1 1:4 2:1 3:1 4:1 5:1 12:0.0004 15:0.0033333333 19:1 20:1 
1 0:1.5365854 1:5.2926829 2:0.83333333 3:0.83333333 4:0.47619048 5:1 8:0.033333333 9:0.036363636 10:0.036363636 11:0.0545 12:0.072 13:0.063636364 14:0.017241379 15:0.026666667 16:0.108 17:0.23636364 19:1 20:0.70689655 
1 0:1.122807 1:4.245614 2:0.90909091 3:0.76923077 4:0.5 5:1 9:0.02739726 10:0.01369863 11:0.036 12:0.0404 13:0.054794521 14:0.037037037 15:0.013333333 16:0.071 17:0.15068493 19:1 20:0.7037037 
1 0:1.16 1:4.14 2:0.83333333 3:0.83333333 4:0.47619048 5:1 9:0.035087719 10:0.01754386 11:0.028 12:0.0338 13:0.01754386 14:0.044776119 15:0.016666667 16:0.055 17:0.12280702 19:1 20:0.74626866 
1 0:1.5 1:5.6666667 2:1 3:1 4:0.76923077 5:1 9:0.2 11:0.002 12:0.0042 15:0.0033333333 16:0.003 17:0.2 19:1 20:1 
1 0:0.57142857 1:4.2857143 2:1 3:1 4:1 9:0.125 11:0.0035 12:0.004 15:0.0066666667 16:0.006 17:0.125 19:1 20:1 
1 0:1.3928571 1:4.8571429 2:1 3:0.76923077 4:0.5 5:1 9:0.014285714 10:0.028571429 11:0.0345 12:0.0438 13:0.028571429 14:0.025974026 15:0.016666667 16:0.068 17:0.12857143 19:1 20:0.72727273 
1 0:1.5483871 1:5.1182796 2:0.83333333 3:0.66666667 4:0.5 5:1 8:0.033333333 9:0.032786885 10:0.016393443 11:0.0605 12:0.081 13:0.040983607 14:0.02238806 15:0.023333333 16:0.12 17:0.18852459 19:1 20:0.69402985 
1 0:1.5444444 1:5.1222222 2:0.66666667 3:0.83333333 4:0.45454545 5:1 8:0.033333333 9:0.048387097 10:0.016129032 11:0.0615 12:0.0805 13:0.024193548 14:0.0073529412 15:0.03 16:0.122 17:0.19354839 19:1 20:0.66176471 
1 0:1.5463918 1:5.0927835 2:0.76923077 3:0.58823529 4:0.625 5:1 9:0.043859649 10:0.043859649 11:0.0565 12:0.0741 13:0.0087719298 14:0.0085470085 15:0.023333333 16:0.112 17:0.14035088 19:1 20:0.82905983 
1 0:1.2241379 1:4.3793103 2:0.90909091 3:0.76923077 4:0.5 5:1 9:0.013513514 10:0.040540541 11:0.0365 12:0.0434 13:0.013513514 14:0.06097561 15:0.016666667 16:0.072 17:0.12162162 19:1 20:0.70731707 
1 0:1.4237288 1:5.5254237 2:1 3:0.83333333 4:0.71428571 5:1 9:0.041666667 10:0.027777778 11:0.0355 12:0.0464 13:0.055555556 14:0.055555556 15:0.016666667 16:0.07 17:0.18055556 19:1 20:0.81944444 
1 0:1.5423729 1:5.2245763 2:0.66666667 3:0.90909091 4:0.18518519 5:1 9:0.063366337 10:0.043564356 11:0.252 12:0.2749 13:0.071287129 14:0.0097465887 15:0.15 16:0.503 17:0.17821782 19:1 20:0.46003899 
1 0:1.3858696 1:4.7608696 2:0.625 3:0.76923077 4:0.16949153 5:1 9:0.064 10:0.086 11:0.2495 12:0.2686 13:0.09 14:0.0079051383 15:0.16333333 16:0.498 17:0.202 19:1 20:0.36363636 
1 0:1.5559701 1:5.0559701 2:0.4 3:0.18518519 4:0.2173913 5:1 9:0.091089109 10:0.073267327 11:0.252 12:0.2722 13:0.047524752 14:0.0096153846 15:0.12333333 16:0.503 17:0.15841584 19:1 20:0.51538462 
1 0:1.7545455 1:5.7454545 2:0.66666667 3:0.34482759 4:0.3125 5:1 9:0.087040619 10:0.02901354 11:0.258 12:0.2949 13:0.01934236 14:0.0076481836 15:0.073333333 16:0.515 17:0.1450677 19:1 20:0.4206501 
1 0:1.6431095 1:5.6819788 2:0.90909091 3:0.25641026 4:0.26315789 5:1 9:0.063241107 10:0.039525692 11:0.2525 12:0.2855 13:0.063241107 14:0.017751479 15:0.093333333 16:0.504 17:0.15019763 19:1 20:0.5581854 
1 0:1.5333333 1:5.04 2:0.83333333 3:0.38461538 4:0.22222222 5:1 9:0.084848485 10:0.01010101 11:0.247 12:0.267 13:0.042424242 14:0.01002004 15:0.11666667 16:0.493 17:0.13939394 19:1 20:0.4509018 
1 0:1.6336207 1:5.1724138 2:0.43478261 3:0.26315789 4:0.28571429 5:1 9:0.093117409 10:0.070850202 11:0.2465 12:0.2657 13:0.046558704 14:0.01183432 15:0.086666667 16:0.492 17:0.15182186 19:1 20:0.45759369 
1 0:1.3785047 1:4.6214953 2:0.29411765 3:1 4:0.29411765 5:1 9:0.066536204 10:0.068493151 11:0.255 12:0.2577 13:0.066536204 14:0.0037174721 15:0.08 16:0.509 17:0.15851272 19:1 20:0.39776952 
1 0:1.6652542 1:5.2754237 2:0.41666667 3:0.2173913 4:0.29411765 5:1 9:0.097916667 10:0.077083333 11:0.2395 12:0.2791 13:0.03125 14:0.0040160643 15:0.09 16:0.478 17:0.13333333 19:1 20:0.47389558 
1 0:1.3372093 1:4.624031 2:0.29411765 3:0.38461538 4:0.22727273 5:1 9:0.06500956 10:0.059273423 11:0.261 12:0.2739 13:0.059273423 14:0.0054844607 15:0.12 16:0.521 17:0.17590822 19:1 20:0.47166362 
1 0:1.4590909 1:4.9045455 2:0.66666667 3:0.55555556 4:0.14925373 5:1 9:0.088709677 10:0.060483871 11:0.2475 12:0.263 13:0.064516129 14:0.005988024 15:0.19 16:0.494 17:0.1875 19:1 20:0.43912176 
1 0:1.3665339 1:4.5976096 2:0.34482759 3:0.41666667 4:0.33333333 5:1 9:0.050420168 10:0.056722689 11:0.2375 12:0.2435 13:0.092436975 14:0.014112903 15:0.073333333 16:0.474 17:0.17226891 19:1 20:0.50604839 
1 0:1.3242009 1:4.6027397 2:0.47619048 3:0.37037037 4:0.3125 5:1 9:0.046464646 10:0.062626263 11:0.247 12:0.2378 13:0.12929293 14:0.0098814229 15:0.076666667 16:0.493 17:0.23030303 19:1 20:0.43280632 
1 0:1.7765957 1:5.6985816 2:0.71428571 3:0.32258065 4:0.20833333 5:1 9:0.097916667 10:0.01875 11:0.2395 12:0.2926 13:0.010416667 14:0.014314928 15:0.12666667 16:0.478 17:0.15 19:1 20:0.57668712 
1 0:1.556 1:5.264 2:0.4 3:0.22222222 4:0.23255814 5:1 9:0.09437751 10:0.042168675 11:0.2485 12:0.2833 13:0.016064257 14:0.0077369439 15:0.10666667 16:0.496 17:0.11044177 19:1 20:0.48355899 
1 0:1.526971 1:4.9419087 2:0.66666667 3:0.20833333 4:0.20408163 5:1 9:0.068548387 10:0.050403226 11:0.2475 12:0.2686 13:0.052419355 14:0.0059642147 15:0.12333333 16:0.494 17:0.15725806 19:1 20:0.47912525 
1 0:1.3827751 1:4.6794258 2:0.58823529 3:0.26315789 4:0.25641026 5:1 9:0.074898785 10:0.048582996 11:0.2465 12:0.2517 13:0.056680162 14:0.003968254 15:0.096666667 16:0.492 17:0.14574899 19:1 20:0.41468254 
1 0:1.3385417 1:4.4635417 2:0.32258065 3:0.25641026 4:0.27777778 5:1 9:0.079268293 10:0.089430894 11:0.2455 12:0.249 13:0.06300813 14:0.021442495 15:0.086666667 16:0.49 17:0.18902439 19:1 20:0.37426901 
1 0:1.5021834 1:5.0611354 2:0.4 3:0.25641026 4:0.23809524 5:1 9:0.095833333 10:0.06875 11:0.2395 12:0.2627 13:0.047916667 14:0.018181818 15:0.10666667 16:0.478 17:0.16458333 19:1 20:0.46262626 
1 0:1.4669811 1:4.75 2:0.33333333 3:0.4 4:0.18181818 5:1 9:0.093439364 10:0.07554672 11:0.251 12:0.2576 13:0.079522863 14:0.013384321 15:0.15333333 16:0.501 17:0.16302187 19:1 20:0.40535373 
1 0:1.4694656 1:4.9198473 2:0.41666667 3:0.22222222 4:0.26315789 5:1 9:0.093495935 10:0.036585366 11:0.2455 12:0.274 13:0.046747967 14:0.0078125 15:0.093333333 16:0.49 17:0.16056911 19:1 20:0.51171875 
1 0:1.7164751 1:5.4827586 2:0.76923077 3:0.25 4:0.3125 5:1 9:0.083665339 10:0.069721116 11:0.2505 12:0.2885 13:0.037848606 14:0.0078125 15:0.073333333 16:0.5 17:0.13944223 19:1 20:0.50976563 
1 0:1.3681592 1:4.5273632 2:0.23809524 3:0.19230769 4:0.16949153 5:1 9:0.11198428 10:0.068762279 11:0.254 12:0.2684 13:0.055009823 14:0.0018484288 15:0.17 16:0.507 17:0.14734774 19:1 20:0.3715342 
1 0:1.3976834 1:4.8301158 2:0.52631579 3:0.5 4:0.28571429 5:1 9:0.057613169 10:0.069958848 11:0.2425 12:0.2536 13:0.0781893 14:0.0080482897 15:0.083333333 16:0.484 17:0.19135802 19:1 20:0.52112676 
1 0:1.4958678 1:5.0247934 2:0.76923077 3:0.55555556 4:0.25 5:1 9:0.058943089 10:0.058943089 11:0.2455 12:0.2585 13:0.079268293 14:0.0060606061 15:0.1 16:0.49 17:0.17886179 19:1 20:0.48888889 
1 0:1.5168539 1:5.1685393 2:0.47619048 3:0.2173913 4:0.25641026 5:1 9:0.072380952 10:0.078095238 11:0.262 12:0.2852 13:0.07047619 14:0.0018832392 15:0.096666667 16:0.523 17:0.16190476 19:1 20:0.50282486 
1 0:1.7537313 1:5.6119403 2:0.47619048 3:0.3125 4:0.26315789 5:1 9:0.10176125 10:0.052837573 11:0.255 12:0.2955 13:0.023483366 14:0.0057251908 15:0.083333333 16:0.509 17:0.15459883 19:1 20:0.51145038 
1 0:1.6748252 1:5.4825175 2:0.45454545 3:0.22222222 4:0.27777778 5:1 9:0.076481836 10:0.055449331 11:0.261 12:0.302 13:0.038240918 14:0.0037243948 15:0.096666667 16:0.521 17:0.16443595 19:1 20:0.53258845 
1 0:1.3464912 1:4.7236842 2:0.23809524 3:0.20408163 4:0.23255814 5:1 9:0.073619632 10:0.049079755 11:0.244 12:0.2601 13:0.071574642 14:0.0038387716 15:0.12 16:0.487 17:0.12883436 19:1 20:0.43761996 
1 0:1.4773663 1:4.9835391 2:0.45454545 3:0.52631579 4:0.19230769 5:1 9:0.082815735 10:0.053830228 11:0.241 12:0.2596 13:0.053830228 14:0.014141414 15:0.14 16:0.481 17:0.1573499 19:1 20:0.49090909 
1 0:1.4124514 1:4.8093385 2:0.41666667 3:0.25 4:0.20833333 5:1 9:0.072016461 10:0.049382716 11:0.2425 12:0.2583 13:0.061728395 14:0.0059760956 15:0.11333333 16:0.484 17:0.16049383 19:1 20:0.51195219 
1 0:1.0909091 1:4.4727273 2:1 3:0.90909091 4:0.5 5:1 9:0.015384615 10:0.046153846 11:0.032 12:0.0375 13:0.10769231 14:0.043478261 15:0.016666667 16:0.063 17:0.10769231 19:1 20:0.79710145 
1 0:1.3214286 1:5.2857143 2:0.90909091 3:1 4:0.52631579 5:1 8:0.1 11:0.0075 12:0.0248 15:0.0033333333 16:0.014 17:0.125 19:1 20:0.75675676 
1 0:1.2115385 1:4.5192308 2:1 3:0.76923077 4:0.5 5:1 9:0.015873016 10:0.031746032 11:0.031 12:0.037 13:0.031746032 14:0.057142857 15:0.013333333 16:0.061 17:0.14285714 19:1 20:0.74285714 
1 0:1.2244898 1:4.4489796 2:1 3:0.76923077 4:0.5 5:1 9:0.01754386 10:0.035087719 11:0.028 12:0.0337 13:0.052631579 14:0.03125 15:0.013333333 16:0.055 17:0.10526316 19:1 20:0.765625 
1 0:1.4492754 1:5.2318841 2:0.83333333 3:0.83333333 4:0.52631579 5:1 8:0.033333333 9:0.044444444 10:0.011111111 11:0.0445 12:0.06 13:0.077777778 14:0.020833333 15:0.02 16:0.088 17:0.21111111 19:1 20:0.71875 
1 0:1.122807 1:4.245614 2:0.90909091 3:0.76923077 4:0.5 5:1 9:0.02739726 10:0.01369863 11:0.036 12:0.0404 13:0.054794521 14:0.037037037 15:0.013333333 16:0.071 17:0.15068493 19:1 20:0.7037037 
1 0:1.0714286 1:4.8571429 2:1 3:1 4:0.71428571 5:1 9:0.066666667 10:0.066666667 11:0.007 12:0.0099 13:0.066666667 15:0.0033333333 16:0.013 17:0.2 19:1 20:0.875 
1 0:1.5274725 1:5.2417582 2:0.90909091 3:0.83333333 4:0.47619048 5:1 8:0.033333333 9:0.046511628 10:0.023255814 11:0.064 12:0.0827 13:0.046511628 14:0.022058824 15:0.026666667 16:0.127 17:0.21705426 19:1 20:0.66911765 
1 0:1.3018868 1:4.6792453 2:1 3:0.76923077 4:0.5 5:1 9:0.014705882 10:0.029411765 11:0.0335 12:0.0411 13:0.029411765 14:0.066666667 15:0.016666667 16:0.066 17:0.13235294 19:1 20:0.70666667 
1 0:1.4166667 1:5.75 2:1 3:0.83333333 4:0.90909091 5:1 9:0.076923077 11:0.006 12:0.0092 15:0.0066666667 16:0.011 17:0.15384615 19:1 20:0.92307692 
1 0:1.3928571 1:4.8571429 2:1 3:0.76923077 4:0.5 5:1 9:0.014285714 10:0.028571429 11:0.0345 12:0.0438 13:0.028571429 14:0.025974026 15:0.016666667 16:0.068 17:0.12857143 19:1 20:0.72727273 
1 0:1.5463918 1:5.0927835 2:0.76923077 3:0.58823529 4:0.625 5:1 9:0.043859649 10:0.043859649 11:0.0565 12:0.0741 13:0.0087719298 14:0.0085470085 15:0.023333333 16:0.112 17:0.14035088 19:1 20:0.82905983 
1 0:1.5463918 1:5.0927835 2:0.76923077 3:0.58823529 4:0.625 5:1 9:0.043859649 10:0.043859649 11:0.0565 12:0.0741 13:0.0087719298 14:0.0085470085 15:0.023333333 16:0.112 17:0.14035088 19:1 20:0.82905983 
1 0:1.2241379 1:4.3793103 2:0.90909091 3:0.76923077 4:0.5 5:1 9:0.013513514 10:0.040540541 11:0.0365 12:0.0434 13:0.013513514 14:0.06097561 15:0.016666667 16:0.072 17:0.12162162 19:1 20:0.70731707 
1 0:1.3061224 1:4.7142857 2:1 3:0.76923077 4:0.5 5:1 9:0.016666667 10:0.033333333 11:0.0295 12:0.0371 13:0.033333333 14:0.074626866 15:0.016666667 16:0.058 17:0.15 19:1 20:0.73134328 
1 0:0.83333333 1:4.6666667 2:1 3:0.90909091 4:0.90909091 11:0.0025 12:0.0035 15:0.0033333333 16:0.004 17:0.16666667 19:1 20:1 
0.7070504142333768 0:1.5595238 1:5.2857143 2:0.90909091 3:0.83333333 4:0.47619048 5:1 8:0.033333333 9:0.053097345 10:0.026548673 11:0.056 12:0.0733 13:0.044247788 14:0.024793388 15:0.026666667 16:0.111 17:0.2300885 19:1 20:0.69421488 
1 0:1.1486486 1:3.9459459 2:0.55555556 3:0.83333333 4:0.1754386 5:1 9:0.028846154 10:0.038461538 11:0.1035 12:0.1058 13:0.048076923 14:0.009009009 15:0.073333333 16:0.206 17:0.15865385 19:1 20:0.66666667 
1 0:0.92990654 1:4.4158879 2:0.45454545 3:0.90909091 4:0.71428571 5:1 7:0.03 9:0.049382716 10:0.049382716 11:0.1615 12:0.1704 13:0.074074074 14:0.0088495575 15:0.073333333 16:0.322 17:0.15432099 19:1 20:0.63126844 
1 0:1.0331492 1:4.2596685 2:0.83333333 3:1 4:0.47619048 5:1 9:0.05019305 10:0.0077220077 11:0.129 12:0.1266 13:0.061776062 14:0.007751938 15:0.016666667 16:0.257 17:0.14671815 19:1 20:0.70155039 
1 0:0.85714286 1:4.7142857 2:1 3:1 4:0.3030303 5:1 7:0.02 9:0.046632124 10:0.062176166 11:0.096 12:0.1043 13:0.051813472 14:0.010362694 15:0.04 16:0.191 17:0.10362694 19:1 20:0.68911917 
1 0:0.83636364 1:3.8545455 2:1 3:1 4:0.43478261 5:1 7:0.01 9:0.030769231 11:0.032 12:0.0342 13:0.030769231 15:0.036666667 16:0.063 17:0.076923077 19:1 20:0.82089552 
1 0:0.97546012 1:4.4969325 2:0.76923077 3:0.76923077 4:0.37037037 5:1 7:0.08 9:0.068376068 10:0.034188034 11:0.1165 12:0.1322 13:0.055555556 14:0.028225806 15:0.06 16:0.232 17:0.14529915 19:1 20:0.65725806 
0.9334385903853218 0:0.94615385 1:4.9846154 2:0.76923077 3:1 4:1 5:1 7:0.01 9:0.047619048 10:0.06547619 11:0.0835 12:0.0963 13:0.089285714 15:0.05 16:0.166 17:0.20833333 19:1 20:0.75581395 
1 0:0.99152542 1:5.2966102 2:1 3:1 4:0.15384615 5:1 7:0.01 9:0.019480519 10:0.038961039 11:0.0765 12:0.1018 13:0.071428571 14:0.018867925 15:0.05 16:0.152 17:0.21428571 19:1 20:0.74213836 
1 0:0.95833333 1:3.8229167 2:0.66666667 3:1 4:0.27027027 5:1 9:0.038167939 10:0.053435115 11:0.065 12:0.0677 13:0.030534351 14:0.0072992701 15:0.056666667 16:0.129 17:0.16030534 19:1 20:0.70072993 
1 0:1.1414141 1:4.489899 2:0.66666667 3:0.625 4:0.27027027 5:1 6:0.33333333 7:0.02 9:0.059210526 10:0.069078947 11:0.1515 12:0.1593 13:0.072368421 14:0.0094637224 15:0.08 16:0.302 17:0.18092105 19:1 20:0.62460568 
1 0:0.97122302 1:4.0791367 2:0.52631579 3:0.90909091 4:0.55555556 5:1 7:0.03 9:0.034313725 10:0.039215686 11:0.1015 12:0.1024 13:0.049019608 15:0.036666667 16:0.202 17:0.1372549 19:1 20:0.64953271 
1 0:0.91735537 1:5.5785124 2:1 3:1 4:0.23255814 5:1 7:0.05 9:0.043478261 10:0.016304348 11:0.0915 12:0.1256 13:0.032608696 14:0.0052356021 15:0.073333333 16:0.182 17:0.13043478 19:1 20:0.63350785 
1 0:0.97272727 1:3.7818182 2:1 3:0.83333333 4:0.3030303 5:1 7:0.04 9:0.049079755 10:0.036809816 11:0.081 12:0.0832 13:0.049079755 14:0.011494253 15:0.053333333 16:0.161 17:0.12269939 19:1 20:0.63218391 
1 0:0.89565217 1:4.0521739 2:0.5 3:0.90909091 4:0.47619048 5:1 7:0.04 9:0.02994012 10:0.035928144 11:0.083 12:0.0892 13:0.053892216 14:0.010989011 15:0.07 16:0.165 17:0.11976048 19:1 20:0.63186813 
1 0:0.8028169 1:5.4366197 2:1 3:1 4:0.58823529 5:1 7:0.06 9:0.06 10:0.03 11:0.0495 12:0.0683 13:0.04 15:0.013333333 16:0.098 17:0.12 19:1 20:0.6635514 
1 0:0.91666667 1:4.1111111 2:0.71428571 3:0.90909091 4:0.35714286 5:1 7:0.01 9:0.028169014 10:0.077464789 11:0.0705 12:0.0808 13:0.035211268 14:0.012820513 15:0.046666667 16:0.14 17:0.16197183 19:1 20:0.69230769 
1 0:0.96610169 1:4.1355932 2:1 3:0.90909091 4:0.29411765 5:1 7:0.07 9:0.039408867 10:0.034482759 11:0.101 12:0.11 13:0.034482759 15:0.063333333 16:0.201 17:0.1182266 19:1 20:0.57004831 
1 0:0.88652482 1:5.3191489 2:0.90909091 3:0.66666667 4:0.76923077 5:1 7:0.01 9:0.026200873 10:0.056768559 11:0.114 12:0.1219 13:0.048034934 15:0.053333333 16:0.227 17:0.10480349 19:1 20:0.61038961 
1 0:0.90540541 1:4.3378378 2:0.90909091 3:0.90909091 4:0.71428571 5:1 7:0.01 9:0.034883721 10:0.058139535 11:0.0425 12:0.0454 13:0.046511628 15:0.026666667 16:0.084 17:0.093023256 19:1 20:0.85057471 
1 0:0.86614173 1:4.6732283 2:0.43478261 3:0.66666667 4:0.55555556 5:1 7:0.11 9:0.023148148 10:0.020833333 11:0.2155 12:0.244 13:0.034722222 14:0.004454343 15:0.14666667 16:0.43 17:0.14583333 19:1 20:0.56570156 
1 0:1.0416667 1:4.2916667 2:0.76923077 3:0.55555556 4:0.37037037 5:1 7:0.05 9:0.036789298 10:0.045150502 11:0.2985 12:0.2814 13:0.048494983 14:0.0098360656 15:0.06 16:0.596 17:0.1638796 19:1 20:0.47213115 
1 0:0.81656805 1:4.7633136 2:0.66666667 3:0.83333333 4:0.34482759 5:1 7:0.06 9:0.057017544 10:0.021929825 11:0.1135 12:0.1353 13:0.035087719 14:0.0041493776 15:0.063333333 16:0.226 17:0.10526316 19:1 20:0.70124481 
1 0:0.8627451 1:4.1568627 2:1 3:1 4:0.66666667 5:1 7:0.01 9:0.070175439 10:0.035087719 11:0.028 12:0.0307 13:0.01754386 15:0.026666667 16:0.055 17:0.087719298 19:1 20:0.89473684 
1 0:0.93273543 1:4.5067265 2:1 3:1 4:0.29411765 5:1 7:0.01 9:0.035634744 10:0.071269488 11:0.224 12:0.2116 13:0.091314031 14:0.0089485459 15:0.08 16:0.447 17:0.18040089 19:1 20:0.49888143 
0.9244463093020907 0:1.2478632 1:4.2136752 2:0.5 3:0.47619048 4:0.625 5:1 7:0.04 9:0.040723982 10:0.081447964 11:0.11 12:0.1122 13:0.067873303 14:0.008583691 15:0.036666667 16:0.219 17:0.18552036 19:1 20:0.50214592 
1 0:0.90298507 1:3.6716418 2:0.41666667 3:0.90909091 4:0.32258065 5:1 9:0.059322034 10:0.050847458 11:0.1175 12:0.1084 13:0.038135593 14:0.012552301 15:0.09 16:0.234 17:0.12288136 19:1 20:0.56066946 
1 0:1.0330579 1:4.1239669 2:0.625 3:0.58823529 4:0.090909091 5:1 9:0.064124783 10:0.064124783 11:0.288 12:0.2671 13:0.065857886 14:0.0089766607 15:0.06 16:0.575 17:0.16811092 19:1 20:0.43447038 
1 0:0.89795918 1:4.0816327 2:0.90909091 3:0.25 4:0.083333333 5:1 9:0.035135135 10:0.048648649 11:0.1845 12:0.179 13:0.056756757 14:0.021021021 15:0.13 16:0.368 17:0.15405405 19:1 20:0.58858859 
1 0:0.87777778 1:3.7777778 2:0.76923077 3:0.71428571 4:0.14705882 5:1 9:0.059760956 10:0.015936255 11:0.125 12:0.1306 13:0.039840637 14:0.0038461538 15:0.22333333 16:0.249 17:0.11155378 19:1 20:0.69230769 
1 0:0.7311828 1:3.7741935 2:0.71428571 3:1 4:0.58823529 5:1 9:0.0546875 10:0.0390625 11:0.0635 12:0.0602 13:0.03125 15:0.036666667 16:0.126 17:0.1015625 19:1 20:0.73809524 
1 0:1.1405622 1:4.2248996 2:0.4 3:0.5 4:0.22222222 5:1 9:0.049306626 10:0.066255778 11:0.324 12:0.2882 13:0.11710324 14:0.015151515 15:0.2 16:0.647 17:0.19876733 19:1 20:0.41919192 
1 0:1.0490798 1:4.3619632 2:0.38461538 3:0.90909091 4:0.16129032 5:1 9:0.058608059 10:0.036630037 11:0.136 12:0.1436 13:0.047619048 14:0.0034965035 15:0.05 16:0.271 17:0.16483516 19:1 20:0.56993007 
1 0:1.0971429 1:4.4742857 2:0.76923077 3:0.76923077 4:0.52631579 5:1 9:0.086378738 10:0.056478405 11:0.15 12:0.1483 13:0.043189369 14:0.0099667774 15:0.053333333 16:0.299 17:0.2192691 19:1 20:0.58139535 
1 0:1.0166667 1:4.2375 2:0.34482759 3:0.5 4:0.27027027 5:1 9:0.048421053 10:0.031578947 11:0.237 12:0.2406 13:0.077894737 14:0.002016129 15:0.22666667 16:0.473 17:0.16210526 19:1 20:0.48387097 
1 0:0.83103448 1:4.037931 2:0.41666667 3:0.37037037 4:0.25641026 5:1 9:0.03826087 10:0.033043478 11:0.287 12:0.267 13:0.020869565 14:0.0067911715 15:0.25333333 16:0.573 17:0.12521739 19:1 20:0.49235993 
1 0:1.0073529 1:4.0294118 2:0.90909091 3:0.38461538 4:0.34482759 5:1 9:0.061904762 10:0.071428571 11:0.1045 12:0.1028 13:0.028571429 15:0.06 16:0.208 17:0.11428571 19:1 20:0.63849765 
1 0:0.76960784 1:3.9558824 2:0.76923077 3:1 4:0.3125 5:1 9:0.030690537 10:0.023017903 11:0.195 12:0.1794 13:0.05370844 15:0.21333333 16:0.389 17:0.14066496 19:1 20:0.5138539 
1 0:1.1022727 1:4.0909091 2:0.71428571 3:1 4:0.43478261 5:1 9:0.085470085 10:0.051282051 11:0.058 12:0.061 13:0.0085470085 15:0.03 16:0.115 17:0.12820513 19:1 20:0.78571429 
1 0:0.96 1:3.88 2:1 3:1 4:0.43478261 5:1 9:0.12068966 11:0.0285 12:0.0315 13:0.017241379 14:0.017241379 15:0.036666667 16:0.056 17:0.15517241 19:1 20:0.86206897 
1 0:0.99206349 1:4.0873016 2:1 3:0.43478261 4:0.45454545 5:1 9:0.049019608 10:0.039215686 11:0.1015 12:0.1008 13:0.044117647 14:0.0097560976 15:0.063333333 16:0.202 17:0.14215686 19:1 20:0.61463415 
1 0:0.94219653 1:4.0751445 2:0.83333333 3:0.76923077 4:0.3030303 5:1 9:0.05952381 10:0.029761905 11:0.1675 12:0.1512 13:0.086309524 14:0.006097561 15:0.04 16:0.334 17:0.16369048 19:1 20:0.52743902 
-0.4178610950188195 0:1.1828571 1:13.605714 2:0.58823529 3:0.3125 4:0.11363636 5:1 6:1 7:0.06 8:0.033333333 9:0.046065259 10:0.026871401 11:0.26 12:0.7276 13:0.024952015 14:0.0044313146 15:0.063333333 16:0.519 17:0.11900192 19:1 20:0.51698671 
-0.3852723292533151 0:1.3549323 1:6.3965184 2:0.17241379 3:0.034602076 4:0.014265335 5:1 6:1 7:7.82 8:4.5666667 9:0.039700954 10:0.014178912 11:1.939 12:4.9441 13:0.010054138 14:0.0026497865 15:0.38666667 16:3.877 17:0.097705594 19:1 20:0.15221552 
-0.2864630244556113 0:1.7837181 1:6.0443499 2:0.38461538 3:0.021413276 4:0.01607717 5:1 6:2 7:0.13 8:0.1 9:0.04339065 10:0.028882321 11:3.7215 12:4.2878 13:0.057092961 14:0.0076972418 15:1.2766667 16:7.442 17:0.17584632 19:1 20:0.211161 
-0.1967229417376694 0:2.2752044 1:7.136629 2:0.10752688 3:0.01459854 4:0.013869626 5:1 6:2 7:0.15 8:0.1 9:0.10213812 10:0.022498696 11:6.711 12:8.7879 13:0.022796692 14:0.011963303 15:1.9033333 16:13.421 17:0.1409521 19:1 20:0.18855046 
-0.2435757626961445 0:2.2635838 1:7.1298651 2:0.10638298 3:0.014556041 4:0.013888889 5:1 6:2 7:0.18 8:0.1 9:0.20080454 10:0.019388024 11:7.5815 12:9.034 13:0.020179372 14:0.012047313 15:1.9133333 16:15.162 17:0.12147191 19:1 20:0.18947138 
-0.4104415219139954 0:1.8090825 1:6.42076 2:0.2173913 3:0.044247788 4:0.036363636 5:1 6:1.6666667 7:0.17 8:0.1 9:0.066451613 10:0.017741935 11:1.5495 12:2.2929 13:0.0093548387 14:0.0046728972 15:0.44333333 16:3.098 17:0.13096774 19:1 20:0.3151285 
-1 0:1.469112 1:5.7741313 2:0.32258065 3:0.15384615 4:0.1 5:1 6:0.66666667 7:0.04 8:0.066666667 9:0.072515667 10:0.034019696 11:0.558 12:0.6996 13:0.019695613 14:0.0016750419 15:0.17 16:1.115 17:0.14234557 19:1 20:0.43383585 
-1 0:1.2380952 1:4.8095238 2:0.90909091 3:0.71428571 4:0.45454545 5:1 7:0.01 8:0.033333333 9:0.046153846 10:0.015384615 11:0.032 12:0.0493 15:0.01 16:0.063 17:0.076923077 19:1 20:0.75 
-1 0:1.4008264 1:5.1900826 2:0.47619048 3:0.38461538 4:0.15873016 5:1 7:0.04 9:0.1225 10:0.04 11:0.1995 12:0.2454 13:0.035 14:0.0047058824 15:0.076666667 16:0.398 17:0.1175 19:1 20:0.56941176 
-1 0:1.1492537 1:4.9701493 2:1 3:0.83333333 4:0.38461538 5:1 7:0.03 9:0.057142857 10:0.014285714 11:0.0345 12:0.0567 13:0.028571429 14:0.010989011 15:0.016666667 16:0.068 17:0.071428571 19:1 20:0.73626374 
-1 0:1.2849162 1:4.6480447 2:0.66666667 3:0.43478261 4:0.3125 5:1 7:0.04 9:0.072519084 10:0.06870229 11:0.1305 12:0.1553 13:0.057251908 15:0.036666667 16:0.26 17:0.13358779 19:1 20:0.60677966 
-1 0:1.3144105 1:4.9039301 2:0.55555556 3:0.43478261 4:0.24390244 5:1 7:0.07 9:0.071216617 10:0.056379822 11:0.168 12:0.2172 13:0.059347181 14:0.0076726343 15:0.056666667 16:0.335 17:0.12462908 19:1 20:0.58567775 
-1 0:1.4632035 1:5.1731602 2:0.4 3:0.4 4:0.32258065 5:1 7:0.03 9:0.083573487 10:0.043227666 11:0.173 12:0.2248 13:0.025936599 15:0.036666667 16:0.345 17:0.12680115 19:1 20:0.58186398 
-1 0:1.2906977 1:4.9011628 2:0.52631579 3:0.29411765 4:0.3125 5:1 7:0.02 9:0.05785124 10:0.082644628 11:0.1205 12:0.1562 13:0.02892562 14:0.0071174377 15:0.036666667 16:0.24 17:0.11983471 19:1 20:0.61209964 
-1 0:1.1180124 1:5.0869565 2:0.66666667 3:0.71428571 4:0.26315789 5:1 7:0.04 9:0.12315271 10:0.024630542 11:0.101 12:0.1758 13:0.0098522167 15:0.033333333 16:0.201 17:0.088669951 19:1 20:0.61923077 
-1 0:1.2 1:4.826087 2:0.71428571 3:0.5 4:0.37037037 5:1 7:0.03 9:0.10948905 10:0.058394161 11:0.068 12:0.0992 13:0.0072992701 14:0.0061728395 15:0.023333333 16:0.135 17:0.094890511 19:1 20:0.70987654 
-1 0:1.0491803 1:4.4467213 2:0.5 3:0.45454545 4:0.15873016 5:1 6:0.33333333 7:0.06 8:0.033333333 9:0.045070423 10:0.028169014 11:0.177 12:0.2526 13:0.025352113 14:0.0021881838 15:0.053333333 16:0.353 17:0.095774648 19:1 20:0.53391685 
-1 0:1.0818182 1:4.6590909 2:0.83333333 3:0.5 4:0.18181818 5:1 6:0.33333333 7:0.09 8:0.033333333 9:0.054380665 10:0.018126888 11:0.165 12:0.2392 13:0.027190332 14:0.0096385542 15:0.053333333 16:0.329 17:0.10574018 19:1 20:0.53012048 
-1 0:1.1 1:4.6904762 2:0.76923077 3:0.35714286 4:0.16129032 5:1 6:0.66666667 7:0.06 8:0.033333333 9:0.058252427 10:0.03236246 11:0.154 12:0.2304 13:0.003236246 14:0.0024630542 15:0.046666667 16:0.307 17:0.080906149 19:1 20:0.51724138 
-1 0:1.0963303 1:4.8027523 2:0.66666667 3:0.4 4:0.17241379 5:1 6:0.33333333 7:0.08 8:0.033333333 9:0.061946903 10:0.017699115 11:0.169 12:0.2517 13:0.026548673 14:0.0092165899 15:0.05 16:0.337 17:0.091445428 19:1 20:0.50230415 
-1 0:0.97297297 1:4.4702703 2:0.90909091 3:0.5 4:0.18867925 5:1 6:0.33333333 7:0.07 8:0.033333333 9:0.06741573 10:0.014981273 11:0.133 12:0.2073 13:0.0074906367 14:0.0028653295 15:0.04 16:0.265 17:0.052434457 19:1 20:0.53008596 
-1 0:1.3471338 1:5.0764331 2:0.45454545 3:0.29411765 4:0.13888889 5:1 6:0.33333333 7:0.06 8:0.033333333 9:0.11153119 10:0.030245747 11:0.264 12:0.3712 13:0.011342155 14:0.0048543689 15:0.1 16:0.527 17:0.11909263 19:1 20:0.50809061 
-0.3807142354203435 0:0.74472574 1:20.835443 2:0.55555556 3:0.27027027 4:0.056818182 5:1 6:2.3333333 7:0.2 8:0.23333333 9:0.057575758 10:0.015151515 11:0.3295 12:1.3782 13:0.012121212 14:0.0049603175 15:0.06 16:0.658 17:0.060606061 19:1 20:0.4702381 
-1 0:1.1375 1:4.6541667 2:0.76923077 3:0.33333333 4:0.17857143 5:1 6:0.33333333 7:0.07 8:0.033333333 9:0.077747989 10:0.029490617 11:0.186 12:0.2575 13:0.040214477 14:0.0065217391 15:0.053333333 16:0.371 17:0.10187668 19:1 20:0.52173913 
-0.6692061080880144 0:1.5778612 1:5.8330206 2:0.66666667 3:0.16949153 4:0.084745763 5:1 6:1.3333333 7:0.13 8:0.033333333 9:0.057932264 10:0.049910873 11:0.5605 12:0.7829 13:0.032085561 14:0.013385827 15:0.15333333 16:1.12 17:0.13814617 19:1 20:0.41968504 
-1 0:1.3266332 1:5.0502513 2:0.66666667 3:0.34482759 4:0.18181818 5:1 7:0.05 8:0.033333333 9:0.09122807 10:0.049122807 11:0.142 12:0.1967 13:0.038596491 14:0.0093457944 15:0.053333333 16:0.283 17:0.12280702 19:1 20:0.61993769 
-1 0:1 1:5.0181818 2:1 3:0.71428571 4:0.25641026 5:1 7:0.05 8:0.033333333 9:0.063636364 10:0.0090909091 11:0.0545 12:0.0965 13:0.045454545 14:0.012820513 15:0.023333333 16:0.108 17:0.10909091 19:1 20:0.70512821 
-1 0:1.1637931 1:5.1810345 2:0.83333333 3:0.58823529 4:0.33333333 5:1 7:0.05 8:0.033333333 9:0.03968254 10:0.023809524 11:0.0625 12:0.1039 13:0.023809524 15:0.016666667 16:0.124 17:0.11904762 19:1 20:0.71165644 
-1 0:1.057377 1:4.4098361 2:0.76923077 3:0.66666667 4:0.29411765 5:1 7:0.07 9:0.055555556 10:0.020833333 11:0.0715 12:0.1007 13:0.055555556 15:0.026666667 16:0.142 17:0.10416667 19:1 20:0.68926554 
-1 0:1.016 1:4.728 2:0.76923077 3:0.71428571 4:0.23255814 5:1 7:0.06 8:0.033333333 9:0.05785124 10:0.033057851 11:0.06 12:0.1057 13:0.0082644628 15:0.026666667 16:0.119 17:0.11570248 19:1 20:0.70621469 
-1 0:1.2235294 1:4.9294118 2:0.58823529 3:0.47619048 4:0.23809524 5:1 7:0.05 9:0.076530612 10:0.040816327 11:0.0975 12:0.1412 13:0.035714286 14:0.0041322314 15:0.033333333 16:0.194 17:0.12244898 19:1 20:0.70247934 
-1 0:1.4042553 1:5.1861702 2:0.58823529 3:0.47619048 4:0.27777778 5:1 7:0.01 8:0.033333333 9:0.050167224 10:0.030100334 11:0.149 12:0.1886 13:0.053511706 14:0.015337423 15:0.07 16:0.297 17:0.15719064 19:1 20:0.57668712 
-1 0:0.94680851 1:4.8829787 2:0.90909091 3:0.83333333 4:0.25 5:1 7:0.06 9:0.048192771 10:0.012048193 11:0.041 12:0.0791 13:0.012048193 15:0.016666667 16:0.081 17:0.072289157 19:1 20:0.74015748 
-1 0:1.2389937 1:4.8113208 2:0.76923077 3:0.52631579 4:0.27777778 5:1 7:0.02 8:0.033333333 9:0.074418605 10:0.041860465 11:0.107 12:0.1469 13:0.03255814 14:0.012048193 15:0.036666667 16:0.213 17:0.13023256 19:1 20:0.63855422 
-1 0:1.377551 1:5.0034014 2:0.41666667 3:0.34482759 4:0.21276596 5:1 7:0.07 9:0.10625 10:0.047916667 11:0.2395 12:0.2815 13:0.054166667 14:0.0058479532 15:0.076666667 16:0.478 17:0.14583333 19:1 20:0.57309942 
-1 0:1.2994012 1:4.7664671 2:0.58823529 3:0.52631579 4:0.25 5:1 7:0.03 8:0.033333333 9:0.13888889 10:0.03968254 11:0.1255 12:0.1581 13:0.031746032 14:0.011029412 15:0.05 16:0.25 17:0.13095238 19:1 20:0.61397059 
-1 0:1.3373016 1:5.0992063 2:0.41666667 3:0.25 4:0.26315789 5:1 7:0.03 9:0.11688312 10:0.062337662 11:0.192 12:0.2339 13:0.031168831 14:0.0072639225 15:0.063333333 16:0.383 17:0.13246753 19:1 20:0.61016949 
-1 0:1.2670455 1:5.0284091 2:0.83333333 3:0.625 4:0.27777778 5:1 7:0.03 9:0.057268722 10:0.039647577 11:0.113 12:0.1641 13:0.022026432 15:0.043333333 16:0.225 17:0.15859031 19:1 20:0.66165414 
-1 0:1.3636364 1:5.0160428 2:0.625 3:0.52631579 4:0.25 5:1 7:0.03 8:0.033333333 9:0.10671937 10:0.04743083 11:0.126 12:0.1719 13:0.019762846 14:0.0034965035 15:0.046666667 16:0.251 17:0.12252964 19:1 20:0.65384615 
-1 0:1.3956044 1:5.1208791 2:0.66666667 3:0.58823529 4:0.25 5:1 7:0.04 8:0.033333333 9:0.10588235 10:0.043137255 11:0.127 12:0.172 13:0.023529412 14:0.020833333 15:0.05 16:0.253 17:0.12941176 19:1 20:0.63194444 
-1 0:1.2043011 1:4.9086022 2:0.83333333 3:0.58823529 4:0.2173913 5:1 7:0.04 8:0.033333333 9:0.15355805 10:0.041198502 11:0.133 12:0.1822 13:0.026217228 15:0.04 16:0.265 17:0.14606742 19:1 20:0.62837838 
-1 0:1.1967213 1:4.8770492 2:0.83333333 3:0.58823529 4:0.28571429 5:1 7:0.04 9:0.056 10:0.016 11:0.062 12:0.1021 13:0.016 14:0.01754386 15:0.02 16:0.123 17:0.112 19:1 20:0.71345029 
-1 0:1.0277778 1:4.7314815 2:0.83333333 3:0.71428571 4:0.20408163 5:1 7:0.05 9:0.066037736 10:0.028301887 11:0.0525 12:0.0966 13:0.047169811 14:0.0064935065 15:0.016666667 16:0.104 17:0.13207547 19:1 20:0.7012987 
-1 0:1.3703704 1:5.3037037 2:0.76923077 3:0.625 4:0.28571429 5:1 7:0.04 9:0.091463415 10:0.042682927 11:0.0815 12:0.1211 13:0.036585366 15:0.03 16:0.162 17:0.12804878 19:1 20:0.68181818 
-1 0:1.3555556 1:5.2722222 2:0.52631579 3:0.66666667 4:0.25 5:1 7:0.05 9:0.042801556 10:0.023346304 11:0.128 12:0.1737 13:0.019455253 14:0.01010101 15:0.04 16:0.255 17:0.15953307 19:1 20:0.60606061 
-1 0:1.5059289 1:5.2134387 2:0.33333333 3:0.25 4:0.22727273 5:1 7:0.02 9:0.061023622 10:0.051181102 11:0.2535 12:0.3006 13:0.033464567 14:0.016513761 15:0.076666667 16:0.506 17:0.15748031 19:1 20:0.46422018 
-1 0:1.2015504 1:4.8914729 2:0.76923077 3:0.52631579 4:0.29411765 5:1 7:0.04 8:0.033333333 9:0.079470199 10:0.0066225166 11:0.075 12:0.1141 13:0.039735099 14:0.015706806 15:0.02 16:0.149 17:0.1192053 19:1 20:0.67539267 
-1 0:1.2704918 1:5.0163934 2:0.71428571 3:0.66666667 4:0.27777778 5:1 7:0.03 9:0.072847682 11:0.075 12:0.1143 13:0.01986755 14:0.0051546392 15:0.026666667 16:0.149 17:0.13907285 19:1 20:0.62886598 
-1 0:1.3529412 1:5.0311419 2:0.1754386 3:0.27027027 4:0.12195122 5:1 7:0.04 9:0.13286713 10:0.024475524 11:0.2855 12:0.3601 13:0.017482517 14:0.0031847134 15:0.11 16:0.57 17:0.10314685 19:1 20:0.46019108 
-1 0:1.1044776 1:4.9477612 2:0.24390244 3:0.76923077 4:0.23255814 5:1 7:0.02 9:0.097222222 10:0.032407407 11:0.1075 12:0.1639 13:0.013888889 15:0.02 16:0.214 17:0.083333333 19:1 20:0.5254902 
-1 0:1.1666667 1:4.9705882 2:0.83333333 3:0.625 4:0.38461538 5:1 7:0.04 9:0.1023622 10:0.031496063 11:0.063 12:0.0891 13:0.023622047 15:0.016666667 16:0.125 17:0.12598425 19:1 20:0.67549669 
-1 0:1.2966667 1:4.98 2:0.34482759 3:0.32258065 4:0.16393443 5:1 7:0.07 8:0.033333333 9:0.089641434 10:0.045816733 11:0.2505 12:0.3191 13:0.045816733 14:0.0035714286 15:0.083333333 16:0.5 17:0.15139442 19:1 20:0.53571429 
-1 0:1.355102 1:5.244898 2:0.43478261 3:0.3030303 4:0.18181818 5:1 7:0.04 9:0.10487805 10:0.019512195 11:0.2045 12:0.2544 13:0.024390244 14:0.0045045045 15:0.07 16:0.408 17:0.14146341 19:1 20:0.5518018 
-1 0:1.4801762 1:5.2026432 2:0.625 3:0.43478261 4:0.3125 5:1 7:0.02 9:0.063186813 10:0.03021978 11:0.1815 12:0.2221 13:0.019230769 15:0.056666667 16:0.362 17:0.16483516 19:1 20:0.57468354 
-1 0:1.2083333 1:5.2083333 2:0.90909091 3:0.76923077 4:0.37037037 5:1 7:0.03 8:0.033333333 9:0.058823529 10:0.016806723 11:0.059 12:0.094 13:0.025210084 14:0.0068027211 15:0.02 16:0.117 17:0.11764706 19:1 20:0.65306122 
-1 0:1.2727273 1:5.214876 2:0.76923077 3:0.5 4:0.26315789 5:1 7:0.05 8:0.033333333 9:0.12666667 10:0.046666667 11:0.0745 12:0.1161 13:0.02 14:0.011111111 15:0.026666667 16:0.148 17:0.073333333 19:1 20:0.67222222 
-1 0:1.3072626 1:5.0446927 2:0.66666667 3:0.52631579 4:0.23809524 5:1 7:0.04 9:0.052401747 10:0.056768559 11:0.114 12:0.1642 13:0.061135371 14:0.011111111 15:0.046666667 16:0.227 17:0.14847162 19:1 20:0.66296296 
-1 0:1.3565574 1:5.2295082 2:0.52631579 3:0.43478261 4:0.1754386 5:1 7:0.05 9:0.11452514 10:0.058659218 11:0.1785 12:0.2341 13:0.041899441 14:0.012755102 15:0.063333333 16:0.356 17:0.13687151 19:1 20:0.62244898 
-1 0:1.2524272 1:5.0291262 2:0.83333333 3:0.625 4:0.32258065 5:1 7:0.02 9:0.10144928 10:0.043478261 11:0.0685 12:0.0909 13:0.057971014 14:0.0063291139 15:0.02 16:0.136 17:0.086956522 19:1 20:0.65189873 
-1 0:1.24 1:4.952 2:0.83333333 3:0.58823529 4:0.28571429 5:1 7:0.03 8:0.033333333 9:0.12432432 10:0.032432432 11:0.092 12:0.1219 13:0.048648649 14:0.0049261084 15:0.036666667 16:0.183 17:0.081081081 19:1 20:0.61576355 
-1 0:1.2608696 1:4.9826087 2:0.71428571 3:0.55555556 4:0.32258065 5:1 7:0.03 9:0.064 10:0.024 11:0.062 12:0.0909 13:0.04 14:0.0065359477 15:0.02 16:0.123 17:0.16 19:1 20:0.75163399 
-1 0:1.1971831 1:5.2746479 2:0.83333333 3:0.52631579 4:0.25 5:1 6:0.33333333 7:0.03 9:0.056872038 10:0.023696682 11:0.105 12:0.1446 13:0.023696682 14:0.0040322581 15:0.04 16:0.209 17:0.10900474 19:1 20:0.57258065 
-1 0:1.3376623 1:5.3636364 2:0.83333333 3:0.47619048 4:0.26315789 5:1 7:0.02 8:0.033333333 9:0.18326693 10:0.027888446 11:0.125 12:0.1665 13:0.043824701 14:0.0037593985 15:0.03 16:0.249 17:0.091633466 19:1 20:0.57894737 
-1 0:1.0941704 1:4.7443946 2:0.5 3:0.3030303 4:0.18181818 5:1 7:0.04 9:0.099678457 10:0.051446945 11:0.155 12:0.203 13:0.028938907 14:0.011235955 15:0.05 16:0.309 17:0.12861736 19:1 20:0.62640449 
-1 0:1.212963 1:4.9537037 2:0.76923077 3:0.58823529 4:0.4 5:1 7:0.02 9:0.12781955 10:0.030075188 11:0.066 12:0.0947 13:0.007518797 15:0.016666667 16:0.131 17:0.13533835 19:1 20:0.67080745 
-1 0:1.1658768 1:4.9905213 2:0.52631579 3:0.34482759 4:0.24390244 5:1 7:0.04 9:0.11510791 10:0.050359712 11:0.1385 12:0.2035 13:0.028776978 14:0.0029498525 15:0.043333333 16:0.276 17:0.1294964 19:1 20:0.62241888 
-1 0:1.1428571 1:4.9642857 2:0.90909091 3:0.90909091 4:0.3030303 5:1 7:0.04 9:0.098591549 10:0.014084507 11:0.035 12:0.0717 13:0.014084507 15:0.01 16:0.069 17:0.12676056 19:1 20:0.75 
-1 0:1.1694915 1:4.5508475 2:0.58823529 3:0.71428571 4:0.33333333 5:1 7:0.02 9:0.099337748 10:0.026490066 11:0.075 12:0.1051 13:0.066225166 15:0.016666667 16:0.149 17:0.17218543 19:1 20:0.64130435 
-1 0:1.0291262 1:4.7572816 2:0.90909091 3:0.76923077 4:0.33333333 5:1 7:0.02 8:0.033333333 9:0.072164948 10:0.010309278 11:0.048 12:0.0795 13:0.020618557 14:0.0075757576 15:0.016666667 16:0.095 17:0.092783505 19:1 20:0.78030303 
-1 0:1.1719198 1:5.1117479 2:0.11764706 3:0.34482759 4:0.096153846 5:1 7:0.05 9:0.09223301 10:0.029126214 11:0.3085 12:0.4591 13:0.027508091 14:0.0026455026 15:0.10666667 16:0.616 17:0.11326861 19:1 20:0.46164021 
-1 0:1.3587444 1:5.2286996 2:0.35714286 3:0.35714286 4:0.23809524 5:1 7:0.04 9:0.12903226 10:0.058651026 11:0.17 12:0.2133 13:0.041055718 14:0.010899183 15:0.066666667 16:0.339 17:0.11143695 19:1 20:0.60762943 
-1 0:1.2266667 1:4.64 2:0.71428571 3:0.55555556 4:0.3030303 5:1 7:0.05 9:0.12562814 10:0.020100503 11:0.099 12:0.1205 13:0.030150754 14:0.0089686099 15:0.03 16:0.197 17:0.15577889 19:1 20:0.67264574 
-1 0:1.2268908 1:4.5378151 2:0.71428571 3:0.76923077 4:0.32258065 5:1 7:0.02 9:0.090225564 10:0.022556391 11:0.066 12:0.0894 13:0.022556391 14:0.0061728395 15:0.02 16:0.131 17:0.10526316 19:1 20:0.7345679 
-1 0:0.81549815 1:4.1402214 2:0.18867925 3:0.52631579 4:0.040816327 5:1 7:0.06 9:0.046376812 10:0.010144928 11:0.3445 12:0.4784 13:0.0086956522 14:0.0033670034 15:0.03 16:0.688 17:0.039130435 19:1 20:0.30415264 
-1 0:1.3793103 1:5.137931 2:0.625 3:0.45454545 4:0.29411765 5:1 7:0.04 9:0.14361702 10:0.04787234 11:0.0935 12:0.1278 13:0.021276596 14:0.0096153846 15:0.036666667 16:0.186 17:0.11170213 19:1 20:0.69711538 
-1 0:1.2121212 1:4.9393939 2:0.83333333 3:0.71428571 4:0.3030303 5:1 7:0.03 9:0.10714286 10:0.035714286 11:0.0555 12:0.0851 14:0.0069444444 15:0.016666667 16:0.11 17:0.0625 19:1 20:0.6875 
-1 0:1.2335766 1:4.9927007 2:0.66666667 3:0.55555556 4:0.3125 5:1 7:0.03 9:0.10106383 10:0.053191489 11:0.0935 12:0.1248 13:0.031914894 14:0.0046948357 15:0.03 16:0.186 17:0.13829787 19:1 20:0.64319249 
-1 0:1.1186441 1:5.1016949 2:0.76923077 3:0.83333333 4:0.43478261 5:1 7:0.03 9:0.10714286 10:0.053571429 11:0.0275 12:0.0599 13:0.017857143 14:0.012345679 15:0.01 16:0.054 17:0.053571429 19:1 20:0.72839506 
-1 0:1.1705426 1:4.7054264 2:0.625 3:0.625 4:0.24390244 5:1 7:0.01 8:0.033333333 9:0.057324841 10:0.031847134 11:0.078 12:0.11 13:0.0063694268 14:0.01010101 15:0.033333333 16:0.155 17:0.14649682 19:1 20:0.65151515 
-1 0:1.1573034 1:4.5955056 2:0.83333333 3:0.71428571 4:0.41666667 5:1 7:0.01 9:0.02247191 10:0.056179775 11:0.044 12:0.0666 13:0.04494382 15:0.013333333 16:0.087 17:0.12359551 19:1 20:0.76068376 
-1 0:1.208 1:4.688 2:0.71428571 3:0.55555556 4:0.33333333 5:1 7:0.02 9:0.062068966 10:0.062068966 11:0.072 12:0.1007 13:0.055172414 15:0.016666667 16:0.143 17:0.14482759 19:1 20:0.70224719 
-1 0:1.0617284 1:4.7037037 2:0.90909091 3:0.83333333 4:0.27777778 5:1 7:0.03 9:0.013333333 10:0.013333333 11:0.037 12:0.07 13:0.013333333 14:0.017391304 15:0.016666667 16:0.073 17:0.16 19:1 20:0.70434783 
-1 0:0.9137931 1:4.137931 2:0.83333333 3:0.83333333 4:0.52631579 5:1 7:0.01 11:0.022 12:0.0368 15:0.0066666667 16:0.043 17:0.088888889 19:1 20:0.84057971 
-1 0:1.1044776 1:4.4029851 2:0.76923077 3:0.83333333 4:0.43478261 5:1 7:0.01 9:0.01369863 11:0.036 12:0.0536 14:0.041237113 15:0.01 16:0.071 17:0.15068493 19:1 20:0.69072165 
-1 0:1.3416149 1:5.0496894 2:0.41666667 3:0.47619048 4:0.3125 5:1 7:0.04 9:0.089361702 10:0.042553191 11:0.117 12:0.1563 13:0.034042553 14:0.0036764706 15:0.03 16:0.233 17:0.14468085 19:1 20:0.59191176 
-1 0:1.2269939 1:5.0122699 2:0.55555556 3:0.55555556 4:0.24390244 5:1 7:0.04 8:0.033333333 9:0.093023256 10:0.037209302 11:0.107 12:0.1471 13:0.027906977 15:0.03 16:0.213 17:0.13023256 19:1 20:0.65725806 
-1 0:1.1854839 1:4.6048387 2:0.625 3:0.66666667 4:0.32258065 5:1 7:0.03 9:0.059602649 10:0.039735099 11:0.075 12:0.0997 13:0.039735099 14:0.02247191 15:0.02 16:0.149 17:0.15231788 19:1 20:0.69662921 
-1 0:1.1282051 1:4.6410256 2:0.66666667 3:0.71428571 4:0.25 5:1 7:0.05 9:0.0076923077 10:0.038461538 11:0.0645 12:0.1021 13:0.053846154 14:0.017142857 15:0.013333333 16:0.128 17:0.14615385 19:1 20:0.66857143 
-1 0:1.1649485 1:4.6597938 2:0.90909091 3:0.625 4:0.28571429 5:1 7:0.02 9:0.10416667 10:0.041666667 11:0.0475 12:0.0728 13:0.041666667 15:0.01 16:0.094 17:0.10416667 19:1 20:0.75193798 
-1 0:1 1:4.5222222 2:0.83333333 3:0.83333333 4:0.25641026 5:1 7:0.04 9:0.056818182 10:0.022727273 11:0.0435 12:0.08 13:0.045454545 15:0.013333333 16:0.086 17:0.11363636 19:1 20:0.67669173 
-1 0:0.90540541 1:4.472973 2:0.71428571 3:0.90909091 4:0.20408163 5:1 7:0.05 9:0.034482759 10:0.017241379 11:0.0285 12:0.0664 13:0.017241379 14:0.016806723 15:0.013333333 16:0.056 17:0.10344828 19:1 20:0.62184874 
-1 0:1.1132075 1:4.6603774 2:0.90909091 3:0.625 4:0.23809524 5:1 7:0.04 9:0.066666667 10:0.038095238 11:0.052 12:0.0896 13:0.047619048 14:0.0065789474 15:0.013333333 16:0.103 17:0.11428571 19:1 20:0.69736842 
-1 0:1.2222222 1:4.9703704 2:0.625 3:0.58823529 4:0.23809524 5:1 7:0.06 9:0.041176471 10:0.035294118 11:0.0845 12:0.122 13:0.047058824 14:0.004784689 15:0.026666667 16:0.168 17:0.15294118 19:1 20:0.64593301 
-1 0:1.1558442 1:4.9155844 2:0.625 3:0.55555556 4:0.21276596 5:1 7:0.06 8:0.033333333 9:0.10679612 10:0.024271845 11:0.1025 12:0.1422 13:0.04368932 14:0.0084388186 15:0.033333333 16:0.204 17:0.13592233 19:1 20:0.64978903 
-1 0:0.97737557 1:4.361991 2:0.52631579 3:0.58823529 4:0.081967213 5:1 7:0.21 9:0.059808612 10:0.009569378 11:0.2085 12:0.3065 13:0.014354067 14:0.0073800738 15:0.043333333 16:0.416 17:0.076555024 19:1 20:0.40774908 
-1 0:1.0711974 1:4.776699 2:0.32258065 3:0.27777778 4:0.071428571 5:1 7:0.1 9:0.15396114 10:0.022421525 11:0.334 12:0.4468 13:0.02690583 15:0.076666667 16:0.667 17:0.094170404 19:1 20:0.40927152 
-1 0:1.1654135 1:4.9473684 2:0.76923077 3:0.58823529 4:0.33333333 5:1 7:0.03 8:0.033333333 9:0.1025641 10:0.057692308 11:0.0775 12:0.11 13:0.0064102564 15:0.026666667 16:0.154 17:0.13461538 19:1 20:0.70744681 
-1 0:0.71538462 1:4.5 2:0.90909091 3:0.76923077 4:0.11235955 5:1 7:0.04 9:0.076086957 11:0.0915 12:0.1574 13:0.0054347826 15:0.013333333 16:0.182 17:0.027173913 19:1 20:0.48327138 
-1 0:1.1840491 1:4.9509202 2:0.625 3:0.5 4:0.27027027 5:1 7:0.04 8:0.066666667 9:0.094594595 10:0.045045045 11:0.1105 12:0.149 13:0.045045045 14:0.015810277 15:0.043333333 16:0.22 17:0.15765766 19:1 20:0.64426877 
-1 0:1.0327869 1:4.4590164 2:1 3:0.83333333 4:0.52631579 5:1 7:0.01 10:0.054545455 11:0.027 12:0.044 13:0.018181818 15:0.013333333 16:0.053 17:0.14545455 19:1 20:0.79220779 
-1 0:1.1162791 1:5.1511628 2:0.83333333 3:0.71428571 4:0.27027027 5:1 7:0.02 9:0.16853933 10:0.02247191 11:0.044 12:0.0741 13:0.02247191 15:0.023333333 16:0.087 17:0.1011236 19:1 20:0.76785714 
-1 0:1.1092437 1:4.697479 2:0.90909091 3:0.71428571 4:0.28571429 5:1 7:0.03 8:0.033333333 9:0.065693431 10:0.04379562 11:0.068 12:0.1054 13:0.03649635 15:0.023333333 16:0.135 17:0.10948905 19:1 20:0.65745856 
-1 0:1.3380952 1:4.9761905 2:0.41666667 3:0.35714286 4:0.21276596 5:1 7:0.03 9:0.083333333 10:0.027777778 11:0.1615 12:0.2078 13:0.049382716 14:0.0054054054 15:0.076666667 16:0.322 17:0.14197531 19:1 20:0.56756757 
-1 0:1.256338 1:5.015493 2:0.014492754 3:0.13513514 4:0.023148148 5:1 7:0.44 8:0.066666667 9:0.06455542 10:0.020097442 11:0.8205 12:1.2654 13:0.020097442 14:0.0013049152 15:0.20333333 16:1.64 17:0.072472594 19:1 20:0.30882993 
-1 0:1.2898551 1:4.9057971 2:0.35714286 3:0.41666667 4:0.19230769 5:1 7:0.04 8:0.033333333 9:0.13370998 10:0.037664783 11:0.265 12:0.3162 13:0.048964218 14:0.0053763441 15:0.10333333 16:0.529 17:0.1393597 19:1 20:0.49462366 
-1 0:1.3207207 1:5.0612613 2:0.23255814 3:0.16949153 4:0.050761421 5:1 7:0.07 9:0.081588448 10:0.041155235 11:0.692 12:0.8608 13:0.028158845 14:0.0052015605 15:0.16333333 16:1.383 17:0.16245487 19:1 20:0.36085826 
-1 0:0.95283019 1:4.0660377 2:0.625 3:0.43478261 4:0.06993007 5:1 7:0.02 9:0.079913607 10:0.028077754 11:0.231 12:0.299 13:0.012958963 14:0.0067453626 15:0.033333333 16:0.461 17:0.18358531 19:1 20:0.35750422 
-1 0:1.1564626 1:4.8979592 2:0.83333333 3:0.58823529 4:0.24390244 5:1 7:0.04 9:0.06779661 10:0.033898305 11:0.088 12:0.1367 13:0.050847458 15:0.033333333 16:0.175 17:0.13559322 19:1 20:0.65919283 
-1 0:0.87850467 1:4.0654206 2:0.76923077 3:0.90909091 4:0.27777778 5:1 7:0.01 9:0.069767442 10:0.015503876 11:0.064 12:0.0945 13:0.007751938 15:0.013333333 16:0.127 17:0.1627907 19:1 20:0.64848485 
-1 0:1.0242424 1:4.3272727 2:0.66666667 3:0.58823529 4:0.20833333 5:1 7:0.04 9:0.14457831 10:0.024096386 11:0.124 12:0.1561 13:0.02811245 14:0.0036231884 15:0.03 16:0.247 17:0.15261044 19:1 20:0.59782609 
-1 0:1.0909091 1:4.5136364 2:0.41666667 3:0.45454545 4:0.099009901 5:1 7:0.02 9:0.12254902 10:0.029411765 11:0.2035 12:0.3182 13:0.0073529412 15:0.033333333 16:0.406 17:0.075980392 19:1 20:0.41904762 
-1 0:1.2835821 1:4.8432836 2:0.71428571 3:0.52631579 4:0.33333333 5:1 7:0.02 9:0.1 10:0.015789474 11:0.0945 12:0.1194 13:0.015789474 14:0.0092165899 15:0.026666667 16:0.188 17:0.10526316 19:1 20:0.61751152 
-1 0:1.127451 1:4.372549 2:0.83333333 3:0.55555556 4:0.41666667 5:1 7:0.02 9:0.090909091 10:0.054545455 11:0.0545 12:0.0752 13:0.036363636 14:0.02238806 15:0.02 16:0.108 17:0.1 19:1 20:0.76119403 
-1 0:1.3052632 1:4.7842105 2:0.45454545 3:0.37037037 4:0.33333333 5:1 7:0.03 9:0.087452471 10:0.030418251 11:0.131 12:0.1591 13:0.045627376 15:0.023333333 16:0.261 17:0.121673 19:1 20:0.6462585 
-1 0:1.2678571 1:4.9404762 2:0.45454545 3:0.55555556 4:0.20408163 5:1 7:0.02 9:0.10126582 10:0.050632911 11:0.118 12:0.1584 13:0.029535865 14:0.0036101083 15:0.05 16:0.235 17:0.15189873 19:1 20:0.60649819 
-1 0:1.1 1:4.6571429 2:1 3:0.76923077 4:0.5 5:1 7:0.01 8:0.033333333 9:0.042253521 10:0.014084507 11:0.035 12:0.0602 15:0.0066666667 16:0.069 17:0.056338028 19:1 20:0.74468085 
-1 0:1.4220183 1:5.1926606 2:0.83333333 3:0.76923077 4:0.4 5:1 7:0.03 9:0.10948905 10:0.03649635 11:0.068 12:0.0968 13:0.0072992701 15:0.01 16:0.135 17:0.080291971 19:1 20:0.69871795 
-1 0:0.96089385 1:4.2402235 2:0.76923077 3:0.66666667 4:0.15151515 5:1 7:0.05 9:0.072033898 10:0.025423729 11:0.1175 12:0.1741 13:0.021186441 14:0.0033333333 15:0.023333333 16:0.234 17:0.19491525 19:1 20:0.59666667 
-1 0:1.0895522 1:4.9850746 2:1 3:0.76923077 4:0.37037037 5:1 7:0.03 9:0.093333333 11:0.037 12:0.0564 13:0.013333333 15:0.016666667 16:0.073 17:0.066666667 19:1 20:0.71276596 
-1 0:1.0295359 1:4.4894515 2:0.5 3:0.5 4:0.075757576 5:1 7:0.03 9:0.14253394 10:0.022624434 11:0.2205 12:0.3054 13:0.0090497738 14:0.0018587361 15:0.04 16:0.44 17:0.16742081 19:1 20:0.44052045 
-1 0:1.0267857 1:4.8125 2:0.625 3:0.76923077 4:0.24390244 5:1 7:0.05 8:0.033333333 9:0.071428571 10:0.031746032 11:0.0625 12:0.1047 13:0.031746032 15:0.023333333 16:0.124 17:0.055555556 19:1 20:0.67878788 
-1 0:1.1656805 1:4.6923077 2:0.55555556 3:0.625 4:0.3125 5:1 7:0.04 8:0.033333333 9:0.11489362 10:0.038297872 11:0.117 12:0.1539 13:0.029787234 14:0.015037594 15:0.036666667 16:0.233 17:0.14468085 19:1 20:0.63533835 
-1 0:1.338403 1:5.026616 2:0.41666667 3:0.38461538 4:0.20833333 5:1 7:0.04 9:0.087837838 10:0.072072072 11:0.2215 12:0.2846 13:0.031531532 14:0.010351967 15:0.073333333 16:0.442 17:0.15765766 19:1 20:0.54451346 
-1 0:0.91836735 1:4.8367347 2:0.625 3:0.83333333 4:0.23809524 5:1 7:0.05 9:0.072164948 10:0.030927835 11:0.048 12:0.0894 13:0.051546392 15:0.026666667 16:0.095 17:0.072164948 19:1 20:0.69014085 
-1 0:0.85294118 1:4.8235294 2:0.90909091 3:0.76923077 4:0.20833333 5:1 7:0.06 8:0.033333333 9:0.09 10:0.02 11:0.0495 12:0.0984 13:0.03 15:0.023333333 16:0.098 17:0.06 19:1 20:0.62576687 
-1 0:0.94117647 1:4.7058824 2:1 3:0.90909091 4:0.45454545 5:1 7:0.02 9:0.10958904 11:0.036 12:0.0577 13:0.04109589 15:0.02 16:0.071 17:0.054794521 19:1 20:0.72340426 
-1 0:1.3619048 1:4.9047619 2:0.83333333 3:0.76923077 4:0.45454545 5:1 7:0.01 9:0.094488189 10:0.031496063 11:0.063 12:0.0866 13:0.070866142 14:0.013245033 15:0.03 16:0.125 17:0.16535433 19:1 20:0.69536424 
-1 0:1.1538462 1:5.1868132 2:0.90909091 3:0.71428571 4:0.20408163 5:1 7:0.05 9:0.075268817 10:0.010752688 11:0.046 12:0.0897 14:0.007751938 15:0.026666667 16:0.091 17:0.086021505 19:1 20:0.70542636 
-1 0:1.4195402 1:5.0287356 2:0.66666667 3:0.55555556 4:0.3030303 5:1 7:0.04 9:0.11462451 10:0.039525692 11:0.126 12:0.1595 13:0.039525692 14:0.0071942446 15:0.05 16:0.251 17:0.16205534 19:1 20:0.62589928 
-1 0:0.82954545 1:4.875 2:0.76923077 3:0.83333333 4:0.2 5:1 7:0.07 9:0.044776119 10:0.044776119 11:0.033 12:0.0861 13:0.059701493 15:0.016666667 16:0.065 17:0.059701493 19:1 20:0.65185185 
-1 0:1.4271845 1:5.0048544 2:0.625 3:0.45454545 4:0.20408163 5:1 7:0.06 9:0.071197411 10:0.038834951 11:0.154 12:0.211 13:0.048543689 14:0.0055401662 15:0.066666667 16:0.307 17:0.17152104 19:1 20:0.57063712 
-1 0:1.3253012 1:5.060241 2:0.66666667 3:0.47619048 4:0.25 5:1 7:0.06 8:0.066666667 9:0.11872146 10:0.02283105 11:0.109 12:0.1536 13:0.03652968 14:0.0038610039 15:0.04 16:0.217 17:0.11872146 19:1 20:0.64092664 
-1 0:1.1272727 1:5.1090909 2:0.83333333 3:0.625 4:0.25 5:1 7:0.05 8:0.033333333 9:0.06 10:0.03 11:0.0495 12:0.0976 13:0.04 15:0.026666667 16:0.098 17:0.09 19:1 20:0.71895425 
-1 0:1.4878706 1:5.2857143 2:0.34482759 3:0.19230769 4:0.15873016 5:1 7:0.02 8:0.033333333 9:0.049479167 10:0.052083333 11:0.3835 12:0.5246 13:0.020833333 14:0.009569378 15:0.10333333 16:0.766 17:0.14713542 19:1 20:0.4437799 
-1 0:0.95081967 1:4.0928962 2:0.66666667 3:0.47619048 4:0.090909091 5:1 7:0.03 9:0.025445293 10:0.025445293 11:0.196 12:0.247 13:0.0050890585 14:0.0064239829 15:0.013333333 16:0.391 17:0.061068702 19:1 20:0.39186296 
-1 0:1.0228311 1:4.2694064 2:0.33333333 3:0.47619048 4:0.095238095 5:1 7:0.03 9:0.043103448 10:0.032327586 11:0.2315 12:0.276 13:0.010775862 15:0.023333333 16:0.462 17:0.064655172 19:1 20:0.44602851 
-1 0:0.93 1:4.55 2:0.625 3:0.52631579 4:0.38461538 5:1 7:0.01 9:0.063063063 10:0.018018018 11:0.055 12:0.0983 13:0.027027027 15:0.016666667 16:0.109 17:0.09009009 19:1 20:0.64516129 
-1 0:1.0431655 1:4.7625899 2:0.47619048 3:0.45454545 4:0.28571429 5:1 7:0.03 9:0.14361702 10:0.021276596 11:0.0935 12:0.1418 13:0.037234043 15:0.023333333 16:0.186 17:0.079787234 19:1 20:0.61504425 
-1 0:1.09375 1:4.5104167 2:0.58823529 3:0.71428571 4:0.34482759 5:1 7:0.02 9:0.065420561 10:0.056074766 11:0.053 12:0.0737 13:0.037383178 15:0.023333333 16:0.105 17:0.14018692 19:1 20:0.73282443 
-1 0:1.302682 1:5.0191571 2:0.3030303 3:0.38461538 4:0.17241379 5:1 7:0.02 9:0.14505495 10:0.032967033 11:0.227 12:0.2745 13:0.015384615 15:0.063333333 16:0.453 17:0.10549451 19:1 20:0.58258929 
-1 0:1.1813725 1:4.6323529 2:0.41666667 3:0.4 4:0.22727273 5:1 7:0.05 9:0.07120743 10:0.027863777 11:0.161 12:0.2911 13:0.027863777 14:0.0050377834 15:0.043333333 16:0.321 17:0.10835913 19:1 20:0.5138539 
-1 0:1.3267327 1:4.6336634 2:0.71428571 3:0.625 4:0.38461538 5:1 7:0.04 9:0.066115702 10:0.05785124 11:0.06 12:0.0827 13:0.05785124 15:0.023333333 16:0.119 17:0.14876033 19:1 20:0.69655172 
-1 0:1.2916667 1:5.28125 2:0.625 3:0.76923077 4:0.32258065 5:1 7:0.05 8:0.033333333 9:0.074766355 10:0.037383178 11:0.053 12:0.0943 15:0.016666667 16:0.105 17:0.056074766 19:1 20:0.65753425 
-1 0:1.0782123 1:4.6089385 2:0.5 3:0.37037037 4:0.054054054 5:1 7:0.03 9:0.11125828 10:0.025165563 11:0.377 12:0.4682 13:0.029139073 14:0.0022909507 15:0.076666667 16:0.753 17:0.16556291 19:1 20:0.41008018 
-1 0:1.3419689 1:5.0414508 2:0.5 3:0.5 4:0.3030303 5:1 7:0.03 9:0.1122807 10:0.038596491 11:0.142 12:0.1728 13:0.063157895 14:0.0099009901 15:0.046666667 16:0.283 17:0.15438596 19:1 20:0.6369637 
-1 0:1.0941176 1:4.5058824 2:1 3:0.625 4:0.38461538 5:1 7:0.03 9:0.095744681 10:0.031914894 11:0.0465 12:0.0636 13:0.074468085 15:0.023333333 16:0.092 17:0.12765957 19:1 20:0.76576577 
-1 0:1.24 1:4.968 2:0.47619048 3:0.625 4:0.37037037 5:1 7:0.03 9:0.088235294 10:0.052941176 11:0.0845 12:0.1124 13:0.035294118 14:0.0050251256 15:0.026666667 16:0.168 17:0.10588235 19:1 20:0.6281407 
-1 0:1.1666667 1:5.1764706 2:0.83333333 3:0.71428571 4:0.32258065 5:1 7:0.04 9:0.063157895 10:0.021052632 11:0.047 12:0.0858 13:0.063157895 14:0.0074074074 15:0.013333333 16:0.093 17:0.11578947 19:1 20:0.75555556 
-1 0:1.2459016 1:4.6967213 2:0.76923077 3:0.66666667 4:0.3125 5:1 7:0.02 9:0.12162162 10:0.040540541 11:0.0735 12:0.1025 13:0.033783784 14:0.0054347826 15:0.026666667 16:0.146 17:0.10135135 19:1 20:0.66304348 
-1 0:0.7721519 1:4.5063291 2:0.71428571 3:0.66666667 4:0.10869565 5:1 7:0.01 9:0.073643411 10:0.015503876 11:0.1285 12:0.1856 13:0.023255814 14:0.0030487805 15:0.01 16:0.256 17:0.058139535 19:1 20:0.48170732 
-1 0:1.4859813 1:5.482866 2:0.58823529 3:0.35714286 4:0.13333333 5:1 6:1 7:0.05 8:0.1 9:0.058544304 10:0.037974684 11:0.3155 12:0.4096 13:0.028481013 14:0.0057142857 15:0.093333333 16:0.63 17:0.13924051 19:1 20:0.45857143 
-0.8149330795064518 0:1.443299 1:5.3479381 2:0.32258065 3:0.20833333 4:0.11363636 5:1 6:1 7:0.05 8:0.066666667 9:0.053179191 10:0.039306358 11:0.432 12:0.5368 13:0.047398844 14:0.011351909 15:0.14333333 16:0.863 17:0.16531792 19:1 20:0.4004128 
-1 0:0.95804196 1:4.4685315 2:1 3:0.66666667 4:0.18518519 5:1 6:1 7:0.05 8:0.033333333 9:0.04519774 10:0.028248588 11:0.088 12:0.141 13:0.028248588 14:0.0039370079 15:0.016666667 16:0.175 17:0.084745763 19:1 20:0.56299213 
-0.6846173477199676 0:0.97841727 1:4.5323741 2:1 3:0.66666667 4:0.18518519 5:1 6:1 7:0.05 8:0.033333333 9:0.04519774 10:0.028248588 11:0.088 12:0.141 13:0.028248588 14:0.0039370079 15:0.016666667 16:0.175 17:0.084745763 19:1 20:0.54724409 
-1 0:0.9787234 1:4.4964539 2:1 3:0.66666667 4:0.18518519 5:1 6:1 7:0.05 8:0.033333333 9:0.04519774 10:0.028248588 11:0.088 12:0.1409 13:0.028248588 14:0.0039370079 15:0.016666667 16:0.175 17:0.084745763 19:1 20:0.55511811 
-1 0:1.437276 1:5.2401434 2:0.66666667 3:0.3030303 4:0.14925373 5:1 6:1 7:0.05 8:0.066666667 9:0.053932584 10:0.024719101 11:0.222 12:0.3074 13:0.053932584 14:0.0056179775 15:0.063333333 16:0.443 17:0.14606742 19:1 20:0.52247191 
-1 0:1.4195122 1:5.1536585 2:0.34482759 3:0.2173913 4:0.093457944 5:1 6:1 7:0.05 8:0.033333333 9:0.040540541 10:0.039312039 11:0.4065 12:0.5016 13:0.078624079 14:0.013289037 15:0.21666667 16:0.812 17:0.17690418 19:1 20:0.45404208 
-1 0:1.7394247 1:6.2013536 2:0.45454545 3:0.12658228 4:0.086206897 5:1 6:1 7:0.05 8:0.1 9:0.087747036 10:0.052964427 11:0.632 12:0.8523 13:0.025296443 14:0.0064148254 15:0.17666667 16:1.263 17:0.15098814 19:1 20:0.4212402 
-1 0:1.4794007 1:5.4756554 2:0.3030303 3:0.14492754 4:0.09009009 5:1 6:1 7:0.05 8:0.2 9:0.053840063 10:0.050673001 11:0.631 12:0.7812 13:0.045130641 14:0.011560694 15:0.18666667 16:1.261 17:0.152019 19:1 20:0.38583815 
-0.4078145000178453 1:22.510118 2:1 3:1 4:0.001996008 5:1 11:3.7495 12:20.25 15:0.0033333333 16:7.498 19:1 20:0.56928 
