svm_type c_svc
kernel_type rbf
gamma 0.0344828
nr_class 2
total_sv 2
rho 0
label 0 1
nr_sv 1 1
SV
1 0:0.77966102 1:4.2711864 2:1 6:1 7:1 8:0.71428571 9:0.5 10:1.0021735 11:1 13:0.03 15:0.033333333 16:0.01754386 17:0.01754386 18:0.028 19:0.0437 22:0.0033333333 23:0.055 24:0.052631579 26:1 27:0.87 28:0.60416667 29:0.76623377 
-1 0:0.83870968 1:4.2741935 6:1 7:0.83333333 8:0.71428571 9:0.52631579 11:1 13:0.03 16:0.016393443 17:0.016393443 18:0.03 19:0.0456 21:0.012345679 22:0.01 23:0.059 24:0.032786885 26:1 29:0.7654321 
