svm_type c_svc
kernel_type rbf
gamma 0.0714286
nr_class 2
total_sv 4
rho 1.16169e-012
label 0 1
probA 3.29583
probB -3.40266e-012
nr_sv 2 2
SV
0.9999999999988383 0:0.77966102 1:4.2711864 2:1 3:0.71428571 4:0.5 5:10986 7:3 8:87 9:437 11:1 13:1 14:59 
1 0:0.83870968 1:4.2741935 2:0.83333333 3:0.71428571 4:0.52631579 5:10986 7:3 8:87 9:456 11:3 14:62 
-0.9999999999988383 0:1.4541485 1:5.0087336 2:1 3:0.32258065 4:0.21276596 5:1 8:1 9:2662 10:47 11:43 12:1 14:229 
-1 0:1.3656388 1:4.8370044 2:0.83333333 3:0.5 4:0.17857143 5:1 8:1 9:2595 10:34 11:46 12:1 14:227 
