svm_type c_svc
kernel_type rbf
gamma 0.2
nr_class 2
total_sv 1640
rho -0.13319
label 0 1
probA 0.0970571
probB -0.151647
nr_sv 880 760
SV
0.8671687988660844 0:0.19230769 1:0.18518519 2:2749 3:37 4:44 5:249 
0.8668595041248282 0:0.47619048 1:0.14084507 2:2514 3:52 4:68 5:230 
0.8664381483458887 0:0.83333333 1:0.15873016 2:2800 3:42 4:54 5:249 
0.8668385057087529 0:0.22222222 1:0.22727273 2:2378 3:39 4:36 5:246 
0.8671678468905479 0:0.37037037 1:0.27027027 2:2819 3:35 4:28 5:248 
0.8667875868312888 0:0.34482759 1:0.20408163 2:2948 3:23 4:39 5:272 
0.8671897557651072 0:0.55555556 1:0.20833333 2:2659 3:38 4:38 5:225 
0.8668091677504998 0:0.38461538 1:0.25 2:2919 3:27 4:31 5:289 
0.8669430858549956 0:0.20833333 1:0.22222222 2:3056 3:37 4:35 5:309 
0.866825458788549 0:1 1:0.16666667 2:2869 3:44 4:50 5:245 
0.866797022602783 0:0.3030303 1:0.2 2:2789 3:35 4:43 5:261 
0.8669746595113275 0:0.66666667 1:0.22222222 2:2467 3:30 4:35 5:211 
0.8668619332773471 0:0.4 1:0.38461538 2:2408 3:26 4:16 5:203 
0.8667978564050572 0:0.43478261 1:0.28571429 2:2789 3:29 4:28 5:234 
0.8667917098086969 0:0.35714286 1:0.27027027 2:2754 3:36 4:27 5:245 
0.8663400931387628 0:0.38461538 1:0.20833333 2:2877 3:25 4:42 5:265 
0.8665289076489762 0:0.45454545 1:0.16129032 2:2761 3:55 4:56 5:260 
0.8667071130474865 0:0.625 1:0.32258065 2:2643 3:32 4:24 5:241 
0.8672594968635888 0:0.25 1:0.28571429 2:2586 3:35 4:27 5:253 
0.866779417758067 0:0.5 1:0.23255814 2:2725 3:35 4:34 5:254 
0.8668516724405312 0:0.33333333 1:0.32258065 2:2648 3:46 4:23 5:233 
0.8672036136634427 0:0.25 1:0.18518519 2:2887 3:39 4:44 5:277 
0.8664957004892079 0:0.43478261 1:0.092592593 2:2599 3:32 4:119 5:226 
0.8679740212821163 0:0.55555556 1:0.23809524 2:2735 3:31 4:32 5:256 
0.8671462643868375 0:0.37037037 1:0.20833333 2:2826 3:36 4:38 5:279 
0.8668586529975015 0:0.32258065 1:0.21276596 2:2662 3:47 4:43 5:229 
0.8668112788339486 0:0.5 1:0.17857143 2:2595 3:34 4:46 5:227 
0.8672163708137095 0:0.25 1:0.16949153 2:2654 3:41 4:51 5:258 
0.8667959229052069 0:0.25641026 1:0.22222222 2:2869 3:48 4:35 5:267 
0.8668403161189848 0:0.21276596 1:0.17241379 2:2721 3:49 4:51 5:220 
0.8671523440489559 0:0.45454545 1:0.34482759 2:2456 3:46 4:25 5:246 
0.8671145937392129 0:0.47619048 1:0.25 2:2669 3:38 4:33 5:257 
0.8671092130220346 0:0.66666667 1:0.2 2:2702 3:21 4:41 5:262 
0.8667738868774231 0:0.3125 1:0.18518519 2:2601 3:32 4:44 5:236 
0.8670206013796487 0:0.25641026 1:0.15151515 2:2600 3:48 4:56 5:239 
0.8665897286944768 0:0.25641026 1:0.17241379 2:2544 3:53 4:48 5:237 
0.8665289076489762 0:0.45454545 1:0.15151515 2:2614 3:65 4:59 5:230 
0.8663629828409944 0:0.47619048 1:0.23255814 2:2720 3:25 4:33 5:287 
0.8663123761154001 0:0.2173913 1:0.25 2:2776 3:34 4:30 5:274 
0.8663217005862336 0:0.19607843 1:0.2 2:2815 3:26 4:40 5:255 
0.8663654597908144 0:0.18518519 1:0.23255814 2:2528 3:46 4:36 5:250 
0.8663055683216472 0:0.27777778 1:0.17857143 2:2805 3:30 4:50 5:293 
0.8667812060044055 0:0.24390244 1:0.19607843 2:2512 3:42 4:42 5:237 
0.8667970701790532 0:0.55555556 1:0.13333333 2:2677 3:56 4:68 5:220 
0.8668460629864834 0:0.43478261 1:0.25 2:2652 3:18 4:31 5:269 
0.8668320096271311 0:0.38461538 1:0.26315789 2:2569 3:43 4:28 5:256 
0.86679224658733 0:0.625 1:0.29411765 2:2457 3:53 4:25 5:235 
0.8667644619725814 0:0.23255814 1:0.23255814 2:2887 3:24 4:34 5:282 
0.8668237643416511 0:0.43478261 1:0.14285714 2:2680 3:38 4:64 5:236 
0.8668507929172442 0:0.3125 1:0.16666667 2:2749 3:42 4:54 5:269 
0.8664529113778395 0:0.34482759 1:0.25641026 2:2739 3:41 4:29 5:254 
0.8668297433104223 0:0.41666667 1:0.18181818 2:2867 3:17 4:50 5:281 
0.8671600140787759 0:0.34482759 1:0.21276596 2:2667 3:28 4:40 5:234 
0.8668002513025048 0:0.27777778 1:0.13333333 2:2953 3:31 4:67 5:287 
0.8668300907143649 0:0.22222222 1:0.17857143 2:2944 3:28 4:49 5:291 
0.8668249052371414 0:0.25 1:0.15151515 2:2817 3:59 4:60 5:273 
0.8668427591657555 0:0.22727273 1:0.20833333 2:2507 3:42 4:38 5:251 
0.8668343899946116 0:0.34482759 1:0.16393443 2:2834 3:38 4:55 5:281 
0.8668271773058118 0:0.17857143 1:0.19607843 2:2876 3:20 4:40 5:280 
0.8668313293441268 0:0.76923077 1:0.22222222 2:2686 3:25 4:35 5:249 
0.8668438804607856 0:0.16129032 1:0.20408163 2:2794 3:28 4:43 5:285 
5 0:0.90909091 1:0.76923077 2:52 4:1 5:10 
0.537651306075802 0:0.90909091 1:0.71428571 2:422 3:4 4:5 5:58 
0.8666722597261449 0:1 1:0.71428571 2:237 3:8 4:5 5:39 
5 0:0.90909091 1:0.76923077 2:222 3:5 4:4 5:33 
2.961772118111906 0:0.58823529 1:0.625 2:642 3:2 4:7 5:83 
1.304745685016773 0:1 1:1 2:92 3:4 4:1 5:16 
0.3766270658866076 0:1 1:0.83333333 2:77 3:4 4:1 5:17 
1.422231395124606 0:1 1:1 2:95 3:3 4:2 5:20 
1.266282056876528 0:0.83333333 1:0.90909091 2:85 4:2 5:15 
0.5987906063099018 0:0.76923077 1:0.90909091 2:183 3:3 4:3 5:34 
0.5503887149426279 0:0.90909091 1:1 2:86 3:1 4:1 5:18 
0.6506570790606725 0:0.71428571 1:0.83333333 2:366 3:4 4:4 5:50 
1.249352938025908 0:0.76923077 1:0.5 2:368 3:2 4:4 5:51 
5 0:1 1:0.83333333 2:145 3:2 4:4 5:26 
0.3486092948988425 0:0.71428571 1:1 2:143 3:3 4:1 5:26 
0.949729159719534 0:0.83333333 1:0.90909091 2:110 4:2 5:23 
1.180392722772048 0:1 1:0.90909091 2:99 3:3 4:1 5:20 
5 0:0.90909091 1:1 2:54 3:2 4:1 5:12 
1.755710358250233 0:1 1:0.90909091 2:145 3:2 4:2 5:19 
5 0:0.90909091 1:0.90909091 2:162 3:2 4:2 5:27 
4.756734464725179 0:1 1:0.90909091 2:43 3:2 4:1 5:9 
2.344255176658256 0:1 1:1 2:40 3:2 4:1 5:9 
1.05220735230566 0:0.83333333 1:0.71428571 2:243 3:2 4:5 5:35 
1.732657947363645 0:1 1:0.83333333 2:71 4:2 5:15 
0.5649643956290961 0:1 1:0.83333333 2:75 3:1 4:2 5:15 
3.008328450388579 0:1 1:0.83333333 2:38 3:1 4:2 5:6 
2.67055877658404 0:1 1:1 2:36 3:3 4:1 5:8 
4.911736831677786 0:1 1:0.83333333 2:47 3:1 4:2 5:10 
4.207927673586314 0:1 1:0.76923077 2:58 3:2 4:1 5:13 
0.9286907311094166 0:1 1:0.90909091 2:50 3:2 4:2 5:10 
5 0:0.90909091 1:0.90909091 2:54 4:3 5:9 
4.473425856900047 0:0.90909091 1:0.90909091 2:43 4:1 5:10 
3.163392852116582 0:0.90909091 1:0.76923077 2:191 3:3 4:3 5:31 
2.833386799887686 0:0.90909091 1:0.83333333 2:69 4:1 5:12 
2.246653914797601 0:1 1:1 2:39 3:2 4:1 5:8 
5 0:1 1:1 2:21 3:1 4:1 5:5 
2.141308982571357 0:1 1:0.76923077 2:153 3:3 4:3 5:25 
1.047261957424252 0:1 1:0.76923077 2:127 3:3 4:3 5:24 
1.731661847753351 0:1 1:0.83333333 2:107 3:2 4:2 5:18 
0.5406891606951025 0:1 1:0.76923077 2:216 3:4 4:3 5:30 
0.8667661714010567 0:0.90909091 1:0.71428571 2:280 3:6 4:4 5:50 
4.174104694214542 0:1 1:0.83333333 2:58 3:1 4:2 5:12 
2.495184352006273 0:1 1:1 2:39 3:1 4:1 5:7 
5 0:1 1:0.90909091 2:33 4:1 5:7 
0.09104879264336888 0:1 1:1 2:46 3:3 4:1 5:10 
5 0:1 1:0.76923077 2:158 3:2 4:3 5:29 
1.739335703399945 0:0.90909091 1:0.83333333 2:86 3:3 4:2 5:18 
4.488998280535674 0:1 1:0.90909091 2:69 4:1 5:13 
0.3370725653824003 0:1 1:1 2:45 3:3 4:1 5:9 
5 0:0.76923077 1:0.71428571 2:337 3:3 4:5 5:49 
5 0:1 1:0.71428571 2:274 3:8 4:5 5:39 
5 0:0.90909091 1:0.76923077 2:258 3:5 4:4 5:36 
0.6487059589950719 0:1 1:0.90909091 2:54 3:3 4:1 5:12 
5 0:0.83333333 1:0.47619048 2:786 3:5 4:8 5:85 
1.034654576864367 0:0.58823529 1:0.625 2:678 3:2 4:7 5:86 
5 0:1 1:0.83333333 2:90 3:3 4:2 5:12 
5 0:0.90909091 1:0.83333333 2:79 4:1 5:12 
0.4077583664838788 0:0.66666667 1:0.83333333 2:352 3:5 4:4 5:48 
5 0:0.76923077 1:0.5 2:414 3:2 4:5 5:53 
5 0:1 1:0.83333333 2:173 3:2 4:4 5:28 
5 0:0.83333333 1:0.71428571 2:458 3:4 4:5 5:57 
5 0:1 1:0.71428571 2:274 3:8 4:5 5:39 
5 0:0.90909091 1:0.76923077 2:258 3:5 4:4 5:36 
5 0:0.83333333 1:0.47619048 2:786 3:5 4:8 5:85 
5 0:0.58823529 1:0.625 2:689 3:2 4:7 5:86 
5 0:1 1:0.52631579 2:110 3:1 4:4 5:18 
5 0:1 1:0.66666667 2:96 3:3 4:2 5:18 
5 0:1 1:0.76923077 2:90 3:3 4:3 5:12 
5 0:0.83333333 1:0.90909091 2:95 4:2 5:11 
5 0:0.90909091 1:0.83333333 2:81 4:1 5:13 
0.5502167234490335 0:1 1:0.76923077 2:287 3:9 4:4 5:41 
5 0:0.66666667 1:0.83333333 2:410 3:4 4:4 5:54 
5 0:0.76923077 1:0.5 2:414 3:2 4:5 5:53 
5 0:1 1:0.83333333 2:173 3:2 4:4 5:28 
0.7863361312675377 0:1 1:0.71428571 2:276 3:1 4:5 5:40 
1.641241590533184 0:0.90909091 1:0.76923077 2:134 3:3 4:3 5:20 
3.048534346921147 0:1 1:0.83333333 2:135 4:3 5:21 
0.869435513346315 0:1 1:0.58823529 2:332 3:1 4:5 5:40 
0.753218137465436 0:0.90909091 1:0.83333333 2:283 3:1 4:3 5:39 
2.690330562586327 0:0.90909091 1:0.90909091 2:81 3:2 4:1 5:15 
0.7496655543505142 0:0.90909091 1:0.76923077 2:252 3:5 4:4 5:31 
0.6628125178652896 0:1 1:1 2:76 3:2 4:2 5:8 
2.67974957737484 0:1 1:0.90909091 2:85 4:1 5:12 
5 0:1 1:0.90909091 2:95 3:1 4:1 5:16 
2.952055201890428 0:1 1:0.76923077 2:191 3:4 4:4 5:33 
0.5576326625745325 0:0.90909091 1:0.83333333 2:227 3:1 4:3 5:34 
5 0:1 1:1 2:98 4:1 5:18 
0.9894044949182365 0:0.83333333 1:0.71428571 2:496 3:7 4:5 5:61 
1.536404833293945 0:0.90909091 1:0.76923077 2:312 3:8 4:5 5:44 
0.5335615391274129 0:0.83333333 1:0.76923077 2:252 3:3 4:4 5:33 
0.924991575513929 0:0.90909091 1:0.45454545 2:751 3:5 4:9 5:83 
0.6934743581032629 0:0.83333333 1:0.47619048 2:800 3:5 4:8 5:87 
0.8283318337412736 0:0.625 1:0.625 2:637 3:6 4:6 5:82 
3.722838643380963 0:0.90909091 1:1 2:107 3:2 4:4 5:18 
1.844665947027696 0:0.90909091 1:1 2:141 3:3 4:2 5:19 
5 0:0.83333333 1:0.90909091 2:119 4:2 5:16 
1.413247817399881 0:0.90909091 1:0.90909091 2:114 4:1 5:20 
0.8668379253018719 0:0.76923077 1:0.76923077 2:428 3:11 4:5 5:65 
0.5951226382517388 0:0.76923077 1:0.5 2:415 3:3 4:5 5:59 
1.807911653946176 0:1 1:0.83333333 2:163 3:1 4:4 5:28 
0.7924028904257374 0:0.58823529 1:0.625 2:709 3:2 4:7 5:88 
0.716410321904228 0:1 1:0.5 2:129 3:2 4:5 5:21 
5 0:0.90909091 1:0.76923077 2:85 3:1 4:2 5:14 
5 0:0.83333333 1:0.76923077 2:169 3:3 4:4 5:28 
5 0:0.83333333 1:0.55555556 2:546 3:6 4:5 5:71 
0.8751418735281397 0:0.625 1:0.71428571 2:479 3:3 4:5 5:67 
4.99202873124663 0:0.625 1:0.71428571 2:479 3:3 4:5 5:67 
5 0:1 1:1 2:88 3:2 4:2 5:16 
5 0:1 1:1 2:72 3:2 4:2 5:9 
5 0:0.83333333 1:1 2:85 4:1 5:11 
4.442442476990824 0:0.90909091 1:0.90909091 2:79 3:1 4:1 5:14 
5 0:0.76923077 1:0.76923077 2:256 3:7 4:5 5:37 
5 0:0.83333333 1:0.71428571 2:248 3:5 4:2 5:44 
5 0:0.90909091 1:0.90909091 2:138 3:1 4:3 5:22 
5 0:0.83333333 1:0.83333333 2:203 3:9 4:2 5:33 
0.8790260373924022 0:0.66666667 1:0.71428571 2:470 3:4 4:5 5:58 
0.9559236082084188 0:0.83333333 1:0.71428571 2:284 3:9 4:5 5:41 
0.8392145934491957 0:1 1:0.58823529 2:599 3:6 4:6 5:76 
0.7990988976949947 0:0.625 1:0.76923077 2:420 3:5 4:4 5:59 
3.31945362626913 0:1 1:0.58823529 2:101 4:4 5:13 
0.3550544037644516 0:1 1:0.625 2:118 3:2 4:3 5:20 
0.6540429909688017 0:0.83333333 1:0.90909091 2:111 4:2 5:14 
5 0:1 1:0.90909091 2:84 3:1 4:1 5:13 
1.67236028312754 0:0.66666667 1:0.83333333 2:406 3:5 4:3 5:50 
1.166974283950232 0:0.76923077 1:0.625 2:419 3:6 4:5 5:56 
2.424645633588779 0:1 1:0.76923077 2:199 3:2 4:4 5:31 
5 0:0.83333333 1:0.71428571 2:464 3:4 4:5 5:57 
5 0:1 1:0.71428571 2:274 3:8 4:5 5:39 
1.763236304648125 0:0.83333333 1:0.90909091 2:95 4:2 5:12 
5 0:0.90909091 1:0.76923077 2:258 3:5 4:4 5:36 
5 0:0.83333333 1:0.47619048 2:786 3:5 4:8 5:85 
0.8903398549172114 0:0.58823529 1:0.625 2:687 3:2 4:7 5:84 
5 0:1 1:0.52631579 2:110 3:1 4:4 5:18 
5 0:1 1:0.66666667 2:96 3:3 4:2 5:18 
5 0:1 1:0.76923077 2:90 3:3 4:3 5:12 
5 0:0.83333333 1:0.90909091 2:95 4:2 5:11 
5 0:0.90909091 1:0.83333333 2:81 4:1 5:13 
5 0:0.66666667 1:0.83333333 2:410 3:4 4:4 5:54 
5 0:0.76923077 1:0.5 2:414 3:2 4:5 5:53 
3.387905969117146 0:0.90909091 1:0.90909091 2:89 3:1 4:1 5:15 
5 0:1 1:0.83333333 2:173 3:2 4:4 5:28 
2.779415732756658 0:0.83333333 1:0.71428571 2:461 3:4 4:5 5:57 
5 0:1 1:0.71428571 2:274 3:8 4:5 5:39 
0.4508046832221882 0:0.90909091 1:0.76923077 2:256 3:5 4:4 5:36 
1.274562083921699 0:0.83333333 1:0.47619048 2:784 3:5 4:9 5:85 
5 0:1 1:0.52631579 2:112 4:3 5:18 
4.765522889434668 0:1 1:0.66666667 2:98 3:3 4:2 5:18 
5 0:0.83333333 1:0.90909091 2:95 4:2 5:11 
0.4517049468248214 0:0.66666667 1:0.83333333 2:410 3:4 4:4 5:55 
1.181646264640883 0:0.90909091 1:0.83333333 2:85 4:1 5:13 
2.540163747844397 0:0.76923077 1:0.5 2:407 3:2 4:5 5:53 
5 0:1 1:0.83333333 2:174 3:2 4:4 5:28 
0.7334413561838976 0:0.83333333 1:0.76923077 2:336 3:5 4:4 5:43 
0.7598669263839014 0:0.83333333 1:0.71428571 2:266 3:3 4:6 5:35 
0.8598086319094678 0:0.90909091 1:0.76923077 2:221 3:1 4:4 5:34 
0.7032292462009341 0:0.66666667 1:0.47619048 2:767 3:3 4:8 5:85 
2.093706358079048 0:0.58823529 1:0.625 2:694 3:1 4:7 5:84 
5 0:1 1:1 2:95 3:2 4:2 5:16 
5 0:0.76923077 1:0.5 2:419 3:2 4:5 5:54 
5 0:1 1:0.625 2:93 3:3 4:3 5:15 
1.562459554697518 0:1 1:0.76923077 2:100 3:2 4:3 5:11 
0.8475544101209803 0:0.83333333 1:0.90909091 2:105 4:2 5:12 
4.071098442499915 0:0.90909091 1:0.83333333 2:96 3:2 4:1 5:14 
0.849379752510312 0:0.625 1:0.83333333 2:391 3:7 4:4 5:50 
0.3762466000347844 0:0.76923077 1:0.76923077 2:367 3:1 4:5 5:50 
2.57005760174877 0:0.90909091 1:0.83333333 2:144 3:1 4:1 5:23 
0.5801834102515928 0:0.90909091 1:0.83333333 2:133 3:2 4:1 5:24 
1.799835658441261 0:0.90909091 1:0.90909091 2:120 3:2 4:2 5:21 
0.7483391030278416 0:1 1:0.83333333 2:176 3:3 4:4 5:29 
0.8665006615914307 0:1 1:0.76923077 2:286 3:1 4:3 5:30 
1.611517822608077 0:0.83333333 1:0.90909091 2:126 3:1 4:1 5:20 
2.262082047086349 0:1 1:0.90909091 2:60 3:1 4:2 5:11 
5 0:1 1:1 2:81 3:3 4:2 5:12 
3.011218252352317 0:0.90909091 1:1 2:68 3:2 4:1 5:12 
4.010953656440145 0:0.90909091 1:0.90909091 2:65 4:1 5:12 
2.028174185515401 0:1 1:1 2:112 3:1 4:1 5:21 
0.8890922179734824 0:0.83333333 1:0.71428571 2:224 3:1 4:2 5:35 
1.704141286754222 0:1 1:0.71428571 2:204 3:2 4:4 5:33 
5 0:0.90909091 1:0.71428571 2:401 3:4 4:5 5:51 
2.489506312198546 0:1 1:0.90909091 2:60 3:3 4:2 5:12 
1.262654362612272 0:1 1:0.83333333 2:146 3:3 4:3 5:25 
1.009813270139934 0:0.83333333 1:0.5 2:680 3:4 4:7 5:80 
0.8173208328847311 0:0.625 1:0.625 2:571 3:2 4:6 5:77 
4.464576083930593 0:1 1:0.625 2:93 3:2 4:3 5:14 
5 0:0.90909091 1:0.71428571 2:100 3:4 4:3 5:17 
1.147551549713382 0:1 1:1 2:75 3:3 4:2 5:11 
2.631206442578144 0:0.83333333 1:0.90909091 2:81 4:2 5:10 
1.975902639101441 0:0.90909091 1:0.83333333 2:79 4:1 5:13 
5 0:1 1:0.83333333 2:138 3:3 4:3 5:24 
1.751716511405339 0:0.83333333 1:0.90909091 2:193 3:2 4:3 5:33 
1.047196274241842 0:0.90909091 1:0.52631579 2:237 4:3 5:36 
1.188092974415262 0:1 1:0.83333333 2:131 3:2 4:4 5:19 
0.7061964058627892 0:1 1:0.90909091 2:131 3:1 4:2 5:16 
1.452537670924294 0:1 1:0.76923077 2:251 3:2 4:3 5:42 
3.147441919831088 0:1 1:1 2:66 3:1 4:2 5:14 
1.280717416593999 0:0.71428571 1:0.71428571 2:373 3:3 4:5 5:48 
1.194604616256495 0:0.76923077 1:0.71428571 2:241 3:6 4:5 5:35 
4.632311571769243 0:0.83333333 1:0.76923077 2:186 3:2 4:4 5:32 
0.8100982868637984 0:0.90909091 1:0.47619048 2:717 3:5 4:8 5:81 
0.8047000894932421 0:0.58823529 1:0.625 2:635 3:3 4:7 5:78 
4.487457789258408 0:1 1:0.625 2:67 3:2 4:3 5:12 
3.081223578404297 0:1 1:1 2:42 3:1 4:2 5:8 
0.4480777525742757 0:1 1:0.83333333 2:41 3:1 4:2 5:9 
2.670336724842812 0:0.83333333 1:0.83333333 2:67 4:3 5:12 
5 0:1 1:0.83333333 2:57 4:1 5:10 
0.5767865128177594 0:0.71428571 1:0.83333333 2:353 3:5 4:4 5:49 
1.237008680897427 0:0.76923077 1:0.5 2:286 3:2 4:4 5:43 
1.965274920891352 0:0.90909091 1:0.83333333 2:133 3:2 4:3 5:23 
1.585857247503423 0:0.71428571 1:0.76923077 2:382 3:3 4:4 5:55 
0.6202636117817497 0:0.83333333 1:0.83333333 2:194 3:5 4:4 5:35 
1.742900267627413 0:0.83333333 1:0.83333333 2:200 3:3 4:3 5:29 
0.8225389825500422 0:0.90909091 1:0.76923077 2:275 4:3 5:37 
0.8669483865868738 0:0.66666667 1:0.76923077 2:360 3:2 4:4 5:59 
1.357380363741479 0:0.90909091 1:1 2:101 3:1 4:3 5:15 
5 0:0.90909091 1:0.90909091 2:94 3:2 4:3 5:17 
0.2668490464089102 0:1 1:0.76923077 2:108 3:2 4:2 5:20 
5 0:0.90909091 1:0.90909091 2:84 4:2 5:13 
2.355187183509283 0:0.90909091 1:0.90909091 2:95 4:2 5:17 
1.040700223352365 0:0.76923077 1:0.76923077 2:335 3:7 4:6 5:50 
0.5779939138469626 0:0.90909091 1:0.76923077 2:218 3:1 4:5 5:33 
5 0:0.83333333 1:0.83333333 2:145 3:1 4:4 5:25 
1.929299462767331 0:1 1:0.76923077 2:399 3:3 4:4 5:52 
1.103563327199602 0:1 1:0.83333333 2:209 3:6 4:3 5:35 
0.4416648266644951 0:1 1:0.71428571 2:63 4:4 5:9 
2.505722792574776 0:1 1:0.90909091 2:168 3:4 4:2 5:29 
0.8645638740255819 0:0.76923077 1:0.52631579 2:686 3:5 4:7 5:77 
3.771838309935919 0:0.625 1:0.55555556 2:691 3:2 4:8 5:87 
1.344542481858862 0:1 1:0.625 2:64 3:1 4:1 5:12 
4.640877641019085 0:1 1:1 2:29 3:1 4:1 5:6 
4.26361710658841 0:1 1:1 2:69 3:2 4:1 5:10 
4.048667447866708 0:1 1:0.90909091 2:36 4:2 5:8 
0.0355507018815063 0:0.90909091 1:0.76923077 2:229 3:5 4:5 5:37 
1.264675649936398 0:0.90909091 1:0.47619048 2:361 3:1 4:5 5:50 
2.531279467224394 0:1 1:0.83333333 2:63 4:2 5:12 
0.3782198702144127 0:1 1:0.83333333 2:151 3:3 4:3 5:27 
1.213998705490046 0:0.76923077 1:0.71428571 2:361 3:3 4:5 5:46 
0.8525091060692559 0:1 1:0.625 2:212 3:7 4:7 5:36 
0.01722137664418713 0:0.83333333 1:0.45454545 2:734 3:5 4:9 5:81 
0.8665398539241537 0:0.58823529 1:0.625 2:650 3:2 4:7 5:83 
0.5605946352724416 0:1 1:1 2:58 3:1 4:2 5:11 
4.112055922112097 0:1 1:0.76923077 2:53 3:1 4:3 5:12 
1.269290319252215 0:1 1:0.90909091 2:60 3:2 4:2 5:12 
4.410448470182773 0:0.90909091 1:0.83333333 2:75 3:1 4:2 5:12 
0.8663170272267748 0:1 1:0.66666667 2:239 3:1 4:5 5:42 
5 0:0.90909091 1:1 2:73 3:1 4:2 5:14 
1.069278385962844 0:0.71428571 1:0.76923077 2:379 3:3 4:6 5:49 
0.812868750894212 0:0.76923077 1:0.5 2:389 3:2 4:4 5:53 
2.044021896789521 0:1 1:0.83333333 2:137 3:2 4:4 5:25 
5 0:0.83333333 1:0.71428571 2:463 3:4 4:5 5:57 
0.2557787761877107 0:1 1:0.71428571 2:292 3:9 4:5 5:41 
0.5334494752284567 0:0.90909091 1:0.76923077 2:251 3:5 4:4 5:35 
0.5865610636206624 0:0.66666667 1:0.47619048 2:782 3:5 4:8 5:84 
0.3617612219068257 0:0.58823529 1:0.625 2:694 3:2 4:7 5:88 
0.4221701516523499 0:0.90909091 1:0.625 2:119 3:3 4:4 5:18 
0.9035391304228451 0:1 1:0.71428571 2:144 4:4 5:20 
2.132490621774982 0:1 1:0.76923077 2:102 3:4 4:2 5:16 
3.503646354074029 0:0.83333333 1:0.90909091 2:105 4:2 5:14 
2.011025979078347 0:0.90909091 1:0.83333333 2:77 4:1 5:14 
1.415264697327141 0:0.625 1:0.83333333 2:400 3:6 4:4 5:52 
0.4418712303767902 0:0.76923077 1:0.5 2:408 3:1 4:5 5:53 
0.1497024349540412 0:1 1:0.83333333 2:184 3:3 4:4 5:30 
0.8404321405794956 0:0.83333333 1:0.76923077 2:470 3:8 4:5 5:57 
0.8620165624793295 0:0.83333333 1:0.71428571 2:279 3:8 4:5 5:37 
3.546823728069911 0:0.83333333 1:0.76923077 2:260 3:4 4:4 5:40 
0.641793039141385 0:1 1:0.76923077 2:127 3:1 4:3 5:21 
0.8668643821677823 0:0.83333333 1:0.5 2:646 3:5 4:7 5:78 
0.8110002773696176 0:0.625 1:0.66666667 2:670 3:5 4:7 5:87 
0.4482550236066107 0:1 1:1 2:105 3:1 4:5 5:17 
0.4448666807189479 0:1 1:0.76923077 2:139 3:4 4:3 5:19 
2.875281211386843 0:0.90909091 1:0.71428571 2:123 3:1 4:3 5:19 
2.103605471853573 0:0.90909091 1:0.90909091 2:96 4:2 5:12 
0.8666516394834429 0:0.83333333 1:0.83333333 2:384 3:8 4:4 5:60 
2.084547687213143 0:0.76923077 1:0.58823529 2:416 3:4 4:5 5:62 
2.705709951455976 0:1 1:0.83333333 2:156 3:2 4:4 5:27 
0.1315215134011778 0:0.90909091 1:0.83333333 2:229 3:2 4:2 5:34 
0.8232912971159334 0:0.83333333 1:0.71428571 2:401 3:6 4:5 5:48 
0.5964099788614687 0:1 1:0.76923077 2:185 3:4 4:4 5:27 
0.5307673608595197 0:0.90909091 1:0.83333333 2:216 3:4 4:3 5:32 
5 0:0.83333333 1:0.47619048 2:786 3:5 4:8 5:85 
5 0:0.58823529 1:0.625 2:689 3:2 4:7 5:86 
5 0:1 1:0.55555556 2:97 3:1 4:4 5:15 
0.5679068495745171 0:0.90909091 1:0.625 2:111 3:4 4:3 5:19 
5 0:1 1:0.76923077 2:79 3:2 4:2 5:14 
5 0:0.83333333 1:0.90909091 2:95 4:2 5:11 
4.251102260708219 0:0.83333333 1:0.83333333 2:217 3:4 4:3 5:32 
3.625144460199171 0:0.66666667 1:0.83333333 2:308 3:3 4:4 5:43 
5 0:0.76923077 1:0.5 2:414 3:2 4:5 5:53 
5 0:1 1:0.83333333 2:173 3:2 4:4 5:28 
5 0:0.90909091 1:0.76923077 2:143 3:1 4:4 5:21 
0.4787016815528729 0:1 1:0.47619048 2:659 3:5 4:8 5:73 
0.8171516138037624 0:0.66666667 1:0.625 2:569 3:3 4:6 5:80 
0.5020567362241331 0:1 1:0.71428571 2:67 4:3 5:12 
2.564065741214018 0:0.90909091 1:0.90909091 2:117 3:4 4:2 5:22 
1.084597343753533 0:0.83333333 1:0.71428571 2:435 3:3 4:5 5:54 
0.2385985069290225 0:0.83333333 1:0.71428571 2:255 3:7 4:5 5:36 
0.8789412743574541 0:0.83333333 1:0.71428571 2:357 3:6 4:5 5:51 
0.8667928921868451 0:0.76923077 1:0.45454545 2:868 3:6 4:8 5:96 
0.8631973451782138 0:0.66666667 1:0.71428571 2:563 3:2 4:5 5:73 
0.1774569011334016 0:1 1:1 2:50 4:2 5:8 
1.211945550270295 0:0.83333333 1:0.76923077 2:203 3:4 4:4 5:32 
0.8865774475576632 0:0.83333333 1:0.83333333 2:174 3:9 4:4 5:31 
1.026167453090533 0:0.90909091 1:0.83333333 2:185 3:6 4:5 5:31 
0.9714281996436496 0:0.83333333 1:0.71428571 2:205 3:2 4:5 5:31 
1.415943808664221 0:0.90909091 1:0.71428571 2:227 3:6 4:5 5:37 
0.8671084342733617 0:0.83333333 1:0.66666667 2:488 3:13 4:5 5:58 
0.6637775717473144 0:0.83333333 1:0.55555556 2:416 3:6 4:6 5:58 
0.5006384143925371 0:0.83333333 1:0.76923077 2:193 3:2 4:4 5:30 
5 0:0.90909091 1:0.83333333 2:91 4:4 5:14 
0.9251879346388168 0:1 1:0.83333333 2:74 4:2 5:12 
0.9578174774499667 0:0.76923077 1:0.71428571 2:275 3:4 4:5 5:37 
0.9534434389649634 0:1 1:0.625 2:311 3:2 4:5 5:46 
3.12291573787407 0:0.90909091 1:0.71428571 2:394 3:3 4:4 5:52 
0.9036652840707347 0:1 1:0.71428571 2:282 3:8 4:5 5:41 
1.506466870856435 0:0.90909091 1:0.76923077 2:251 3:5 4:4 5:36 
2.585097541043523 0:1 1:0.90909091 2:104 4:2 5:14 
5 0:0.83333333 1:0.47619048 2:787 3:5 4:8 5:86 
0.6572461062676063 0:0.58823529 1:0.625 2:684 3:2 4:7 5:86 
5 0:1 1:0.52631579 2:102 3:1 4:3 5:15 
4.638538039316958 0:1 1:0.66666667 2:120 3:2 4:3 5:18 
5 0:1 1:0.76923077 2:91 3:1 4:3 5:16 
5 0:0.83333333 1:0.90909091 2:91 4:2 5:12 
5 0:0.90909091 1:0.76923077 2:90 4:1 5:13 
1.320182649587491 0:0.66666667 1:0.83333333 2:409 3:4 4:4 5:53 
5 0:0.76923077 1:0.5 2:402 3:2 4:5 5:53 
1.715510329409641 0:1 1:0.83333333 2:171 4:4 5:28 
2.354240820917105 0:0.90909091 1:0.83333333 2:190 3:2 4:2 5:31 
0.6123025942185091 0:0.83333333 1:0.71428571 2:441 3:4 4:5 5:57 
0.59546056623064 0:1 1:0.71428571 2:250 3:8 4:5 5:36 
1.972114746205669 0:0.90909091 1:0.76923077 2:243 3:4 4:4 5:36 
0.8782335627542894 0:0.83333333 1:0.47619048 2:774 3:7 4:8 5:86 
0.5775334967155412 0:0.55555556 1:0.625 2:677 3:3 4:7 5:88 
3.188716185386128 0:1 1:0.76923077 2:95 3:3 4:2 5:15 
2.716356667072358 0:1 1:0.76923077 2:105 3:2 4:3 5:14 
2.636162588297766 0:0.83333333 1:0.90909091 2:102 3:1 4:2 5:13 
2.071151493149477 0:0.66666667 1:0.83333333 2:453 3:6 4:4 5:60 
0.8061823211709246 0:0.76923077 1:0.5 2:424 3:1 4:5 5:54 
0.1106891560895526 0:1 1:0.83333333 2:184 3:4 4:4 5:29 
0.4290230872101382 0:0.83333333 1:0.71428571 2:268 3:4 4:5 5:37 
0.7384189293716508 0:0.83333333 1:0.76923077 2:151 3:5 4:5 5:26 
2.294557141876844 0:1 1:0.83333333 2:178 3:5 4:3 5:29 
0.8667595411135491 0:0.83333333 1:0.52631579 2:619 3:4 4:6 5:72 
0.8676274876918494 0:0.66666667 1:0.625 2:582 3:2 4:7 5:81 
3.326714006762958 0:1 1:0.83333333 2:46 4:1 5:8 
5 0:1 1:1 2:53 3:1 4:2 5:11 
5 0:0.83333333 1:0.90909091 2:54 4:2 5:10 
5 0:1 1:1 2:48 4:1 5:10 
0.8228774150434314 0:0.71428571 1:0.83333333 2:255 3:4 4:4 5:41 
1.662213850246834 0:0.76923077 1:0.52631579 2:294 4:4 5:44 
1.2711830481242 0:1 1:0.83333333 2:100 3:1 4:3 5:19 
5 0:0.83333333 1:0.71428571 2:464 3:4 4:5 5:57 
5 0:1 1:0.71428571 2:274 3:8 4:5 5:38 
5 0:0.90909091 1:0.76923077 2:258 3:5 4:4 5:36 
1.616372922765704 0:0.83333333 1:0.47619048 2:791 3:5 4:8 5:84 
0.5148397814657465 0:1 1:0.90909091 2:155 3:1 4:2 5:24 
5 0:0.58823529 1:0.625 2:690 3:2 4:7 5:85 
5 0:1 1:0.52631579 2:110 3:1 4:4 5:18 
5 0:1 1:0.66666667 2:96 3:3 4:2 5:18 
5 0:1 1:0.76923077 2:90 3:3 4:3 5:12 
5 0:0.83333333 1:0.90909091 2:95 4:2 5:11 
5 0:0.90909091 1:0.83333333 2:81 4:1 5:13 
0.6919782118560081 0:0.76923077 1:0.5 2:395 3:2 4:5 5:51 
5 0:1 1:0.83333333 2:173 3:2 4:4 5:28 
0.5697098062483552 0:0.83333333 1:0.71428571 2:430 3:3 4:5 5:53 
0.76720121945899 0:1 1:0.90909091 2:151 3:5 4:2 5:29 
0.6115946820875827 0:0.90909091 1:0.66666667 2:256 3:6 4:6 5:39 
3.281833364483137 0:0.90909091 1:0.76923077 2:234 3:3 4:4 5:35 
0.870562194270509 0:0.76923077 1:0.52631579 2:672 3:4 4:6 5:74 
3.151803854884459 0:0.58823529 1:0.625 2:669 3:3 4:7 5:84 
0.2427302731099339 0:1 1:0.90909091 2:77 4:3 5:15 
2.004824651135131 0:1 1:0.58823529 2:94 3:2 4:2 5:19 
2.504891363336268 0:1 1:0.71428571 2:102 3:3 4:3 5:15 
4.090360958578858 0:0.90909091 1:1 2:101 4:1 5:12 
2.505523631364222 0:0.71428571 1:0.83333333 2:348 3:4 4:4 5:49 
2.150037368013035 0:0.90909091 1:0.66666667 2:59 4:1 5:12 
0.7591959586186319 0:0.76923077 1:0.47619048 2:391 4:5 5:51 
1.419461055676056 0:1 1:0.83333333 2:174 3:2 4:4 5:25 
5 0:1 1:1 2:44 3:1 4:1 5:9 
1.442581121089468 0:0.83333333 1:0.71428571 2:425 3:7 4:5 5:54 
4.261165508354025 0:0.90909091 1:0.76923077 2:233 3:6 4:4 5:36 
4.57786374067953 0:0.90909091 1:0.76923077 2:264 3:4 4:4 5:39 
0.2259334366099243 0:0.71428571 1:0.47619048 2:765 3:5 4:8 5:84 
0.6669438603451285 0:0.58823529 1:0.58823529 2:614 3:2 4:7 5:80 
5 0:1 1:0.90909091 2:77 3:3 4:2 5:16 
2.814165603744546 0:1 1:0.66666667 2:103 3:2 4:3 5:19 
1.723129018866813 0:1 1:0.76923077 2:92 3:1 4:3 5:13 
5 0:0.90909091 1:0.90909091 2:92 3:1 4:1 5:14 
0.4620131489672965 0:0.625 1:0.83333333 2:349 3:3 4:4 5:49 
1.38827316339004 0:0.76923077 1:0.5 2:341 3:2 4:4 5:49 
1.329060861619741 0:1 1:0.76923077 2:166 3:2 4:4 5:27 
0.8047703448794137 0:0.76923077 1:0.71428571 2:481 3:3 4:5 5:58 
0.7784487149942722 0:0.90909091 1:0.71428571 2:421 3:9 4:5 5:55 
2.47437395551344 0:0.83333333 1:0.76923077 2:305 3:4 4:4 5:43 
0.8672244031502733 0:0.83333333 1:0.47619048 2:1007 3:14 4:8 5:93 
0.8669673167720401 0:0.83333333 1:0.625 2:959 3:7 4:7 5:99 
0.9388594807536836 0:1 1:0.41666667 2:124 3:1 4:3 5:18 
0.5938374003402508 0:1 1:0.66666667 2:139 3:3 4:3 5:25 
3.80248907531408 0:1 1:0.58823529 2:114 3:1 4:3 5:14 
5 0:0.83333333 1:0.90909091 2:112 4:2 5:14 
0.798301213032999 0:0.90909091 1:0.83333333 2:128 3:2 4:1 5:16 
0.8680380823511882 0:0.76923077 1:0.71428571 2:441 3:8 4:5 5:62 
0.8668501612771122 0:0.83333333 1:0.83333333 2:514 3:3 4:3 5:58 
5 0:0.90909091 1:1 2:92 4:1 5:15 
0.1771601813139919 0:1 1:0.83333333 2:217 3:1 4:4 5:33 
1.561002133829748 0:0.90909091 1:0.71428571 2:445 3:4 4:5 5:56 
0.4152249865636506 0:1 1:0.83333333 2:251 3:7 4:3 5:37 
0.851075880885246 0:1 1:1 2:226 3:5 4:1 5:33 
0.8673628526128583 0:0.83333333 1:0.58823529 2:745 3:5 4:4 5:83 
0.2327834386233169 0:0.58823529 1:0.625 2:684 3:2 4:7 5:85 
0.8492748635673245 0:1 1:0.52631579 2:93 3:1 4:3 5:17 
5 0:1 1:0.625 2:95 3:3 4:2 5:18 
5 0:1 1:0.76923077 2:90 3:3 4:3 5:12 
2.943549225965204 0:0.83333333 1:0.90909091 2:89 4:2 5:11 
1.377939588973338 0:0.83333333 1:0.90909091 2:127 3:3 4:2 5:21 
5 0:0.90909091 1:1 2:71 4:1 5:12 
0.7058288811655009 0:0.71428571 1:0.83333333 2:403 3:2 4:4 5:56 
3.090320156924945 0:0.76923077 1:0.66666667 2:385 3:3 4:3 5:49 
1.739171790866687 0:1 1:0.90909091 2:166 3:1 4:3 5:28 
0.8867277338931968 0:0.83333333 1:0.71428571 2:350 3:3 4:5 5:46 
1.387440371117495 0:1 1:0.71428571 2:287 3:6 4:5 5:39 
1.062996054454164 0:0.83333333 1:0.76923077 2:233 3:3 4:4 5:35 
1.084803383968568 0:0.83333333 1:0.47619048 2:761 3:3 4:8 5:87 
0.8472784249458372 0:0.625 1:0.55555556 2:783 3:1 4:8 5:89 
1.596955056711312 0:1 1:0.5 2:84 3:1 4:4 5:13 
2.149165866075365 0:0.90909091 1:0.90909091 2:147 3:2 4:2 5:26 
5 0:1 1:0.625 2:125 3:4 4:3 5:20 
5 0:1 1:0.71428571 2:81 3:1 4:3 5:15 
5 0:0.83333333 1:0.90909091 2:91 4:2 5:13 
3.090339463946 0:0.90909091 1:0.76923077 2:88 3:1 4:1 5:14 
2.585747589374873 0:0.71428571 1:0.83333333 2:371 3:3 4:4 5:50 
0.5526400775338629 0:0.83333333 1:0.58823529 2:424 3:3 4:6 5:56 
0.819119942601978 0:0.83333333 1:0.71428571 2:308 3:3 4:5 5:41 
0.5538155030514952 0:1 1:0.76923077 2:242 3:1 4:6 5:37 
1.748629348096296 0:0.83333333 1:0.76923077 2:231 3:4 4:5 5:36 
2.87732419559221 0:1 1:1 2:78 3:2 4:1 5:12 
0.9461348710700113 0:0.58823529 1:0.47619048 2:713 3:4 4:8 5:86 
0.9056742163789425 0:0.625 1:0.625 2:629 3:2 4:7 5:83 
5 0:0.90909091 1:1 2:79 3:1 4:2 5:13 
0.3816681786095032 0:0.90909091 1:1 2:82 3:3 4:2 5:18 
3.879512841942612 0:1 1:0.76923077 2:46 3:1 4:2 5:7 
0.4417229438586626 0:0.90909091 1:0.83333333 2:71 4:1 5:14 
0.7928773577932773 0:0.71428571 1:0.71428571 2:282 3:2 4:5 5:41 
1.146664396373919 0:0.76923077 1:0.45454545 2:318 3:2 4:5 5:49 
0.3538079458919906 0:1 1:0.83333333 2:182 3:2 4:4 5:32 
3.086582010585769 0:1 1:1 2:48 4:1 5:8 
0.8668482862937286 0:1 1:1 2:4 4:1 5:1 
1.12270120661222 0:0.90909091 1:0.66666667 2:440 3:4 4:6 5:55 
5 0:1 1:0.71428571 2:254 3:8 4:5 5:37 
5 0:0.90909091 1:0.76923077 2:236 3:5 4:4 5:34 
5 0:0.83333333 1:0.47619048 2:764 3:5 4:8 5:84 
5 0:0.58823529 1:0.625 2:664 3:2 4:7 5:84 
5 0:1 1:0.43478261 2:93 3:1 4:3 5:16 
1.197633616335349 0:1 1:0.66666667 2:78 3:3 4:3 5:10 
5 0:0.83333333 1:0.90909091 2:75 4:2 5:9 
5 0:0.90909091 1:0.71428571 2:67 4:1 5:11 
5 0:0.66666667 1:0.83333333 2:389 3:4 4:4 5:52 
5 0:0.83333333 1:0.71428571 2:464 3:4 4:5 5:57 
5 0:1 1:0.71428571 2:273 3:8 4:5 5:39 
5 0:0.90909091 1:0.76923077 2:258 3:5 4:4 5:36 
5 0:0.83333333 1:0.47619048 2:786 3:5 4:8 5:85 
5 0:0.58823529 1:0.625 2:689 3:2 4:7 5:86 
5 0:1 1:1 2:86 3:1 4:1 5:11 
5 0:0.76923077 1:0.5 2:387 3:3 4:5 5:51 
0.3992671031834861 0:0.83333333 1:0.83333333 2:111 3:3 4:2 5:15 
5 0:0.90909091 1:0.90909091 2:101 3:1 4:2 5:13 
1.266558492971259 0:0.66666667 1:0.83333333 2:413 3:4 4:4 5:54 
5 0:0.76923077 1:0.5 2:413 3:2 4:5 5:53 
5 0:1 1:0.83333333 2:173 3:2 4:4 5:28 
3.445788731594626 0:1 1:0.83333333 2:155 3:2 4:4 5:26 
1.96096058728119 0:0.83333333 1:0.71428571 2:490 3:4 4:5 5:60 
0.4512323821751054 0:1 1:0.66666667 2:292 3:8 4:5 5:40 
1.064990333133199 0:1 1:0.76923077 2:264 3:4 4:4 5:39 
0.8929130329246144 0:0.83333333 1:0.47619048 2:782 3:5 4:8 5:90 
0.8670054083086999 0:0.625 1:0.625 2:728 3:2 4:7 5:91 
4.655841101391351 0:1 1:1 2:74 3:3 4:1 5:14 
1.061306540094236 0:0.90909091 1:1 2:92 3:3 4:2 5:18 
4.585980640272509 0:1 1:0.76923077 2:88 3:2 4:3 5:12 
5 0:0.83333333 1:0.90909091 2:88 4:2 5:12 
5 0:1 1:1 2:76 4:1 5:13 
1.224147930118981 0:0.71428571 1:0.83333333 2:377 3:6 4:4 5:52 
0.6172420047257299 0:0.83333333 1:0.52631579 2:397 3:2 4:3 5:54 
2.098097468748397 0:1 1:0.83333333 2:176 3:2 4:4 5:29 
0.7845707051304421 0:0.83333333 1:0.71428571 2:445 3:7 4:5 5:55 
1.07754964868667 0:1 1:0.71428571 2:315 3:10 4:5 5:43 
0.7648219356193918 0:0.90909091 1:0.76923077 2:269 3:4 4:4 5:37 
1.004861365825689 0:0.83333333 1:0.45454545 2:890 3:7 4:9 5:96 
2.05899914631869 0:0.58823529 1:0.625 2:713 3:3 4:7 5:89 
1.730823255752595 0:1 1:0.83333333 2:91 3:1 4:3 5:16 
5 0:0.90909091 1:0.90909091 2:84 3:3 4:2 5:13 
0.090342392860864 0:1 1:0.83333333 2:113 3:3 4:3 5:16 
3.43114685348644 0:0.83333333 1:0.90909091 2:97 4:2 5:11 
0.2862603099932879 0:0.90909091 1:0.90909091 2:93 3:1 4:1 5:14 
0.9940847613415097 0:0.83333333 1:0.71428571 2:421 3:5 4:6 5:49 
1.06200830377146 0:0.83333333 1:0.47619048 2:464 3:2 4:5 5:55 
1.627560709928048 0:1 1:0.83333333 2:190 3:4 4:4 5:30 
5 0:1 1:0.76923077 2:240 3:2 4:3 5:33 
1.942499468731352 0:0.83333333 1:0.76923077 2:262 3:6 4:4 5:37 
1.551553687693679 0:0.90909091 1:0.76923077 2:224 3:3 4:4 5:35 
0.8672046127127628 0:0.76923077 1:0.5 2:549 3:5 4:7 5:62 
0.8642194526863462 0:0.625 1:0.66666667 2:508 3:4 4:5 5:69 
1.772587495106126 0:0.83333333 1:1 2:91 3:2 4:2 5:18 
2.321069303232146 0:1 1:1 2:118 3:2 4:2 5:17 
5 0:0.76923077 1:0.90909091 2:103 4:2 5:15 
5 0:0.90909091 1:0.90909091 2:80 4:1 5:13 
0.8486095660171475 0:0.83333333 1:0.76923077 2:257 3:2 4:4 5:36 
1.119956074315032 0:0.76923077 1:0.5 2:310 4:4 5:43 
5 0:1 1:0.83333333 2:123 3:2 4:3 5:22 
0.05315928437335274 0:0.83333333 1:0.71428571 2:442 3:4 4:5 5:55 
0.5204869107519828 0:1 1:0.71428571 2:293 3:7 4:5 5:41 
4.45072590604538 0:0.90909091 1:0.76923077 2:266 3:5 4:4 5:36 
0.8318016698584909 0:0.83333333 1:0.47619048 2:814 3:5 4:8 5:89 
0.8733942049667718 0:0.58823529 1:0.625 2:733 3:2 4:7 5:88 
2.022015777215552 0:1 1:0.625 2:109 3:3 4:2 5:20 
3.537836072706769 0:1 1:0.76923077 2:91 3:2 4:3 5:15 
5 0:0.83333333 1:0.90909091 2:108 4:2 5:14 
5 0:0.90909091 1:0.76923077 2:83 4:1 5:15 
0.6135437518192843 0:0.66666667 1:0.83333333 2:426 3:4 4:4 5:58 
0.8054137602292418 0:0.83333333 1:0.71428571 2:304 3:4 4:4 5:39 
0.07032122803394533 0:0.71428571 1:0.71428571 2:248 3:6 4:6 5:37 
0.8295651493593443 0:0.90909091 1:0.76923077 2:210 3:2 4:5 5:31 
0.8580071709831059 0:0.76923077 1:0.55555556 2:715 3:9 4:8 5:83 
2.9659617387256 0:0.71428571 1:0.76923077 2:391 3:6 4:5 5:54 
2.783624810657751 0:0.90909091 1:0.71428571 2:167 3:4 4:4 5:27 
0.891177662186076 0:1 1:1 2:104 3:4 4:4 5:17 
2.681916275683646 0:0.83333333 1:0.83333333 2:116 3:2 4:3 5:20 
0.8654799855932946 0:0.83333333 1:0.90909091 2:152 4:2 5:19 
0.8873900263899057 0:0.71428571 1:0.76923077 2:293 3:4 4:5 5:45 
1.227601662100681 0:0.90909091 1:0.71428571 2:272 3:2 4:6 5:37 
5 0:0.83333333 1:0.90909091 2:169 3:2 4:4 5:29 
1.426032484582653 0:0.76923077 1:0.71428571 2:460 3:3 4:5 5:60 
1.018919053235337 0:0.90909091 1:0.76923077 2:275 3:5 4:3 5:41 
2.996189776497102 0:0.83333333 1:0.76923077 2:260 3:1 4:4 5:38 
1.327571213476925 0:0.625 1:0.5 2:738 3:5 4:7 5:79 
0.9122597833179115 0:0.625 1:0.625 2:724 3:2 4:7 5:87 
2.552807179579551 0:1 1:0.76923077 2:96 3:1 4:4 5:17 
2.227145231979768 0:0.83333333 1:0.625 2:102 3:3 4:2 5:18 
0.1531317072837948 0:1 1:0.625 2:112 3:2 4:3 5:18 
5 0:0.83333333 1:0.90909091 2:101 4:2 5:14 
1.141965432829954 0:1 1:0.90909091 2:85 4:2 5:16 
1.643448346035378 0:0.71428571 1:0.76923077 2:402 3:3 4:5 5:54 
1.218635882092592 0:0.71428571 1:0.5 2:432 3:4 4:5 5:55 
0.7784056915170177 0:1 1:0.76923077 2:196 3:3 4:4 5:34 
1.386484763359752 0:0.83333333 1:0.76923077 2:335 3:3 4:4 5:46 
2.536895008906757 0:0.83333333 1:0.76923077 2:337 3:5 4:4 5:47 
0.785488096954325 0:1 1:0.71428571 2:255 3:8 4:4 5:35 
3.596142259536623 0:0.90909091 1:0.83333333 2:230 3:5 4:4 5:33 
0.8907085545142359 0:0.83333333 1:0.58823529 2:681 3:4 4:7 5:75 
0.8628682734199267 0:0.625 1:0.71428571 2:512 3:2 4:5 5:66 
0.4731808791256574 0:1 1:1 2:91 3:1 4:3 5:14 
0.7097001170907319 0:1 1:0.71428571 2:133 3:5 4:5 5:18 
2.16312555909234 0:0.83333333 1:0.90909091 2:94 4:2 5:13 
5 0:1 1:0.76923077 2:61 3:1 4:1 5:11 
0.690528293908544 0:1 1:0.76923077 2:184 3:5 4:3 5:28 
1.131787014170604 0:0.66666667 1:0.83333333 2:404 3:4 4:4 5:53 
0.8389915550484189 0:0.83333333 1:0.625 2:285 3:2 4:5 5:36 
0.3314808389325941 0:1 1:0.83333333 2:152 3:2 4:5 5:23 
1.542371595890763 0:1 1:0.66666667 2:234 3:3 4:6 5:37 
0.4597305734891728 0:0.76923077 1:0.5 2:659 3:5 4:7 5:73 
0.6664614984107363 0:0.66666667 1:0.66666667 2:614 3:1 4:6 5:78 
5 0:0.90909091 1:0.71428571 2:220 3:7 4:5 5:33 
5 0:0.90909091 1:0.76923077 2:231 3:5 4:4 5:34 
0.8158206721406842 0:0.83333333 1:0.47619048 2:720 3:7 4:8 5:82 
5 0:0.58823529 1:0.625 2:696 3:3 4:7 5:88 
5 0:1 1:0.83333333 2:80 3:2 4:3 5:15 
2.210284322064953 0:1 1:0.76923077 2:87 3:1 4:3 5:13 
5 0:0.90909091 1:0.83333333 2:93 4:1 5:15 
5 0:0.83333333 1:0.90909091 2:270 3:2 4:1 5:43 
5 0:0.90909091 1:1 2:99 3:1 4:3 5:16 
5 0:0.76923077 1:0.5 2:404 3:4 4:4 5:57 
1.583635124586374 0:1 1:0.83333333 2:151 4:3 5:24 
3.832598252564629 0:1 1:1 2:46 3:1 4:2 5:7 
2.885835886579272 0:0.90909091 1:0.71428571 2:448 3:4 4:5 5:60 
1.800418918309964 0:1 1:0.71428571 2:221 3:6 4:5 5:33 
1.344246160799377 0:0.90909091 1:0.76923077 2:210 3:1 4:4 5:34 
0.8480310454798312 0:0.76923077 1:0.5 2:656 3:6 4:7 5:76 
1.003666702150505 0:0.625 1:0.625 2:700 3:3 4:7 5:88 
5 0:1 1:1 2:89 3:2 4:2 5:17 
4.359987793231653 0:1 1:0.52631579 2:114 3:1 4:4 5:19 
3.137209346338539 0:1 1:0.625 2:89 3:4 4:3 5:16 
5 0:0.90909091 1:1 2:110 3:2 4:3 5:21 
5 0:0.83333333 1:0.90909091 2:111 3:2 4:2 5:18 
5 0:0.83333333 1:0.76923077 2:81 4:1 5:13 
1.097611887876018 0:0.71428571 1:0.83333333 2:373 3:5 4:4 5:54 
0.861324264609899 0:0.76923077 1:0.5 2:458 3:6 4:4 5:61 
0.1631857057105022 0:1 1:0.83333333 2:175 3:2 4:4 5:26 
0.8197111745296128 0:0.90909091 1:0.71428571 2:324 3:5 4:5 5:39 
1.73461623482036 0:1 1:0.71428571 2:113 3:2 4:1 5:18 
4.46062057672013 0:0.83333333 1:0.83333333 2:102 4:3 5:15 
1.23108395348685 0:1 1:0.83333333 2:158 3:2 4:3 5:25 
0.8654715262027074 0:1 1:0.45454545 2:514 3:5 4:9 5:64 
0.8421527599033978 0:0.71428571 1:0.66666667 2:598 3:2 4:6 5:76 
2.185608472394011 0:1 1:0.38461538 2:87 4:2 5:11 
2.079285556956187 0:0.90909091 1:0.71428571 2:78 3:2 4:1 5:11 
5 0:1 1:0.58823529 2:69 3:2 4:1 5:12 
1.762240281911352 0:1 1:1 2:66 4:1 5:9 
0.386442186328687 0:1 1:0.76923077 2:66 3:1 4:1 5:13 
1.999131576512056 0:0.83333333 1:0.76923077 2:180 3:4 4:5 5:28 
0.6327499096440434 0:0.90909091 1:0.71428571 2:193 3:1 4:2 5:28 
4.536382220245788 0:1 1:0.90909091 2:78 3:1 4:2 5:13 
3.070871867621147 0:1 1:1 2:108 4:2 5:17 
1.845990076283523 0:0.90909091 1:0.90909091 2:401 3:5 4:2 5:51 
0.5635965895040184 0:1 1:0.71428571 2:226 3:3 4:3 5:34 
2.462281878449738 0:0.83333333 1:0.83333333 2:230 3:3 4:3 5:35 
0.9146830608714014 0:0.90909091 1:0.71428571 2:271 3:4 4:1 5:40 
0.8626023756482016 0:0.71428571 1:0.66666667 2:567 3:3 4:6 5:70 
0.6016906437031239 0:1 1:0.90909091 2:91 3:2 4:2 5:17 
5 0:1 1:0.90909091 2:91 3:3 4:2 5:16 
5 0:1 1:1 2:100 3:3 4:2 5:15 
0.7554465681354375 0:0.83333333 1:1 2:81 4:1 5:10 
0.4575801243288828 0:0.83333333 1:0.76923077 2:281 3:2 4:5 5:39 
1.745041525298179 0:1 1:0.90909091 2:94 3:1 4:1 5:16 
1.078735948696287 0:0.66666667 1:0.90909091 2:310 3:3 4:4 5:44 
2.108140871811276 0:0.83333333 1:0.55555556 2:313 3:2 4:2 5:48 
5 0:0.90909091 1:0.83333333 2:160 3:2 4:3 5:28 
0.9101897127203763 0:0.83333333 1:0.71428571 2:363 3:3 4:5 5:52 
0.9334616246421684 0:1 1:0.71428571 2:281 3:7 4:5 5:43 
0.786811724081545 0:0.90909091 1:0.76923077 2:270 3:3 4:4 5:39 
0.823940579279117 0:0.83333333 1:0.47619048 2:801 3:5 4:8 5:91 
0.8665884324132711 0:0.58823529 1:0.625 2:654 3:2 4:7 5:88 
3.497184950833408 0:1 1:0.52631579 2:106 3:2 4:4 5:15 
0.4172890071203276 0:0.83333333 1:0.47619048 2:338 3:1 4:5 5:50 
5 0:0.90909091 1:0.66666667 2:95 3:4 4:3 5:16 
3.611479812269604 0:1 1:0.76923077 2:90 3:1 4:3 5:11 
2.764084616589138 0:0.90909091 1:0.83333333 2:105 4:1 5:17 
0.7723389520844559 0:0.66666667 1:0.83333333 2:345 3:4 4:4 5:49 
0.9371267739558999 0:0.76923077 1:0.5 2:443 4:5 5:58 
0.8707522412335778 0:1 1:0.83333333 2:208 3:4 4:4 5:30 
0.8976223291459573 0:0.90909091 1:0.76923077 2:447 3:2 4:4 5:51 
1.324596548146613 0:0.90909091 1:0.76923077 2:252 3:2 4:4 5:36 
1.173370469728009 0:0.90909091 1:0.76923077 2:214 3:4 4:4 5:36 
1.939618547465211 0:1 1:0.83333333 2:153 3:1 4:4 5:27 
0.8985727907316115 0:0.90909091 1:0.58823529 2:630 3:3 4:4 5:69 
0.8730133344976984 0:0.83333333 1:0.71428571 2:500 3:3 4:4 5:72 
5 0:1 1:0.58823529 2:98 3:1 4:1 5:16 
0.02428492875618778 0:1 1:0.52631579 2:118 3:2 4:2 5:21 
3.088368535176608 0:0.83333333 1:1 2:98 4:1 5:12 
2.117301889445814 0:0.90909091 1:0.83333333 2:298 4:3 5:38 
1.55323154881672 0:0.71428571 1:0.625 2:385 3:4 4:3 5:54 
1.87191959145587 0:1 1:0.90909091 2:162 3:1 4:2 5:25 
2.446191863720611 0:1 1:1 2:66 3:3 4:1 5:13 
5 0:1 1:0.83333333 2:92 4:2 5:17 
0.4780434200046523 0:1 1:0.90909091 2:23 4:1 5:3 
4.677924918840593 0:0.90909091 1:0.76923077 2:56 3:1 4:1 5:10 
1.330747527946278 0:1 1:0.90909091 2:39 4:2 5:7 
1.265177574048248 0:1 1:0.76923077 2:42 4:1 5:6 
3.501833630090843 0:1 1:1 2:34 4:1 5:6 
0.5516836326912434 0:1 1:0.83333333 2:50 4:2 5:8 
5 0:1 1:0.71428571 2:75 3:1 4:2 5:14 
0.7891112882119885 0:0.83333333 1:0.71428571 2:484 3:4 4:5 5:57 
5 0:1 1:0.71428571 2:288 3:8 4:5 5:39 
5 0:0.90909091 1:0.76923077 2:293 3:5 4:4 5:36 
4.926079480156615 0:0.83333333 1:0.5 2:814 3:5 4:8 5:85 
5 0:0.58823529 1:0.625 2:686 3:2 4:7 5:86 
4.781262591056826 0:1 1:0.52631579 2:111 3:2 4:4 5:17 
0.6341582197110569 0:1 1:1 2:39 4:1 5:6 
5 0:1 1:0.76923077 2:99 3:3 4:3 5:12 
5 0:0.83333333 1:0.90909091 2:101 4:2 5:11 
5 0:0.90909091 1:0.83333333 2:83 4:1 5:13 
5 0:0.66666667 1:0.83333333 2:423 3:5 4:4 5:54 
5 0:0.76923077 1:0.5 2:438 3:2 4:5 5:56 
5 0:1 1:0.83333333 2:189 3:2 4:4 5:30 
4.923885074896842 0:1 1:0.90909091 2:39 4:2 5:7 
1.039715669228568 0:0.76923077 1:0.71428571 2:429 3:3 4:5 5:56 
5 0:1 1:0.83333333 2:247 3:8 4:5 5:37 
0.2420011899102654 0:0.90909091 1:0.71428571 2:268 3:3 4:6 5:37 
0.8672006326880906 0:0.76923077 1:0.47619048 2:726 3:5 4:8 5:78 
0.8328405457244943 0:0.625 1:0.625 2:709 3:2 4:8 5:84 
5 0:1 1:0.625 2:65 4:2 5:9 
4.551897373513942 0:0.83333333 1:0.76923077 2:97 3:2 4:2 5:18 
5 0:1 1:0.90909091 2:87 3:2 4:3 5:14 
2.260060079167967 0:0.71428571 1:0.83333333 2:382 3:4 4:4 5:52 
0.8531010322394331 0:0.76923077 1:0.5 2:415 3:4 4:4 5:57 
0.1894447497339958 0:1 1:0.83333333 2:152 3:2 4:4 5:28 
0.6359979373501887 0:0.71428571 1:0.66666667 2:451 3:4 4:6 5:62 
0.9593870876415459 0:0.76923077 1:0.625 2:322 3:6 4:4 5:42 
1.539469198886755 0:0.66666667 1:0.76923077 2:261 3:3 4:4 5:37 
0.8658452481032508 0:0.66666667 1:0.5 2:810 3:5 4:7 5:93 
0.898249662497735 0:0.625 1:0.76923077 2:521 3:3 4:4 5:69 
2.689059673773217 0:1 1:0.52631579 2:91 4:4 5:15 
5 0:0.90909091 1:0.76923077 2:81 3:2 4:2 5:12 
5 0:1 1:0.76923077 2:110 3:2 4:3 5:16 
5 0:0.83333333 1:0.90909091 2:99 4:2 5:13 
0.8189786678622393 0:0.90909091 1:0.83333333 2:117 3:2 4:1 5:18 
0.6143351162264183 0:0.83333333 1:0.58823529 2:451 3:2 4:6 5:58 
0.7475505682103513 0:0.90909091 1:0.83333333 2:209 3:4 4:4 5:29 
5 0:0.83333333 1:0.71428571 2:457 3:4 4:5 5:59 
5 0:1 1:0.71428571 2:288 3:5 4:5 5:38 
5 0:0.90909091 1:0.76923077 2:273 3:5 4:4 5:37 
0.8542945420830874 0:0.83333333 1:0.45454545 2:805 3:3 4:9 5:90 
5 0:0.58823529 1:0.625 2:741 3:1 4:7 5:97 
5 0:1 1:0.52631579 2:121 3:1 4:4 5:20 
5 0:1 1:0.66666667 2:110 3:3 4:2 5:19 
5 0:1 1:0.76923077 2:99 3:3 4:3 5:13 
5 0:0.83333333 1:0.90909091 2:104 4:2 5:12 
5 0:0.90909091 1:0.83333333 2:94 4:1 5:14 
4.567926323553104 0:0.66666667 1:0.83333333 2:403 3:3 4:4 5:56 
5 0:0.76923077 1:0.5 2:434 3:1 4:5 5:58 
4.657579403822108 0:1 1:0.83333333 2:201 3:2 4:4 5:31 
4.091751379539827 0:0.83333333 1:0.71428571 2:464 3:4 4:5 5:59 
5 0:0.66666667 1:0.83333333 2:410 3:4 4:4 5:54 
5 0:0.66666667 1:0.83333333 2:410 3:4 4:4 5:54 
5 0:0.66666667 1:0.83333333 2:410 3:4 4:4 5:54 
5 0:0.66666667 1:0.83333333 2:410 3:4 4:4 5:54 
5 0:1 1:0.52631579 2:120 3:2 4:4 5:20 
4.728614459176038 0:1 1:0.66666667 2:106 3:3 4:2 5:20 
2.088920152302095 0:1 1:0.76923077 2:71 3:2 4:3 5:10 
4.065168760153001 0:0.90909091 1:0.90909091 2:79 4:2 5:9 
5 0:0.76923077 1:1 2:97 4:1 5:14 
1.279668603685895 0:0.66666667 1:0.90909091 2:391 3:4 4:3 5:54 
5 0:0.66666667 1:0.83333333 2:410 3:4 4:4 5:54 
5 0:0.66666667 1:0.83333333 2:410 3:4 4:4 5:54 
0.1340965212536181 0:0.83333333 1:0.71428571 2:428 3:4 4:5 5:56 
1.288983135383797 0:1 1:0.71428571 2:289 3:8 4:5 5:41 
1.928311013986328 0:0.90909091 1:0.76923077 2:254 3:4 4:5 5:36 
1.674614128279299 0:0.83333333 1:0.47619048 2:777 3:5 4:8 5:85 
5 0:0.625 1:0.625 2:618 3:2 4:6 5:80 
1.372459710685364 0:1 1:0.66666667 2:106 3:4 4:3 5:19 
4.206279214216189 0:1 1:0.76923077 2:88 3:1 4:3 5:16 
1.277545147650067 0:0.83333333 1:0.90909091 2:112 3:1 4:2 5:14 
0.6001422160050789 0:0.66666667 1:0.83333333 2:405 3:4 4:4 5:56 
0.6680771229386768 0:0.76923077 1:0.52631579 2:409 3:2 4:5 5:56 
0.2505828225005448 0:1 1:0.83333333 2:181 3:3 4:5 5:29 
0.7781223353356249 0:0.83333333 1:0.71428571 2:412 3:3 4:5 5:60 
0.9120222774848056 0:1 1:0.71428571 2:252 3:7 4:5 5:38 
3.179150952586459 0:0.90909091 1:0.83333333 2:205 3:2 4:4 5:28 
0.6553609199722179 0:0.83333333 1:0.47619048 2:801 3:5 4:8 5:86 
1.424329600737306 0:0.58823529 1:0.625 2:719 3:1 4:7 5:88 
0.8544378663375974 0:1 1:0.76923077 2:131 4:6 5:14 
3.409607275461117 0:0.90909091 1:0.625 2:109 3:3 4:3 5:17 
1.536844417986148 0:1 1:0.76923077 2:96 4:3 5:12 
1.227576209727593 0:0.83333333 1:0.90909091 2:107 4:2 5:11 
0.8666021183129871 0:0.76923077 1:0.76923077 2:437 3:5 4:5 5:66 
0.6694819646099127 0:0.83333333 1:0.47619048 2:453 3:3 4:6 5:57 
0.7879363910022306 0:0.76923077 1:0.71428571 2:494 3:4 4:5 5:62 
1.432158154836434 0:1 1:0.71428571 2:226 3:5 4:5 5:34 
0.9182016936766273 0:0.83333333 1:0.76923077 2:243 3:1 4:4 5:32 
0.8695683170644418 0:0.83333333 1:0.45454545 2:700 3:4 4:9 5:78 
0.5978538691599932 0:0.625 1:0.625 2:694 4:7 5:81 
2.60311408373174 0:1 1:0.5 2:105 4:4 5:16 
3.152685746587415 0:1 1:0.625 2:98 4:3 5:19 
3.407475916537947 0:0.83333333 1:0.90909091 2:104 4:2 5:14 
5 0:0.90909091 1:0.83333333 2:76 4:1 5:11 
3.096642761929283 0:0.71428571 1:0.83333333 2:392 3:4 4:4 5:54 
0.9235151461231891 0:0.76923077 1:0.5 2:375 3:1 4:4 5:51 
4.657104037502718 0:1 1:0.76923077 2:169 3:1 4:4 5:25 
0.8623102814059933 0:0.90909091 1:0.71428571 2:350 3:3 4:4 5:41 
1.880783480408514 0:1 1:0.71428571 2:285 3:7 4:4 5:41 
2.251374443161957 0:0.90909091 1:0.71428571 2:257 3:5 4:5 5:36 
0.1534128076510485 0:0.83333333 1:0.47619048 2:802 3:5 4:8 5:87 
3.183813291556943 0:0.58823529 1:0.625 2:694 3:3 4:7 5:87 
0.3715105895724222 0:1 1:0.5 2:152 3:2 4:5 5:24 
0.9605096638634246 0:1 1:0.66666667 2:160 3:5 4:3 5:25 
0.6436828838248068 0:1 1:0.71428571 2:114 3:3 4:5 5:15 
5 0:0.83333333 1:0.90909091 2:94 4:2 5:12 
0.2716026194175892 0:0.71428571 1:0.83333333 2:426 3:4 4:4 5:56 
4.857515677431769 0:0.76923077 1:0.5 2:418 3:3 4:5 5:55 
0.6081386971512255 0:1 1:0.83333333 2:182 3:2 4:5 5:30 
4.975953534356281 0:0.71428571 1:0.71428571 2:396 3:3 4:5 5:52 
5 0:0.90909091 1:0.71428571 2:231 3:6 4:5 5:38 
5 0:1 1:0.76923077 2:196 3:5 4:4 5:33 
5 0:0.71428571 1:0.47619048 2:683 3:7 4:8 5:81 
0.8069021596740273 0:0.58823529 1:0.625 2:638 3:3 4:7 5:80 
5 0:1 1:0.625 2:62 3:3 4:2 5:11 
5 0:0.90909091 1:0.66666667 2:62 3:3 4:1 5:12 
5 0:1 1:0.76923077 2:55 3:1 4:2 5:10 
5 0:0.83333333 1:0.90909091 2:82 4:2 5:12 
5 0:0.90909091 1:0.83333333 2:58 3:1 4:1 5:12 
5 0:0.66666667 1:0.83333333 2:369 3:4 4:4 5:52 
4.997155613093423 0:0.76923077 1:0.55555556 2:383 3:4 4:4 5:55 
5 0:1 1:0.83333333 2:129 3:2 4:4 5:25 
2.775270019048913 0:1 1:0.90909091 2:34 3:2 4:1 5:7 
3.803231796501866 0:1 1:0.90909091 2:39 3:1 4:1 5:9 
0.1022421238452655 0:1 1:0.90909091 2:26 3:1 4:1 5:4 
0.3824551477456787 0:1 1:0.90909091 2:21 4:1 5:3 
0.4128965536648422 0:1 1:1 2:24 3:1 4:1 5:5 
5 0:1 1:0.83333333 2:36 3:1 4:2 5:6 
0.09896054014846058 0:1 1:0.90909091 2:24 4:1 5:5 
0.3093468712233953 0:1 1:0.90909091 2:27 4:1 5:5 
0.6875836022123749 0:0.90909091 1:1 2:225 3:2 4:1 5:35 
1.211032995538307 0:1 1:1 2:51 3:1 4:1 5:11 
0.2085823491220728 0:1 1:1 2:20 4:1 5:4 
4.473136439731861 0:1 1:0.83333333 2:76 3:1 4:2 5:10 
1.914562958404165 0:1 1:1 2:107 3:2 4:1 5:20 
0.9771801250291974 0:0.90909091 1:1 2:90 3:3 4:1 5:16 
5 0:1 1:1 2:57 3:2 4:1 5:11 
3.411790802092317 0:1 1:1 2:50 3:1 4:1 5:9 
0.7188323238290669 0:1 1:1 2:18 4:1 5:4 
0.8396127829626308 0:0.90909091 1:1 2:142 4:1 5:26 
3.750064998016734 0:1 1:1 2:34 4:1 5:6 
1.059994097526491 0:1 1:1 2:27 4:1 5:6 
3.021455124144653 0:0.83333333 1:0.71428571 2:398 3:4 4:5 5:54 
1.313953413013638 0:1 1:0.71428571 2:223 3:8 4:5 5:37 
0.4994562230142363 0:0.90909091 1:0.83333333 2:146 3:4 4:3 5:27 
1.039401845978963 0:1 1:0.76923077 2:172 3:1 4:3 5:22 
2.80383236424018 0:0.76923077 1:0.83333333 2:198 3:4 4:3 5:35 
3.167360849227812 0:0.76923077 1:0.76923077 2:59 3:1 4:1 5:10 
2.413861742522647 0:1 1:0.625 2:71 3:3 4:2 5:15 
3.169673320870369 0:0.83333333 1:0.90909091 2:61 4:2 5:9 
3.703351472177359 0:1 1:0.83333333 2:55 3:2 4:2 5:10 
2.423700829252124 0:0.90909091 1:1 2:72 4:2 5:12 
1.942264563789066 0:0.76923077 1:0.76923077 2:219 3:6 4:4 5:31 
3.938342788075206 0:0.83333333 1:0.76923077 2:130 3:1 4:3 5:22 
1.956265275654518 0:0.90909091 1:0.76923077 2:160 3:3 4:4 5:27 
0.801016845635961 0:1 1:0.83333333 2:62 3:2 4:2 5:8 
4.975475029626962 0:1 1:0.90909091 2:64 3:1 4:2 5:12 
0.7127522136667944 0:1 1:0.90909091 2:48 3:3 4:1 5:11 
5 0:1 1:0.71428571 2:344 3:4 4:4 5:48 
0.915599525855639 0:1 1:0.76923077 2:216 3:9 4:4 5:35 
4.609205349389265 0:1 1:0.83333333 2:189 3:4 4:3 5:29 
1.845106356229986 0:0.83333333 1:0.5 2:734 3:5 4:8 5:82 
0.8700710008200707 0:0.71428571 1:0.76923077 2:486 3:2 4:4 5:66 
4.969490009476023 0:1 1:1 2:80 3:4 4:2 5:15 
3.508545406916924 0:1 1:1 2:35 4:1 5:7 
0.9330508420364887 0:1 1:1 2:49 3:3 4:1 5:13 
5 0:1 1:0.90909091 2:50 3:2 4:2 5:10 
5 0:1 1:1 2:36 4:1 5:6 
5 0:0.90909091 1:0.90909091 2:54 4:1 5:11 
4.969105747553201 0:0.90909091 1:0.90909091 2:197 3:2 4:2 5:27 
0.5785121989372916 0:1 1:0.83333333 2:137 3:2 4:3 5:25 
3.496037937242839 0:0.76923077 1:0.90909091 2:63 4:2 5:10 
-1.132820518628852 0:0.34482759 1:0.29411765 2:2981 3:7 4:24 5:257 
-1.133149240949235 0:0.90909091 1:0.18518519 2:2749 3:36 4:45 5:236 
-1.132960530978932 0:0.76923077 1:0.16949153 2:2686 3:45 4:49 5:184 
-1.132974695117774 0:0.18518519 1:0.2173913 2:2722 3:24 4:37 5:268 
-1.13285721544983 0:0.22222222 1:0.32258065 2:3050 3:21 4:21 5:258 
-1.133151469466654 0:0.34482759 1:0.3125 2:2949 3:10 4:22 5:220 
-1.133173493468605 0:0.25641026 1:0.26315789 2:2855 3:32 4:28 5:283 
-1.132977468108913 0:0.43478261 1:0.15151515 2:2708 3:44 4:57 5:243 
-1.133055541500115 0:0.20408163 1:0.28571429 2:2920 3:19 4:25 5:255 
-1.133080625033409 0:0.27027027 1:0.27777778 2:2695 3:33 4:23 5:253 
-1.133168498068726 0:0.625 1:0.16949153 2:2551 3:16 4:49 5:213 
-1.133074125219239 0:0.38461538 1:0.22222222 2:2670 3:21 4:35 5:225 
-1.133165610005388 0:0.45454545 1:0.29411765 2:2970 3:9 4:24 5:219 
-1.132972435122505 0:0.55555556 1:0.26315789 2:2659 3:24 4:30 5:258 
-1.133100859394502 0:0.43478261 1:0.20833333 2:2486 3:37 4:38 5:194 
-1.133033164368336 0:0.38461538 1:0.21276596 2:2738 3:34 4:39 5:212 
-1.133170377143152 0:0.26315789 1:0.27027027 2:2894 3:7 4:27 5:244 
-1.132998417158086 0:0.26315789 1:0.28571429 2:2657 3:23 4:26 5:232 
-1.133058552343382 0:1 1:0.29411765 2:2577 3:34 4:24 5:214 
-1.133079904532157 0:0.2173913 1:0.29411765 2:2791 3:15 4:27 5:236 
-1.133397148957102 0:0.38461538 1:0.22727273 2:2739 3:31 4:36 5:258 
-1.133126280077318 0:0.35714286 1:0.21276596 2:2388 3:50 4:39 5:189 
-1.132917932347303 0:0.52631579 1:0.20408163 2:2700 3:24 4:39 5:217 
-1.132904730144264 0:0.76923077 1:0.14925373 2:2540 3:31 4:57 5:150 
-1.132976451274876 0:0.47619048 1:0.17241379 2:2609 3:31 4:49 5:253 
-1.133187232840703 0:0.55555556 1:0.14925373 2:2630 3:32 4:57 5:220 
-1.132926870131352 0:0.37037037 1:0.27027027 2:2800 3:23 4:27 5:251 
-1.132912906223652 0:0.37037037 1:0.18867925 2:2693 3:39 4:39 5:232 
-1.132978395376866 0:0.41666667 1:0.33333333 2:2435 3:44 4:22 5:251 
-1.132998417158086 0:0.37037037 1:0.3125 2:2378 3:64 4:23 5:219 
-1.132851646288152 0:0.32258065 1:0.20833333 2:2926 3:5 4:38 5:282 
-1.133227196556486 0:0.22222222 1:0.23255814 2:2833 3:8 4:32 5:250 
-1.133366826396661 0:0.20833333 1:0.20408163 2:2686 3:26 4:37 5:241 
-1.133203752194258 0:0.26315789 1:0.25641026 2:2517 3:28 4:29 5:209 
-1.133227528323293 0:0.25641026 1:0.27777778 2:2490 3:31 4:26 5:192 
-1.133229194797868 0:0.25641026 1:0.23809524 2:2627 3:23 4:32 5:229 
-1.132885406260787 0:0.4 1:0.18181818 2:2576 3:40 4:46 5:212 
-1.132770003217585 0:0.22222222 1:0.26315789 2:2740 3:22 4:28 5:262 
-1.132791968878349 0:0.25 1:0.3125 2:2885 3:19 4:22 5:261 
-1.13278741636802 0:0.23255814 1:0.25 2:2644 3:27 4:29 5:251 
-1.132837268744469 0:0.19230769 1:0.16949153 2:2684 3:28 4:51 5:201 
-1.133173300696555 0:0.23809524 1:0.28571429 2:2933 3:12 4:24 5:250 
-1.133167957092896 0:0.5 1:0.28571429 2:2536 3:38 4:25 5:259 
-1.133169947388115 0:0.38461538 1:0.25641026 2:2817 3:14 4:29 5:255 
-1.133208290191303 0:0.90909091 1:0.3125 2:2402 3:27 4:22 5:236 
-1.133211037595049 0:1 1:0.14705882 2:2509 3:52 4:56 5:187 
-1.133087032321477 0:0.76923077 1:0.27777778 2:2503 3:47 4:26 5:222 
-1.132977468109058 0:0.55555556 1:0.25 2:2585 3:39 4:30 5:242 
-1.132820229266691 0:0.29411765 1:0.32258065 2:2938 3:7 4:22 5:264 
-1.13277811507471 0:0.2173913 1:0.25641026 2:2852 3:37 4:29 5:267 
-1.132834432809476 0:0.3125 1:0.26315789 2:2955 3:12 4:25 5:268 
-1.132725725948591 0:0.22222222 1:0.27777778 2:3020 3:20 4:29 5:286 
-1.13320495310713 0:0.20408163 1:0.23255814 2:2601 3:35 4:36 5:228 
-1.133209312607758 0:0.52631579 1:0.19230769 2:2596 3:26 4:42 5:243 
-1.133226326482106 0:0.38461538 1:0.27777778 2:2736 3:16 4:26 5:234 
-1.132851147240553 0:0.3125 1:0.3125 2:2632 3:25 4:22 5:226 
-1.133203864474098 0:0.25 1:0.20833333 2:2583 3:29 4:34 5:257 
-1.421372628033906 0:0.83333333 1:0.76923077 2:312 3:6 4:4 5:44 
-5 0:0.83333333 1:0.83333333 2:203 3:9 4:2 5:33 
-5 0:0.83333333 1:0.76923077 2:169 3:3 4:4 5:28 
-5 0:0.83333333 1:0.55555556 2:546 3:6 4:5 5:71 
-5 0:0.625 1:0.71428571 2:479 3:3 4:5 5:67 
-5 0:0.90909091 1:0.76923077 2:85 3:1 4:2 5:14 
-5 0:1 1:1 2:88 3:2 4:2 5:16 
-5 0:1 1:1 2:72 3:2 4:2 5:9 
-5 0:0.83333333 1:1 2:85 4:1 5:11 
-5 0:0.90909091 1:0.90909091 2:79 3:1 4:1 5:14 
-5 0:0.76923077 1:0.76923077 2:256 3:7 4:5 5:37 
-5 0:0.83333333 1:0.71428571 2:248 3:5 4:2 5:44 
-3.437526297699259 0:0.90909091 1:0.90909091 2:138 3:1 4:3 5:22 
-3.32225928250137 0:0.83333333 1:0.76923077 2:385 3:4 4:4 5:49 
-1.769738542097713 0:1 1:0.71428571 2:273 3:10 4:5 5:36 
-1.121651231597224 0:0.90909091 1:0.76923077 2:217 3:5 4:4 5:35 
-1.226742255230503 0:1 1:0.47619048 2:732 3:6 4:7 5:82 
-1.12912804929016 0:0.625 1:0.55555556 2:587 3:5 4:7 5:79 
-5 0:1 1:0.76923077 2:103 3:2 4:3 5:15 
-0.8776626021952265 0:1 1:0.90909091 2:117 3:3 4:3 5:15 
-3.8892499602943 0:0.90909091 1:1 2:84 3:1 4:1 5:13 
-1.207453185940184 0:0.76923077 1:0.83333333 2:319 3:5 4:4 5:43 
-1.334870458721734 0:0.90909091 1:0.5 2:375 3:7 4:5 5:55 
-0.8853992259711443 0:1 1:0.83333333 2:133 3:5 4:4 5:23 
-5 0:0.83333333 1:0.71428571 2:459 3:4 4:5 5:57 
-1.262032169402759 0:1 1:0.71428571 2:248 3:7 4:5 5:34 
-0.04114543231137556 0:0.90909091 1:0.76923077 2:243 3:4 4:4 5:34 
-1.133401222472381 0:0.90909091 1:0.5 2:709 3:4 4:7 5:76 
-0.01448456895436842 0:0.58823529 1:0.625 2:689 3:2 4:7 5:86 
-2.599118846778915 0:1 1:0.52631579 2:116 3:3 4:3 5:18 
-5 0:0.90909091 1:0.66666667 2:100 3:4 4:3 5:17 
-5 0:0.83333333 1:0.90909091 2:98 4:2 5:13 
-5 0:0.90909091 1:0.83333333 2:65 4:1 5:11 
-1.334022756110744 0:0.66666667 1:0.83333333 2:388 3:4 4:4 5:53 
-2.16847840388046 0:0.76923077 1:0.5 2:399 3:3 4:5 5:55 
-0.7634863092696574 0:0.83333333 1:0.71428571 2:437 3:3 4:5 5:56 
-0.09405337899210302 0:0.90909091 1:0.76923077 2:253 3:5 4:4 5:36 
-4.173267525812357 0:0.83333333 1:0.47619048 2:787 3:5 4:8 5:85 
-3.93653696221714 0:0.58823529 1:0.625 2:694 3:2 4:7 5:86 
-2.199406474844466 0:1 1:0.52631579 2:98 4:4 5:11 
-3.962354974689021 0:1 1:0.66666667 2:63 3:1 4:3 5:12 
-0.7926993889132754 0:1 1:0.76923077 2:81 3:2 4:3 5:11 
-5 0:0.83333333 1:0.90909091 2:90 4:2 5:12 
-5 0:0.90909091 1:0.83333333 2:89 4:1 5:14 
-3.15608264320085 0:0.66666667 1:0.83333333 2:394 3:4 4:4 5:51 
-5 0:0.76923077 1:0.5 2:402 3:2 4:5 5:53 
-4.077830500132512 0:1 1:0.83333333 2:174 3:1 4:4 5:28 
-5 0:0.90909091 1:0.83333333 2:163 3:2 4:2 5:27 
-0.2930583848957941 0:1 1:0.83333333 2:148 3:4 4:2 5:23 
-0.3482390276225096 0:1 1:0.83333333 2:164 3:3 4:2 5:26 
-0.932009152069649 0:0.90909091 1:0.71428571 2:293 3:3 4:4 5:39 
-2.297171752775837 0:0.76923077 1:0.76923077 2:313 3:3 4:3 5:49 
-0.8976511443092914 0:1 1:0.90909091 2:102 3:1 4:1 5:19 
-5 0:0.90909091 1:0.90909091 2:89 3:2 4:2 5:17 
-1.417460221185313 0:1 1:0.90909091 2:71 3:1 4:1 5:10 
-0.5563902735564061 0:1 1:0.83333333 2:101 4:2 5:17 
-2.553161350040421 0:0.83333333 1:0.83333333 2:131 3:2 4:2 5:21 
-0.90025543460956 0:0.90909091 1:0.83333333 2:163 4:2 5:22 
-0.6170217999230602 0:1 1:0.90909091 2:105 3:1 4:1 5:20 
-5 0:1 1:0.52631579 2:92 3:1 4:3 5:16 
-5 0:0.90909091 1:0.76923077 2:236 3:5 4:4 5:34 
-5 0:0.83333333 1:0.47619048 2:764 3:5 4:8 5:83 
-5 0:0.58823529 1:0.625 2:664 3:2 4:7 5:84 
-1.13252771084831 0:1 1:0.52631579 2:248 4:1 5:28 
-5 0:1 1:0.66666667 2:78 3:3 4:2 5:16 
-2.315903722226632 0:1 1:0.76923077 2:74 3:3 4:3 5:10 
-5 0:0.83333333 1:0.90909091 2:75 4:2 5:9 
-5 0:0.90909091 1:0.83333333 2:66 4:1 5:11 
-3.186893843376619 0:0.66666667 1:0.83333333 2:388 3:4 4:4 5:52 
-4.220377988747392 0:0.76923077 1:0.5 2:387 3:2 4:5 5:51 
-5 0:1 1:0.83333333 2:154 3:2 4:4 5:26 
-5 0:1 1:0.71428571 2:254 3:8 4:5 5:37 
-0.9292659876514652 0:0.90909091 1:0.76923077 2:403 3:4 4:4 5:50 
-0.5068013430035173 0:1 1:0.66666667 2:269 3:8 4:4 5:38 
-2.187089362863003 0:1 1:0.83333333 2:179 3:4 4:3 5:28 
-1.132827736931228 0:0.76923077 1:0.5 2:643 3:4 4:6 5:71 
-1.137645428539121 0:0.66666667 1:0.71428571 2:500 3:2 4:4 5:67 
-3.276646549430628 0:1 1:0.625 2:103 4:4 5:16 
-3.245988012404324 0:1 1:0.90909091 2:69 3:3 4:2 5:12 
-1.879971943526553 0:1 1:0.76923077 2:99 3:3 4:3 5:14 
-5 0:1 1:0.90909091 2:87 4:1 5:11 
-5 0:1 1:0.90909091 2:77 3:1 4:1 5:14 
-1.708370977264113 0:0.76923077 1:0.76923077 2:431 3:4 4:5 5:57 
-0.9377657329175859 0:0.90909091 1:0.52631579 2:315 3:2 4:4 5:44 
-4.46981798822674 0:1 1:0.83333333 2:138 3:2 4:3 5:23 
-3.815785843866412 0:0.83333333 1:0.71428571 2:400 3:4 4:5 5:53 
-1.822795560013258 0:1 1:0.71428571 2:226 3:8 4:5 5:37 
-5 0:0.90909091 1:0.76923077 2:221 3:5 4:4 5:33 
-0.2342152953356546 0:0.83333333 1:0.47619048 2:732 3:5 4:8 5:83 
-3.133381279750439 0:0.58823529 1:0.66666667 2:641 3:2 4:6 5:83 
-5 0:1 1:0.625 2:58 3:2 4:2 5:12 
-2.041433240867932 0:1 1:0.625 2:60 3:2 4:1 5:14 
-3.563157352727988 0:1 1:0.76923077 2:52 3:2 4:2 5:10 
-5 0:0.83333333 1:0.90909091 2:64 4:2 5:9 
-4.855358708225639 0:0.90909091 1:0.76923077 2:56 4:1 5:11 
-1.599674260105268 0:0.66666667 1:0.83333333 2:377 3:4 4:4 5:50 
-2.068029469318781 0:0.76923077 1:0.5 2:370 3:2 4:4 5:52 
-5 0:1 1:0.83333333 2:146 3:2 4:4 5:26 
-1.145931345348323 0:0.90909091 1:0.625 2:376 3:5 4:6 5:45 
-0.8783854830268008 0:1 1:0.71428571 2:210 3:6 4:5 5:32 
-1.449420092708146 0:1 1:0.71428571 2:187 3:4 4:5 5:31 
-1.157396021471679 0:0.71428571 1:0.58823529 2:470 3:5 4:4 5:62 
-1.133353679680371 0:0.76923077 1:0.55555556 2:619 3:3 4:9 5:83 
-5 0:1 1:0.76923077 2:96 3:2 4:4 5:16 
-5 0:1 1:1 2:80 4:2 5:13 
-0.3581327533574126 0:0.90909091 1:0.90909091 2:90 3:1 4:2 5:12 
-5 0:0.90909091 1:0.90909091 2:86 4:1 5:11 
-0.470034510343249 0:0.71428571 1:0.76923077 2:270 3:7 4:4 5:38 
-2.624339677461098 0:0.76923077 1:0.5 2:337 3:3 4:4 5:49 
-2.079010601935007 0:0.90909091 1:0.90909091 2:124 3:1 4:2 5:21 
-5 0:1 1:0.71428571 2:344 3:4 4:4 5:48 
-0.4645379289048915 0:1 1:0.76923077 2:160 3:5 4:3 5:28 
-1.331484132184573 0:0.83333333 1:0.71428571 2:264 3:2 4:5 5:36 
-1.920368802006349 0:0.90909091 1:0.71428571 2:226 3:3 4:5 5:33 
-1.456440994449633 0:0.83333333 1:0.76923077 2:208 4:4 5:31 
-1.576714906383603 0:0.83333333 1:0.47619048 2:738 3:4 4:8 5:81 
-1.137691645680842 0:0.58823529 1:0.625 2:676 3:1 4:7 5:84 
-3.777690742924978 0:1 1:0.625 2:80 3:2 4:2 5:11 
-3.450747923779709 0:1 1:0.66666667 2:79 3:2 4:3 5:13 
-5 0:1 1:0.76923077 2:190 3:4 4:3 5:29 
-2.453102173296104 0:1 1:0.76923077 2:77 3:1 4:3 5:12 
-3.136960157644682 0:0.90909091 1:0.83333333 2:99 3:1 4:1 5:15 
-1.075883435347413 0:0.66666667 1:0.83333333 2:320 3:3 4:4 5:48 
-1.566793644510172 0:0.76923077 1:0.5 2:342 4:5 5:49 
-2.595281840419005 0:1 1:0.83333333 2:143 4:4 5:22 
-1.133259007134839 0:0.83333333 1:0.55555556 2:560 3:4 4:5 5:67 
-1.270413289487859 0:0.66666667 1:0.58823529 2:497 3:6 4:7 5:59 
-1.118410141006349 0:0.76923077 1:0.76923077 2:301 3:2 4:3 5:48 
-1.739039627422206 0:1 1:0.76923077 2:175 3:5 4:5 5:29 
-1.134688849326513 0:0.83333333 1:0.71428571 2:245 3:3 4:5 5:35 
-1.138836678359672 0:0.83333333 1:0.47619048 2:695 3:5 4:8 5:80 
-1.162523241817131 0:0.58823529 1:0.58823529 2:672 3:2 4:7 5:86 
-4.975891625957497 0:1 1:0.52631579 2:99 3:1 4:4 5:15 
-4.703199411415897 0:1 1:0.66666667 2:105 3:3 4:2 5:20 
-2.771891996452405 0:1 1:0.76923077 2:84 3:2 4:3 5:12 
-5 0:0.76923077 1:0.90909091 2:119 3:1 4:2 5:16 
-0.8800439309517322 0:0.90909091 1:1 2:98 3:3 4:1 5:16 
-1.69191030701378 0:0.625 1:0.625 2:336 3:3 4:4 5:49 
-4.87350899124787 0:1 1:0.76923077 2:36 3:1 4:1 5:7 
-1.102227618737265 0:0.71428571 1:0.47619048 2:352 3:3 4:5 5:53 
-4.948714490605721 0:1 1:0.83333333 2:169 3:2 4:4 5:30 
-1.552662668851905 0:1 1:0.76923077 2:52 3:2 4:1 5:13 
-5 0:1 1:1 2:40 3:2 4:1 5:9 
-5 0:1 1:0.90909091 2:37 4:1 5:6 
-5 0:1 1:1 2:39 4:1 5:8 
-3.182771180163485 0:0.76923077 1:0.83333333 2:348 3:4 4:3 5:48 
-5 0:0.90909091 1:0.83333333 2:198 3:2 4:2 5:27 
-2.246538590646529 0:1 1:0.83333333 2:116 3:2 4:2 5:22 
-1.257456939023622 0:0.83333333 1:0.90909091 2:136 3:1 4:2 5:18 
-1.244519289196377 0:1 1:0.90909091 2:117 3:4 4:2 5:24 
-1.350362534725855 0:1 1:0.90909091 2:89 3:3 4:2 5:13 
-4.826960387445255 0:0.83333333 1:0.83333333 2:89 3:1 4:2 5:17 
-5 0:1 1:0.90909091 2:33 4:1 5:7 
-5 0:1 1:1 2:48 4:2 5:10 
-5 0:1 1:1 2:21 3:1 4:1 5:5 
-5 0:1 1:0.83333333 2:35 4:2 5:6 
-0.9026328948345754 0:0.83333333 1:0.83333333 2:246 3:1 4:4 5:33 
-1.099404476880675 0:0.90909091 1:0.71428571 2:243 3:9 4:5 5:36 
-5 0:0.90909091 1:0.76923077 2:233 3:5 4:4 5:36 
-1.157629827617161 0:0.83333333 1:0.5 2:628 3:2 4:7 5:71 
-1.135002976010888 0:0.66666667 1:0.625 2:593 3:2 4:7 5:78 
-5 0:1 1:0.76923077 2:89 3:1 4:2 5:12 
-2.22290136494475 0:1 1:0.45454545 2:125 3:3 4:3 5:20 
-0.2684951542401597 0:1 1:0.90909091 2:104 3:2 4:3 5:17 
-4.640312070328681 0:0.83333333 1:0.90909091 2:110 3:1 4:2 5:16 
-0.7447066901696766 0:0.83333333 1:0.90909091 2:171 3:2 4:1 5:27 
-4.87776758059067 0:1 1:1 2:92 4:2 5:18 
-0.8596445184103082 0:0.76923077 1:0.76923077 2:253 3:5 4:4 5:37 
-1.162495529575374 0:0.83333333 1:0.5 2:331 3:3 4:5 5:45 
-4.136192744668445 0:1 1:0.83333333 2:138 3:4 4:4 5:25 
-0.8393851980527478 0:0.83333333 1:0.83333333 2:182 3:1 4:1 5:28 
-3.248977796924831 0:1 1:0.90909091 2:73 3:1 4:1 5:14 
-4.695708634475271 0:1 1:0.90909091 2:94 4:1 5:16 
-5 0:1 1:0.83333333 2:74 3:1 4:2 5:13 
-0.5037931571545741 0:0.90909091 1:0.83333333 2:238 3:4 4:4 5:35 
-1.581568153387863 0:0.90909091 1:0.83333333 2:284 3:3 4:3 5:42 
-1.133052836413439 0:0.90909091 1:0.52631579 2:774 3:7 4:6 5:77 
-1.97810775441945 0:0.66666667 1:0.625 2:762 3:5 4:7 5:85 
-2.326089973660483 0:0.90909091 1:1 2:137 3:1 4:3 5:24 
-0.9553028411984536 0:0.83333333 1:0.76923077 2:124 3:3 4:2 5:21 
-2.347471914276748 0:1 1:1 2:84 3:2 4:2 5:12 
-2.91754004416804 0:0.83333333 1:1 2:107 4:1 5:13 
-4.069861961868818 0:0.90909091 1:1 2:99 4:1 5:19 
-1.321255232634357 0:0.71428571 1:1 2:363 3:3 4:2 5:51 
-0.7471337090607806 0:0.76923077 1:0.52631579 2:432 3:4 4:3 5:58 
-3.711294888271129 0:0.90909091 1:0.83333333 2:190 3:3 4:3 5:32 
-0.8654309600254472 0:1 1:0.83333333 2:172 3:3 4:2 5:30 
-1.86254928014828 0:1 1:0.66666667 2:172 3:2 4:5 5:24 
-1.734455788283666 0:0.90909091 1:0.83333333 2:89 3:1 4:2 5:14 
-2.653726693766808 0:1 1:0.83333333 2:143 3:2 4:2 5:20 
-1.11945718533745 0:0.90909091 1:0.83333333 2:168 3:3 4:1 5:23 
-0.7586996679320215 0:1 1:0.90909091 2:69 3:1 4:2 5:12 
-5 0:1 1:1 2:57 3:1 4:1 5:9 
-0.9598821919579367 0:1 1:1 2:73 3:3 4:2 5:13 
-1.590766324987747 0:0.90909091 1:1 2:64 4:1 5:9 
-5 0:0.90909091 1:1 2:79 3:1 4:1 5:12 
-0.9468582218386507 0:0.90909091 1:0.83333333 2:199 3:3 4:3 5:34 
-0.108636674122217 0:0.90909091 1:0.83333333 2:108 3:1 4:2 5:22 
-1.139242444654029 0:0.76923077 1:0.66666667 2:443 3:1 4:6 5:49 
-2.651411768562684 0:0.76923077 1:0.90909091 2:204 3:3 4:4 5:29 
-4.01890697525888 0:0.83333333 1:0.76923077 2:234 3:2 4:4 5:36 
-1.130167400006623 0:0.71428571 1:0.5 2:740 3:5 4:7 5:86 
-1.092653911446404 0:0.625 1:0.625 2:677 3:2 4:7 5:80 
-2.952847935085585 0:1 1:1 2:90 4:4 5:13 
-5 0:0.90909091 1:0.90909091 2:101 3:3 4:2 5:16 
-4.121992280673593 0:0.90909091 1:0.90909091 2:83 4:2 5:15 
-5 0:0.83333333 1:0.90909091 2:101 4:2 5:14 
-5 0:1 1:0.83333333 2:98 4:3 5:18 
-1.121264757862801 0:0.625 1:0.76923077 2:478 3:3 4:6 5:55 
-0.950338136872612 0:0.83333333 1:0.47619048 2:424 3:2 4:5 5:49 
-2.467368274314437 0:1 1:0.83333333 2:169 3:1 4:3 5:26 
-1.299917888753393 0:0.83333333 1:0.76923077 2:215 3:2 4:6 5:31 
-5 0:0.90909091 1:0.76923077 2:91 4:4 5:15 
-3.372118015680136 0:0.83333333 1:0.90909091 2:120 3:1 4:2 5:19 
-1.753429676545238 0:0.83333333 1:1 2:122 3:2 4:2 5:17 
-1.136816052269994 0:0.76923077 1:0.76923077 2:242 3:7 4:5 5:39 
-5 0:1 1:1 2:94 3:2 4:3 5:15 
-3.718726721053478 0:1 1:0.83333333 2:72 4:3 5:13 
-1.902406911500854 0:0.83333333 1:1 2:82 4:2 5:12 
-5 0:0.90909091 1:0.90909091 2:69 3:2 4:1 5:11 
-0.8611982598325387 0:0.83333333 1:0.90909091 2:165 3:2 4:5 5:23 
-5 0:0.83333333 1:0.71428571 2:145 3:1 4:4 5:26 
-3.221104370971215 0:0.90909091 1:0.83333333 2:89 4:3 5:12 
-1.040145286630698 0:1 1:0.76923077 2:300 3:2 4:5 5:43 
-3.439477588894681 0:0.90909091 1:0.83333333 2:123 3:1 4:4 5:21 
-0.9498791407749511 0:1 1:0.66666667 2:290 3:2 4:5 5:40 
-1.133213720004626 0:0.90909091 1:0.66666667 2:290 3:5 4:5 5:52 
-4.921298616268828 0:1 1:0.71428571 2:93 3:1 4:4 5:14 
-5 0:0.90909091 1:0.76923077 2:90 3:3 4:2 5:16 
-2.623077304059984 0:1 1:1 2:81 3:1 4:3 5:14 
-5 0:0.90909091 1:1 2:98 3:1 4:1 5:12 
-5 0:0.90909091 1:0.76923077 2:84 3:1 4:1 5:13 
-1.190281521761464 0:0.83333333 1:0.90909091 2:270 3:2 4:2 5:43 
-5 0:0.83333333 1:0.83333333 2:217 3:5 4:3 5:32 
-1.651605169210093 0:0.90909091 1:0.83333333 2:144 4:4 5:24 
-1.657008383987702 0:0.83333333 1:0.71428571 2:488 3:4 4:5 5:60 
-1.532491055659429 0:1 1:0.71428571 2:263 3:8 4:4 5:38 
-5 0:0.90909091 1:0.76923077 2:263 3:4 4:4 5:39 
-1.309765490997257 0:0.83333333 1:0.47619048 2:786 3:5 4:8 5:90 
-2.370794966253398 0:0.625 1:0.625 2:714 3:2 4:7 5:88 
-1.126339846831769 0:1 1:0.71428571 2:63 3:2 4:1 5:12 
-3.247281016549179 0:1 1:1 2:77 3:3 4:2 5:14 
-3.368549328072104 0:1 1:1 2:81 3:3 4:2 5:14 
-5 0:0.90909091 1:1 2:76 4:1 5:12 
-4.214124473056462 0:1 1:1 2:77 4:1 5:11 
-1.116378617286238 0:0.71428571 1:0.83333333 2:396 3:5 4:4 5:55 
-1.60034174349461 0:0.83333333 1:0.5 2:413 3:2 4:4 5:56 
-0.2602091501466701 0:1 1:0.83333333 2:179 3:2 4:4 5:30 
-1.133325139156983 0:0.83333333 1:0.71428571 2:537 3:6 4:5 5:64 
-1.480775438264338 0:0.83333333 1:0.71428571 2:315 3:8 4:5 5:45 
-1.332791203186978 0:0.90909091 1:0.71428571 2:333 3:7 4:5 5:48 
-1.244560999953392 0:0.83333333 1:0.47619048 2:889 3:7 4:8 5:93 
-1.132778137492027 0:0.58823529 1:0.625 2:800 3:7 4:7 5:100 
-3.771946173025266 0:1 1:0.52631579 2:131 3:1 4:4 5:22 
-5 0:1 1:0.76923077 2:88 3:2 4:3 5:14 
-1.183363571004253 0:1 1:0.76923077 2:135 3:4 4:3 5:23 
-1.163134686899521 0:0.83333333 1:0.90909091 2:122 4:2 5:17 
-5 0:0.90909091 1:0.83333333 2:98 4:1 5:16 
-1.10671141072811 0:0.66666667 1:0.83333333 2:490 3:6 4:4 5:65 
-1.196512360578444 0:0.76923077 1:0.5 2:443 3:3 4:5 5:60 
-4.128444665679406 0:1 1:0.83333333 2:187 3:2 4:4 5:32 
-1.855941877155843 0:1 1:0.71428571 2:303 3:4 4:4 5:44 
-5 0:0.90909091 1:0.71428571 2:220 3:7 4:5 5:33 
-5 0:0.90909091 1:0.76923077 2:231 3:5 4:4 5:34 
-1.13355038009499 0:0.83333333 1:0.52631579 2:600 3:7 4:6 5:69 
-5 0:0.58823529 1:0.625 2:696 3:3 4:7 5:88 
-5 0:1 1:0.625 2:92 3:2 4:2 5:15 
-5 0:1 1:0.83333333 2:80 3:2 4:3 5:15 
-5 0:1 1:0.76923077 2:87 3:1 4:3 5:13 
-2.426763262581241 0:0.83333333 1:0.90909091 2:114 4:2 5:13 
-5 0:0.90909091 1:0.83333333 2:93 4:1 5:15 
-5 0:0.83333333 1:0.90909091 2:270 3:2 4:1 5:43 
-5 0:0.76923077 1:0.5 2:404 3:4 4:4 5:57 
-2.457684017939471 0:1 1:0.83333333 2:144 4:2 5:23 
-1.746698528725766 0:0.90909091 1:0.76923077 2:261 3:5 4:3 5:39 
-4.944220418405506 0:1 1:0.76923077 2:240 3:2 4:2 5:33 
-0.7018568954711498 0:0.90909091 1:0.83333333 2:203 3:4 4:2 5:28 
-1.675737233140663 0:1 1:0.625 2:427 3:7 4:5 5:53 
-1.128970980096958 0:0.76923077 1:0.66666667 2:474 3:1 4:5 5:60 
-1.695020330398728 0:1 1:0.58823529 2:111 3:1 4:1 5:17 
-1.581355704598573 0:0.90909091 1:1 2:86 3:3 4:2 5:15 
-5 0:1 1:1 2:80 3:3 4:2 5:14 
-2.399452510382653 0:0.90909091 1:1 2:223 3:3 4:2 5:35 
-0.8526578410396943 0:0.90909091 1:0.55555556 2:291 3:1 4:2 5:40 
-2.074659993037687 0:1 1:0.90909091 2:147 3:2 4:3 5:24 
-2.289652750658872 0:0.76923077 1:0.76923077 2:453 3:7 4:5 5:59 
-1.158914823265791 0:0.76923077 1:0.71428571 2:254 3:11 4:6 5:38 
-2.890400373457226 0:0.76923077 1:0.76923077 2:307 3:5 4:4 5:43 
-1.159538227375767 0:0.66666667 1:0.47619048 2:677 3:4 4:8 5:74 
-1.585135975058863 0:0.58823529 1:0.66666667 2:720 3:3 4:7 5:87 
-2.032563873883352 0:0.83333333 1:0.76923077 2:155 3:4 4:4 5:25 
-1.049172674723541 0:0.83333333 1:1 2:148 3:6 4:3 5:24 
-0.8225463935279147 0:0.90909091 1:0.71428571 2:97 3:5 4:3 5:16 
-5 0:0.71428571 1:0.90909091 2:112 4:2 5:14 
-2.939153133902634 0:0.83333333 1:0.90909091 2:121 3:2 4:2 5:23 
-1.135727108489454 0:0.58823529 1:0.625 2:414 3:10 4:4 5:60 
-1.144044413863324 0:0.71428571 1:0.47619048 2:421 3:9 4:5 5:61 
-1.484591600608171 0:0.83333333 1:0.83333333 2:209 3:6 4:4 5:30 
-5 0:0.83333333 1:0.71428571 2:463 3:4 4:5 5:58 
-0.01824103327518737 0:0.90909091 1:0.76923077 2:258 3:5 4:4 5:36 
-0.07595527498227331 0:0.83333333 1:0.47619048 2:786 3:5 4:8 5:85 
-0.06012579262012178 0:1 1:0.52631579 2:110 3:1 4:4 5:18 
-0.4114067132036404 0:1 1:0.66666667 2:96 3:3 4:2 5:18 
-5 0:0.66666667 1:0.83333333 2:410 3:4 4:4 5:54 
-0.3525418188524244 0:1 1:0.83333333 2:173 3:2 4:4 5:28 
-1.114085526833091 0:1 1:0.83333333 2:226 3:3 4:3 5:28 
-5 0:1 1:0.71428571 2:96 3:1 4:1 5:14 
-0.6314699418758887 0:0.90909091 1:1 2:108 4:1 5:20 
-1.362370946879433 0:1 1:0.83333333 2:161 3:1 4:3 5:23 
-1.162463503958414 0:0.83333333 1:0.71428571 2:372 3:2 4:4 5:56 
-5 0:1 1:0.45454545 2:76 3:1 4:2 5:10 
-1.158664350518266 0:0.90909091 1:1 2:65 3:3 4:2 5:11 
-1.522860950417849 0:1 1:0.55555556 2:66 3:2 4:1 5:10 
-0.4040751717679877 0:0.90909091 1:1 2:55 4:1 5:7 
-1.578170584458879 0:1 1:1 2:56 4:1 5:11 
-0.4438561496218616 0:0.90909091 1:0.76923077 2:160 3:3 4:1 5:28 
-0.2640557544045866 0:1 1:0.66666667 2:178 3:2 4:3 5:32 
-5 0:1 1:0.90909091 2:76 4:2 5:13 
-0.9281329395729167 0:0.90909091 1:0.71428571 2:438 3:4 4:5 5:55 
-2.941494967813528 0:0.90909091 1:0.71428571 2:284 3:7 4:5 5:42 
-0.8924413349285227 0:0.90909091 1:0.76923077 2:248 3:5 4:4 5:35 
-1.133155235298471 0:0.83333333 1:0.47619048 2:827 3:6 4:8 5:91 
-1.135017525327063 0:0.58823529 1:0.66666667 2:723 3:3 4:6 5:93 
-5 0:1 1:0.55555556 2:120 3:2 4:4 5:19 
-5 0:1 1:0.66666667 2:110 3:2 4:3 5:21 
-0.7959999161167053 0:1 1:0.83333333 2:147 3:4 4:3 5:21 
-1.221810314526629 0:0.90909091 1:0.76923077 2:147 3:1 4:4 5:20 
-3.647343726267726 0:0.90909091 1:0.76923077 2:95 4:1 5:16 
-0.6149250516146737 0:0.71428571 1:0.76923077 2:386 3:4 4:5 5:54 
-2.565861089172434 0:0.76923077 1:0.5 2:411 3:2 4:5 5:53 
-1.396058839921853 0:1 1:0.76923077 2:223 3:4 4:5 5:37 
-0.5867934699686848 0:0.83333333 1:0.625 2:406 3:4 4:5 5:51 
-4.936002123527986 0:1 1:0.83333333 2:167 3:3 4:3 5:28 
-2.31626841226363 0:0.90909091 1:0.76923077 2:224 3:5 4:4 5:32 
-1.132817155991361 0:1 1:0.66666667 2:413 3:1 4:6 5:43 
-0.7356541237719758 0:0.625 1:0.625 2:586 3:2 4:7 5:74 
-2.701993450606929 0:1 1:0.5 2:135 3:1 4:4 5:21 
-0.5358045998376976 0:0.90909091 1:0.66666667 2:156 3:4 4:2 5:28 
-5 0:1 1:0.90909091 2:109 3:3 4:3 5:16 
-5 0:0.83333333 1:0.90909091 2:92 4:2 5:12 
-5 0:0.90909091 1:0.76923077 2:81 4:1 5:13 
-1.99097365204599 0:0.71428571 1:0.83333333 2:338 3:4 4:4 5:48 
-2.394912851649135 0:0.76923077 1:0.5 2:337 3:3 4:5 5:47 
-3.262391831247826 0:1 1:0.83333333 2:169 3:2 4:4 5:26 
-4.975320874549329 0:0.83333333 1:0.71428571 2:464 3:4 4:5 5:57 
-0.005205986353293779 0:1 1:0.71428571 2:274 3:8 4:5 5:39 
-0.6312879556465399 0:0.83333333 1:0.90909091 2:95 4:2 5:11 
-5 0:0.66666667 1:0.83333333 2:410 3:4 4:4 5:54 
-2.496583405037237 0:1 1:0.83333333 2:173 3:2 4:4 5:28 
-2.833770117320916 0:1 1:0.52631579 2:119 3:1 4:4 5:20 
-1.13287742159142 0:0.83333333 1:0.66666667 2:578 3:4 4:5 5:64 
-1.579732510748536 0:0.76923077 1:0.83333333 2:252 3:1 4:2 5:36 
-3.071035900143734 0:0.83333333 1:0.90909091 2:95 4:2 5:11 
-5 0:0.66666667 1:0.83333333 2:410 3:4 4:4 5:54 
-1.342981918265055 0:0.76923077 1:0.58823529 2:397 3:2 4:5 5:49 
-5 0:1 1:0.83333333 2:173 3:2 4:4 5:28 
-5 0:1 1:0.71428571 2:274 3:8 4:5 5:39 
-5 0:1 1:0.71428571 2:274 3:8 4:5 5:39 
-3.22167975006769 0:0.90909091 1:0.76923077 2:258 3:5 4:4 5:36 
-1.480922194102245 0:0.83333333 1:0.47619048 2:786 3:5 4:8 5:85 
-4.306212701255298 0:1 1:0.76923077 2:90 3:3 4:3 5:12 
-5 0:0.83333333 1:0.90909091 2:95 4:2 5:11 
-5 0:0.66666667 1:0.83333333 2:410 3:4 4:4 5:54 
-5 0:1 1:0.83333333 2:173 3:2 4:4 5:28 
-5 0:0.83333333 1:0.71428571 2:464 3:4 4:5 5:57 
-5 0:1 1:0.71428571 2:274 3:8 4:5 5:39 
-5 0:0.90909091 1:0.76923077 2:258 3:5 4:4 5:36 
-5 0:0.83333333 1:0.47619048 2:786 3:5 4:8 5:85 
-3.957406963280131 0:0.58823529 1:0.625 2:689 3:2 4:7 5:86 
-1.892734367196847 0:1 1:0.52631579 2:110 3:1 4:4 5:18 
-2.014717468621308 0:1 1:0.66666667 2:96 3:3 4:2 5:18 
-5 0:1 1:0.76923077 2:90 3:3 4:3 5:12 
-5 0:0.83333333 1:0.90909091 2:95 4:2 5:11 
-4.655509922590479 0:0.90909091 1:0.83333333 2:81 4:1 5:13 
-5 0:0.66666667 1:0.83333333 2:410 3:4 4:4 5:54 
-5 0:0.76923077 1:0.5 2:414 3:2 4:5 5:53 
-5 0:1 1:0.83333333 2:173 3:2 4:4 5:28 
-5 0:0.83333333 1:0.71428571 2:464 3:4 4:5 5:57 
-5 0:1 1:0.71428571 2:274 3:8 4:5 5:39 
-5 0:0.90909091 1:0.76923077 2:258 3:5 4:4 5:36 
-5 0:0.83333333 1:0.47619048 2:786 3:5 4:8 5:85 
-5 0:0.625 1:0.625 2:618 3:2 4:6 5:80 
-5 0:1 1:0.52631579 2:110 3:1 4:4 5:18 
-5 0:1 1:0.66666667 2:96 3:3 4:2 5:18 
-5 0:1 1:0.76923077 2:90 3:3 4:3 5:12 
-5 0:0.83333333 1:0.90909091 2:95 4:2 5:11 
-5 0:0.90909091 1:0.83333333 2:81 4:1 5:13 
-5 0:0.66666667 1:0.83333333 2:410 3:4 4:4 5:54 
-5 0:0.76923077 1:0.5 2:414 3:2 4:5 5:53 
-5 0:1 1:0.83333333 2:173 3:2 4:4 5:28 
-4.369727906763287 0:0.83333333 1:0.71428571 2:464 3:4 4:5 5:57 
-5 0:1 1:0.71428571 2:274 3:8 4:5 5:39 
-5 0:0.90909091 1:0.76923077 2:258 3:5 4:4 5:36 
-5 0:0.83333333 1:0.47619048 2:786 3:5 4:8 5:85 
-5 0:0.58823529 1:0.625 2:689 3:2 4:7 5:86 
-5 0:1 1:0.52631579 2:110 3:1 4:4 5:18 
-5 0:1 1:0.66666667 2:96 3:3 4:2 5:18 
-5 0:1 1:0.76923077 2:90 3:3 4:3 5:12 
-5 0:0.83333333 1:0.90909091 2:95 4:2 5:11 
-1.934163809664051 0:0.90909091 1:0.83333333 2:81 4:1 5:13 
-5 0:0.66666667 1:0.83333333 2:410 3:4 4:4 5:54 
-5 0:0.76923077 1:0.5 2:414 3:2 4:5 5:53 
-5 0:1 1:0.83333333 2:173 3:2 4:4 5:28 
-0.01262587924370572 0:0.83333333 1:0.71428571 2:465 3:4 4:5 5:56 
-3.777553434543352 0:1 1:0.71428571 2:274 3:8 4:5 5:39 
-5 0:0.90909091 1:0.76923077 2:258 3:5 4:4 5:36 
-5 0:0.83333333 1:0.47619048 2:786 3:5 4:8 5:85 
-4.509580027936236 0:0.58823529 1:0.625 2:689 3:2 4:7 5:86 
-5 0:1 1:0.52631579 2:110 3:1 4:4 5:18 
-5 0:1 1:0.66666667 2:96 3:3 4:2 5:18 
-5 0:1 1:0.76923077 2:90 3:3 4:3 5:12 
-5 0:0.83333333 1:0.90909091 2:95 4:2 5:11 
-5 0:0.66666667 1:0.83333333 2:410 3:4 4:4 5:54 
-4.913129465784677 0:0.76923077 1:0.5 2:414 3:2 4:5 5:53 
-5 0:1 1:0.83333333 2:173 3:2 4:4 5:28 
-0.006916985536175827 0:0.83333333 1:0.83333333 2:59 4:2 5:5 
-1.068339619385615 0:0.83333333 1:0.83333333 2:59 4:2 5:5 
-1.157392828874795 0:0.83333333 1:0.71428571 2:521 3:4 4:5 5:65 
-5 0:1 1:0.71428571 2:288 3:8 4:5 5:39 
-5 0:0.90909091 1:0.76923077 2:293 3:5 4:4 5:36 
-5 0:0.83333333 1:0.47619048 2:815 3:5 4:8 5:85 
-5 0:0.58823529 1:0.625 2:686 3:2 4:7 5:86 
-5 0:1 1:0.55555556 2:111 3:2 4:4 5:17 
-4.239047950129545 0:1 1:0.76923077 2:106 3:3 4:2 5:18 
-5 0:1 1:0.76923077 2:99 3:3 4:3 5:12 
-5 0:0.83333333 1:0.90909091 2:101 4:2 5:11 
-4.356609962767791 0:0.90909091 1:0.83333333 2:83 4:1 5:13 
-5 0:0.66666667 1:0.83333333 2:423 3:5 4:4 5:54 
-5 0:0.76923077 1:0.5 2:438 3:2 4:5 5:56 
-5 0:1 1:0.83333333 2:189 3:2 4:4 5:30 
-1.877564542178728 0:1 1:0.66666667 2:262 3:1 4:5 5:38 
-1.309501778878492 0:1 1:0.83333333 2:130 3:4 4:2 5:24 
-0.2187055122976506 0:1 1:0.76923077 2:147 3:2 4:4 5:20 
-0.6979549604551401 0:1 1:0.83333333 2:248 3:3 4:2 5:35 
-1.361091148114035 0:0.90909091 1:0.76923077 2:261 3:3 4:3 5:40 
-1.321002610496614 0:1 1:0.90909091 2:48 3:1 4:2 5:7 
-5 0:1 1:0.90909091 2:70 4:1 5:11 
-3.694050866670783 0:1 1:0.83333333 2:96 4:2 5:14 
-1.081460387904648 0:0.90909091 1:0.76923077 2:224 3:6 4:4 5:39 
-2.85948743169899 0:1 1:0.71428571 2:191 3:2 4:4 5:32 
-1.309815580422757 0:0.90909091 1:0.76923077 2:126 3:2 4:3 5:19 
-5 0:0.83333333 1:0.71428571 2:457 3:4 4:5 5:59 
-5 0:1 1:0.71428571 2:288 3:5 4:5 5:38 
-5 0:0.90909091 1:0.76923077 2:273 3:5 4:4 5:37 
-1.133355266831948 0:0.58823529 1:0.625 2:741 3:1 4:7 5:97 
-5 0:0.58823529 1:0.625 2:741 3:1 4:7 5:97 
-5 0:1 1:0.52631579 2:121 3:1 4:4 5:20 
-5 0:1 1:0.66666667 2:110 3:3 4:2 5:19 
-4.715670933919533 0:1 1:0.76923077 2:99 3:3 4:3 5:13 
-5 0:0.83333333 1:0.90909091 2:104 4:2 5:12 
-5 0:0.90909091 1:0.83333333 2:94 4:1 5:14 
-5 0:0.66666667 1:0.83333333 2:403 3:3 4:4 5:56 
-5 0:0.76923077 1:0.5 2:434 3:1 4:5 5:58 
-5 0:1 1:0.83333333 2:201 3:2 4:4 5:31 
-0.551244994998554 0:0.76923077 1:0.71428571 2:437 3:5 4:5 5:55 
-1.126800697076633 0:0.90909091 1:0.71428571 2:328 3:7 4:5 5:44 
-3.439757915444245 0:0.90909091 1:0.76923077 2:259 3:2 4:4 5:39 
-1.048789226094568 0:0.83333333 1:0.47619048 2:792 3:4 4:8 5:89 
-1.17703536871113 0:0.55555556 1:0.625 2:717 3:2 4:7 5:91 
-1.401548904034153 0:1 1:0.58823529 2:113 3:1 4:4 5:20 
-1.482275344533532 0:1 1:0.76923077 2:95 3:3 4:2 5:17 
-5 0:1 1:0.76923077 2:91 3:2 4:3 5:16 
-5 0:0.83333333 1:0.90909091 2:102 4:2 5:13 
-4.720412926305706 0:0.90909091 1:0.83333333 2:92 4:1 5:13 
-2.424611864430788 0:0.66666667 1:0.83333333 2:417 3:4 4:4 5:61 
-0.1666666172083784 0:0.76923077 1:0.5 2:421 3:2 4:4 5:53 
-2.640631242624437 0:1 1:0.83333333 2:198 3:3 4:4 5:30 
-2.68980000002374 0:1 1:0.71428571 2:388 3:4 4:4 5:51 
-2.096151353823621 0:1 1:0.66666667 2:288 3:8 4:5 5:39 
-4.878400482128926 0:0.90909091 1:0.76923077 2:258 3:5 4:4 5:36 
-0.8210765402884958 0:0.83333333 1:0.47619048 2:793 3:5 4:8 5:86 
-0.9570397667515653 0:0.58823529 1:0.625 2:687 3:2 4:7 5:89 
-4.257756728070387 0:1 1:1 2:96 3:3 4:2 5:16 
-0.743949799123902 0:1 1:1 2:86 3:4 4:2 5:15 
-1.083293488947665 0:1 1:1 2:90 3:3 4:3 5:12 
-1.79082214443027 0:0.76923077 1:1 2:103 4:1 5:11 
-5 0:0.90909091 1:1 2:84 4:1 5:14 
-2.653405222300028 0:0.66666667 1:0.83333333 2:394 3:4 4:4 5:54 
-2.735361107691769 0:0.76923077 1:0.5 2:419 3:2 4:5 5:54 
-0.2700241634544229 0:1 1:0.83333333 2:173 3:2 4:4 5:29 
-1.200284250224293 0:0.83333333 1:0.71428571 2:489 3:4 4:6 5:62 
-0.5622382624152358 0:0.90909091 1:0.83333333 2:276 3:9 4:3 5:40 
-1.099875317324345 0:0.90909091 1:0.90909091 2:210 3:3 4:2 5:34 
-1.178901764724087 0:0.71428571 1:0.47619048 2:753 3:4 4:8 5:86 
-1.016280878175838 0:0.625 1:0.58823529 2:671 3:1 4:7 5:82 
-0.106473615318473 0:1 1:0.76923077 2:79 3:2 4:4 5:14 
-4.671677109450593 0:1 1:0.71428571 2:92 3:4 4:3 5:16 
-4.8034206075404 0:1 1:0.76923077 2:82 3:3 4:2 5:12 
-4.443608862852084 0:1 1:0.83333333 2:102 3:1 4:3 5:16 
-5 0:0.90909091 1:0.90909091 2:79 3:1 4:1 5:13 
-1.532121996839984 0:0.76923077 1:0.83333333 2:312 3:3 4:4 5:44 
-1.110228496629078 0:0.83333333 1:0.625 2:384 4:4 5:54 
-1.721776198127354 0:1 1:0.90909091 2:156 3:2 4:4 5:29 
-1.101450120627247 0:0.76923077 1:0.71428571 2:475 3:5 4:5 5:57 
-5 0:0.83333333 1:0.71428571 2:247 3:9 4:5 5:37 
-2.011903150838704 0:0.90909091 1:0.76923077 2:243 3:4 4:4 5:34 
-1.421254447511968 0:0.83333333 1:0.47619048 2:793 3:6 4:8 5:84 
-1.129013542033029 0:0.55555556 1:0.625 2:679 3:2 4:7 5:83 
-1.959735879154117 0:0.90909091 1:1 2:115 3:1 4:2 5:17 
-4.071045655045558 0:0.83333333 1:1 2:99 3:3 4:2 5:17 
-5 0:1 1:0.76923077 2:94 3:2 4:3 5:17 
-5 0:0.83333333 1:0.90909091 2:104 4:2 5:15 
-5 0:1 1:0.90909091 2:92 4:2 5:16 
-1.083323646309103 0:0.625 1:0.76923077 2:385 3:5 4:5 5:53 
-2.771574994605229 0:0.76923077 1:0.5 2:371 3:2 4:5 5:49 
-1.34235079476243 0:1 1:0.83333333 2:177 3:3 4:4 5:27 
-3.095563315417971 0:0.83333333 1:0.71428571 2:447 3:4 4:5 5:59 
-0.8971684187372804 0:0.83333333 1:0.71428571 2:290 3:7 4:5 5:38 
-1.397298597210657 0:0.83333333 1:0.76923077 2:272 3:5 4:4 5:38 
-1.208916310860646 0:0.83333333 1:0.5 2:772 3:4 4:8 5:86 
-1.244357609361086 0:0.58823529 1:0.625 2:701 3:2 4:7 5:85 
-0.8712967737313804 0:1 1:0.55555556 2:135 3:1 4:4 5:20 
-5 0:1 1:0.66666667 2:111 3:2 4:2 5:19 
-5 0:1 1:0.71428571 2:100 3:1 4:3 5:13 
-5 0:0.83333333 1:0.90909091 2:102 4:2 5:14 
-5 0:0.90909091 1:0.83333333 2:91 3:1 4:1 5:13 
-3.970653426932283 0:0.625 1:0.83333333 2:418 3:4 4:4 5:55 
-5 0:0.76923077 1:0.47619048 2:419 3:2 4:5 5:54 
-1.975050286822927 0:1 1:0.83333333 2:177 3:2 4:3 5:30 
-3.838003238815012 0:0.83333333 1:0.76923077 2:308 3:2 4:3 5:43 
-1.014430758263905 0:0.90909091 1:0.90909091 2:159 3:8 4:2 5:27 
-1.092553023061254 0:0.83333333 1:0.83333333 2:184 3:1 4:3 5:28 
-1.252887743272305 0:0.83333333 1:0.71428571 2:408 3:6 4:5 5:51 
-0.4445382544293804 0:0.71428571 1:0.76923077 2:274 3:8 4:5 5:42 
-1.408937387895411 0:0.90909091 1:0.71428571 2:239 3:4 4:4 5:34 
-2.056733854676581 0:1 1:0.625 2:204 3:1 4:3 5:27 
-5 0:0.58823529 1:0.625 2:691 3:2 4:7 5:86 
-5 0:0.90909091 1:0.625 2:112 4:3 5:18 
-0.6283232298750872 0:1 1:0.58823529 2:94 3:1 4:3 5:15 
-4.96371492334134 0:0.83333333 1:0.83333333 2:107 4:2 5:15 
-5 0:0.90909091 1:1 2:92 4:2 5:14 
-2.872735545835269 0:0.625 1:0.66666667 2:382 3:3 4:5 5:53 
-0.5859349577075367 0:0.83333333 1:0.76923077 2:248 3:2 4:3 5:33 
-2.384614360721551 0:0.76923077 1:0.76923077 2:199 3:4 4:3 5:34 
-1.132861410409358 0:0.71428571 1:0.58823529 2:367 3:2 4:7 5:55 
-2.739069425240376 0:0.83333333 1:1 2:114 3:2 4:2 5:20 
-1.670740514086609 0:0.83333333 1:0.66666667 2:447 3:4 4:5 5:55 
-1.128893409750077 0:0.90909091 1:0.83333333 2:305 3:10 4:5 5:42 
-5 0:0.90909091 1:0.76923077 2:266 3:5 4:4 5:37 
-1.472166634434923 0:0.90909091 1:0.5 2:799 3:6 4:7 5:85 
-2.667825508206865 0:0.55555556 1:0.66666667 2:669 3:2 4:6 5:84 
-1.53294793617879 0:0.90909091 1:0.71428571 2:143 3:3 4:6 5:22 
-3.074153408011342 0:0.90909091 1:1 2:125 3:4 4:2 5:21 
-3.512661140401483 0:0.90909091 1:0.66666667 2:106 3:3 4:3 5:14 
-5 0:0.90909091 1:0.90909091 2:54 3:2 4:2 5:12 
-5 0:0.83333333 1:0.90909091 2:101 4:2 5:13 
-5 0:0.71428571 1:0.83333333 2:391 3:5 4:4 5:54 
-2.64121695100003 0:0.76923077 1:0.47619048 2:406 3:2 4:5 5:52 
-0.9942290219965058 0:1 1:0.83333333 2:178 3:3 4:5 5:28 
-2.276108637523069 0:0.90909091 1:0.83333333 2:297 3:1 4:3 5:39 
-1.22365176550836 0:1 1:0.76923077 2:125 3:2 4:4 5:22 
-2.05380018761081 0:1 1:0.83333333 2:188 3:2 4:3 5:29 
-0.9258933181178951 0:1 1:0.625 2:421 3:4 4:4 5:52 
-1.431512847954295 0:0.90909091 1:0.83333333 2:360 3:2 4:3 5:45 
-5 0:0.90909091 1:0.90909091 2:35 4:1 5:6 
-4.582551517423381 0:1 1:0.83333333 2:74 3:2 4:2 5:14 
-2.338448939824871 0:1 1:0.90909091 2:107 3:1 4:2 5:21 
-4.562910991857855 0:1 1:0.83333333 2:160 3:2 4:2 5:27 
-2.082632613335834 0:1 1:0.83333333 2:150 3:1 4:2 5:25 
-1.513600113654465 0:1 1:0.90909091 2:82 4:1 5:15 
-1.111352944844395 0:0.83333333 1:0.83333333 2:212 3:2 4:3 5:36 
-0.6821510011748686 0:0.83333333 1:0.71428571 2:355 3:2 4:3 5:55 
-5 0:0.90909091 1:0.90909091 2:104 4:2 5:15 
-5 0:0.90909091 1:1 2:43 4:1 5:9 
-2.236162264381597 0:0.76923077 1:0.83333333 2:205 3:3 4:3 5:33 
-0.6342652743830812 0:0.76923077 1:0.52631579 2:354 3:1 4:3 5:55 
-1.352990291553048 0:0.83333333 1:0.83333333 2:100 3:2 4:2 5:16 
-0.006595377726123712 0:1 1:0.90909091 2:240 3:3 4:2 5:34 
-1.356358094587114 0:1 1:0.76923077 2:160 3:5 4:3 5:28 
-2.951808440593748 0:0.90909091 1:0.90909091 2:109 3:2 4:1 5:20 
-0.8752309023951872 0:0.90909091 1:0.83333333 2:204 3:2 4:2 5:31 
-0.8857502801818663 0:0.76923077 1:0.90909091 2:141 4:1 5:19 
-5 0:1 1:0.76923077 2:66 3:2 4:2 5:13 
-1.433325598719031 0:0.76923077 1:0.76923077 2:404 3:6 4:4 5:51 
-1.092472118863216 0:1 1:0.76923077 2:259 3:9 4:4 5:38 
-1.235093585750088 0:0.83333333 1:0.83333333 2:245 3:5 4:3 5:36 
-5 0:0.83333333 1:0.47619048 2:786 3:5 4:8 5:85 
-5 0:0.58823529 1:0.625 2:689 3:2 4:7 5:86 
-1.577841916103914 0:1 1:0.52631579 2:125 3:3 4:4 5:19 
-5 0:1 1:0.66666667 2:94 3:3 4:2 5:18 
-3.456550687428099 0:1 1:0.76923077 2:86 3:2 4:3 5:16 
-2.656934099703299 0:0.83333333 1:1 2:53 3:1 4:1 5:13 
-2.977360082617142 0:0.83333333 1:1 2:105 3:1 4:1 5:13 
-0.6324127140146366 0:0.90909091 1:0.76923077 2:96 4:1 5:14 
-1.236365467322691 0:0.71428571 1:0.76923077 2:411 3:4 4:5 5:52 
-4.99156306659415 0:0.76923077 1:0.5 2:414 3:2 4:5 5:53 
-5 0:1 1:0.90909091 2:158 3:2 4:3 5:28 
-5 0:1 1:1 2:43 3:2 4:2 5:10 
-1.847711973749443 0:0.83333333 1:0.71428571 2:459 3:4 4:5 5:58 
-1.807779545614809 0:1 1:0.71428571 2:271 3:8 4:5 5:40 
-2.87619285656549 0:0.90909091 1:0.76923077 2:253 3:5 4:4 5:36 
-1.91213945068564 0:0.83333333 1:0.5 2:778 3:6 4:7 5:84 
-1.277357125404668 0:0.625 1:0.58823529 2:667 3:2 4:7 5:85 
-5 0:1 1:0.52631579 2:107 3:2 4:4 5:17 
-1.360182407691256 0:1 1:0.66666667 2:95 3:3 4:2 5:18 
-5 0:0.83333333 1:0.90909091 2:95 4:2 5:11 
-5 0:0.90909091 1:0.83333333 2:80 4:1 5:12 
-5 0:0.66666667 1:0.83333333 2:401 3:4 4:4 5:51 
-0.9289815568488148 0:0.66666667 1:0.71428571 2:408 3:2 4:5 5:51 
-5 0:1 1:0.90909091 2:29 4:1 5:6 
-1.151952847646549 0:0.83333333 1:0.83333333 2:305 3:3 4:1 5:43 
-1.941732939835099 0:0.83333333 1:1 2:119 4:1 5:15 
-2.611639178155796 0:1 1:0.83333333 2:62 3:2 4:1 5:11 
-2.102039168861039 0:1 1:0.90909091 2:33 4:2 5:8 
-1.365309751461479 0:1 1:1 2:98 3:5 4:3 5:18 
-5 0:1 1:0.90909091 2:67 3:1 4:2 5:12 
-1.822184768790536 0:1 1:0.90909091 2:70 3:1 4:1 5:12 
-1.447461364887991 0:1 1:0.90909091 2:54 4:1 5:12 
-2.524141983994327 0:1 1:1 2:54 3:2 4:3 5:11 
-5 0:1 1:0.76923077 2:46 4:2 5:7 
-2.243823667087066 0:1 1:0.66666667 2:58 4:1 5:9 
-2.078027248549151 0:1 1:1 2:48 4:2 5:9 
-5 0:1 1:0.90909091 2:43 3:1 4:1 5:8 
-3.259358146122302 0:1 1:1 2:63 3:1 4:2 5:13 
-2.3896075052801 0:1 1:0.83333333 2:73 3:2 4:2 5:15 
-3.989589522808197 0:1 1:0.90909091 2:61 3:2 4:1 5:12 
-1.048938684136547 0:1 1:0.76923077 2:107 3:1 4:3 5:16 
-5 0:1 1:0.90909091 2:70 3:1 4:1 5:13 
-4.147422374790601 0:1 1:0.83333333 2:54 4:2 5:11 
-1.080399717971124 0:1 1:0.90909091 2:52 3:1 4:1 5:8 
-5 0:1 1:0.90909091 2:39 4:2 5:7 
-5 0:1 1:0.90909091 2:45 3:1 4:1 5:9 
-5 0:1 1:0.90909091 2:57 3:2 4:1 5:11 
-3.713989410451084 0:1 1:1 2:36 3:1 4:1 5:8 
-5 0:1 1:0.90909091 2:49 3:1 4:1 5:10 
-0.03284666941176615 0:1 1:0.90909091 2:62 4:1 5:14 
-5 0:1 1:0.76923077 2:60 4:2 5:10 
-5 0:1 1:0.90909091 2:33 3:1 4:1 5:6 
-1.500283218875233 0:1 1:0.76923077 2:196 3:2 4:3 5:32 
-2.927546130752014 0:1 1:0.76923077 2:161 3:2 4:5 5:28 
-3.325260287696525 0:0.90909091 1:0.83333333 2:142 3:1 4:4 5:20 
-1.136047404869398 0:1 1:0.83333333 2:157 3:1 4:3 5:18 
-0.6832174799776694 0:1 1:0.71428571 2:322 3:3 4:4 5:48 
-0.531478651504276 0:1 1:0.66666667 2:70 3:2 4:2 5:14 
-0.4499685880390503 0:1 1:0.76923077 2:49 4:3 5:7 
-4.307143335272235 0:1 1:0.90909091 2:53 4:2 5:10 
-0.8528373631942408 0:1 1:0.90909091 2:176 3:1 4:4 5:32 
-1.038841046924607 0:1 1:0.71428571 2:166 4:4 5:23 
-3.012342527357167 0:1 1:0.76923077 2:114 4:4 5:20 
-1.485393942355448 0:0.90909091 1:0.76923077 2:272 3:3 4:4 5:36 
-1.634160264167942 0:0.90909091 1:0.83333333 2:222 3:7 4:4 5:31 
-0.8973646092541828 0:0.83333333 1:0.76923077 2:180 3:2 4:4 5:28 
-0.9887313429356898 0:0.83333333 1:0.55555556 2:422 3:2 4:5 5:47 
-0.723700078774262 0:0.71428571 1:0.625 2:587 3:2 4:8 5:75 
-0.1735664414253647 0:1 1:1 2:72 3:1 4:2 5:14 
-2.555975415429475 0:1 1:0.90909091 2:60 3:3 4:3 5:10 
-5 0:1 1:1 2:47 3:1 4:2 5:8 
-4.337121853868229 0:0.83333333 1:0.90909091 2:79 4:2 5:10 
-5 0:1 1:0.83333333 2:68 4:2 5:13 
-0.1108178903853355 0:0.83333333 1:0.76923077 2:312 3:4 4:5 5:44 
-1.822622153988312 0:0.90909091 1:0.71428571 2:293 3:1 4:3 5:43 
-1.298048774788162 0:1 1:0.83333333 2:111 4:4 5:16 
-5 0:0.71428571 1:0.71428571 2:396 3:3 4:5 5:52 
-5 0:0.90909091 1:0.71428571 2:231 3:6 4:5 5:38 
-5 0:1 1:0.76923077 2:196 3:5 4:4 5:33 
-5 0:0.71428571 1:0.47619048 2:683 3:7 4:8 5:81 
-1.103021573174765 0:0.625 1:0.625 2:626 3:3 4:7 5:78 
-5 0:1 1:0.625 2:62 3:3 4:2 5:11 
-2.897003718677866 0:0.90909091 1:0.66666667 2:62 3:3 4:1 5:12 
-5 0:1 1:0.76923077 2:55 3:1 4:2 5:10 
-5 0:0.83333333 1:0.90909091 2:82 4:2 5:12 
-5 0:0.90909091 1:0.83333333 2:58 3:1 4:1 5:12 
-5 0:0.66666667 1:0.83333333 2:369 3:4 4:4 5:52 
-5 0:0.76923077 1:0.55555556 2:383 3:4 4:4 5:55 
-5 0:1 1:0.83333333 2:129 3:2 4:4 5:25 
-0.8904250474576089 0:0.76923077 1:0.76923077 2:410 3:2 4:4 5:49 
-0.1373857317777289 0:1 1:0.71428571 2:269 3:7 4:5 5:39 
-5 0:0.90909091 1:0.76923077 2:230 3:4 4:4 5:34 
-1.132742259243881 0:1 1:0.5 2:623 3:6 4:7 5:62 
-1.132234515099007 0:0.71428571 1:0.625 2:662 3:5 4:7 5:83 
-1.143203847714186 0:1 1:1 2:80 3:2 4:3 5:14 
-5 0:1 1:0.625 2:94 3:3 4:2 5:15 
-1.837882832664487 0:1 1:0.90909091 2:103 3:2 4:2 5:20 
-3.097097804820492 0:0.83333333 1:0.90909091 2:114 3:2 4:2 5:14 
-3.888750890930574 0:1 1:0.90909091 2:81 4:1 5:14 
-1.540163263560742 0:0.83333333 1:0.66666667 2:308 3:4 4:7 5:42 
-1.547500228541987 0:0.83333333 1:0.47619048 2:359 3:2 4:6 5:50 
-1.499866995783663 0:1 1:0.83333333 2:161 4:4 5:26 
-1.642689017401694 0:0.90909091 1:0.83333333 2:156 3:2 4:3 5:28 
-0.9068420520947086 0:0.90909091 1:0.90909091 2:134 3:5 4:1 5:24 
-1.266368688289597 0:1 1:0.71428571 2:241 3:4 4:4 5:31 
-2.48598787903837 0:0.90909091 1:0.76923077 2:192 3:4 4:2 5:33 
-5 0:0.83333333 1:1 2:58 3:1 4:1 5:12 
-5 0:1 1:0.90909091 2:38 3:2 4:2 5:7 
-5 0:1 1:1 2:50 3:2 4:1 5:10 
-1.611074898916899 0:1 1:0.90909091 2:46 4:1 5:5 
-4.883292872106591 0:1 1:0.90909091 2:53 4:1 5:10 
-1.522374565101187 0:0.90909091 1:0.71428571 2:116 3:5 4:3 5:23 
-3.378308906068841 0:1 1:0.625 2:160 3:1 4:3 5:29 
-5 0:0.90909091 1:0.90909091 2:97 3:2 4:1 5:19 
-1.080066569930474 0:0.90909091 1:1 2:318 3:4 4:1 5:46 
-0.6939112169394367 0:0.90909091 1:0.83333333 2:210 3:3 4:3 5:36 
-1.276483740597113 0:0.90909091 1:1 2:183 3:5 4:1 5:30 
-1.359558973529337 0:0.83333333 1:0.47619048 2:733 3:5 4:8 5:84 
-1.133059287484897 0:0.58823529 1:0.625 2:625 3:2 4:7 5:82 
-5 0:1 1:0.625 2:96 3:2 4:2 5:17 
-1.491990544471413 0:1 1:0.625 2:68 3:1 4:1 5:16 
-5 0:1 1:0.76923077 2:54 3:1 4:2 5:10 
-3.422528027277688 0:0.83333333 1:0.90909091 2:54 4:2 5:9 
-5 0:0.90909091 1:0.76923077 2:61 4:1 5:11 
-1.133208648311116 0:0.76923077 1:1 2:245 3:1 4:2 5:40 
-1.647144016497299 0:0.83333333 1:0.52631579 2:251 3:1 4:3 5:40 
-1.379266612805571 0:1 1:0.83333333 2:128 4:2 5:25 
