svm_type c_svc
kernel_type rbf
gamma 0.111111
nr_class 2
total_sv 10
rho -0.560812
label 0 1
nr_sv 8 2
SV
0.4393151437623765 0:0.71428571 1:0.71428571 5:396 6:3 7:5 8:1 9:52 
0.439279649350723 0:0.90909091 1:0.71428571 5:231 6:6 7:5 8:1 9:38 
0.4394832852571384 0:1 1:0.76923077 5:196 6:5 7:4 8:1 9:33 
0.4392766211865167 0:0.71428571 1:0.47619048 4:1 5:683 6:7 7:8 8:1 9:81 
0.439295369313821 0:0.58823529 1:0.625 5:638 6:3 7:7 8:1 9:80 
0.2422693667006423 0:1 1:0.625 5:62 6:3 7:2 8:1 9:11 
0.2442118421975096 0:0.90909091 1:0.66666667 5:62 6:3 7:1 8:1 9:12 
0.4383124516940328 0:1 1:0.76923077 5:55 6:1 7:2 8:1 9:10 
-1.560720350649277 0:0.71428571 1:0.5 3:3 4:1 5:437 7:1 8:1 9:59 
-1.560723378813483 0:0.71428571 1:0.52631579 3:3 5:456 7:3 8:1 9:62 
