svm_type c_svc
kernel_type rbf
gamma 0.2
nr_class 2
total_sv 6
rho -0.158369
label 1 2
probA -0.208256
probB -0.0169218
nr_sv 3 3
SV
0.8754984755253382 0:0.33333333 1:3.6666667 2:1 3:0.90909091 4:16 
1.609354070530883 0:0.4 1:2.8 2:0.90909091 3:1 4:26 5:1 
0.8412256435921744 0:1.173913 1:3.8695652 2:0.83333333 3:0.83333333 4:120 
-1.184663808086883 0:0.4 1:2.8 2:0.89 3:0.9 4:20 5:1 
-0.4749215901426654 0:0.4 1:2.8 2:0.89 3:0.9 4:30 5:1 
-1.666492791418847 0:0.4 1:2.8 2:0.89 3:0.9 4:28 5:1 
