svm_type c_svc
kernel_type rbf
gamma 0.05
nr_class 2
total_sv 3
rho 0.912907
label 0 1
nr_sv 1 2
SV
1 0:1.6346154 1:5.3653846 2:1 3:0.71428571 4:0.71428571 6:1 11:0.032 12:0.0396 13:0.090909091 14:0.016666667 15:0.063 17:1 20:0.8125 
-0.0342501297353399 0:0.77966102 1:4.2711864 2:1 3:0.71428571 4:0.5 5:1.0009015 6:1 8:0.03 10:0.033333333 11:0.028 12:0.0437 14:0.0033333333 15:0.055 17:1 18:0.86 19:0.6056338 20:0.76623377 
-0.9657498702646601 0:0.83870968 1:4.2741935 2:0.83333333 3:0.71428571 4:0.52631579 6:1 8:0.03 11:0.03 12:0.0456 14:0.01 15:0.059 17:1 20:0.7654321 
