svm_type c_svc
kernel_type rbf
gamma 0.0526316
nr_class 2
total_sv 3
rho 0.99415
label 0 1
nr_sv 1 2
SV
1 0:0.015384615 1:0.061538462 2:0.030769231 3:0.061538462 4:0.16923077 5:0.061538462 6:0.046153846 7:0.015384615 8:0.061538462 9:0.015384615 10:0.046153846 11:0.015384615 12:0.046153846 13:0.015384615 14:0.092307692 15:0.046153846 16:0.092307692 17:0.030769231 18:0.030769231 19:0.046153846 
-0.5682864721485411 0:0.01754386 1:0.01754386 2:0.24561404 3:0.31578947 4:0.14035088 5:0.01754386 6:0.070175439 7:0.035087719 8:0.01754386 9:0.12280702 
-0.4317135278514589 0:0.016393443 1:0.016393443 2:0.16393443 3:0.29508197 4:0.016393443 5:0.13114754 6:0.016393443 7:0.049180328 8:0.016393443 9:0.032786885 10:0.24590164 
