svm_type c_svc
kernel_type rbf
gamma 0.0294118
nr_class 2
total_sv 2
rho 0.996605
label 0 1
nr_sv 1 1
SV
1 2:0.092307692 3:0.015384615 4:0.061538462 5:0.092307692 6:0.061538462 10:0.015384615 11:0.16923077 12:0.030769231 13:0.046153846 17:0.046153846 18:0.015384615 23:0.061538462 25:0.061538462 27:0.030769231 28:0.046153846 29:0.046153846 30:0.046153846 31:0.015384615 
-1 1:0.14035088 2:0.01754386 4:0.31578947 5:0.070175439 6:0.01754386 11:0.24561404 13:0.12280702 18:0.01754386 27:0.01754386 30:0.035087719 
