svm_type c_svc
kernel_type rbf
gamma 0.0625
nr_class 2
total_sv 2
rho 0.886696
label 0 1
nr_sv 1 1
SV
1 0:1.6346154 1:5.3653846 2:1 3:0.71428571 4:0.71428571 5:1 9:0.032 10:0.0396 11:0.090909091 12:0.016666667 13:0.063 15:1 16:0.8125 
-1 0:0.83870968 1:4.2741935 2:0.83333333 3:0.71428571 4:0.52631579 5:1 7:0.03 9:0.03 10:0.0456 12:0.01 13:0.059 15:1 16:0.7654321 
